{"learner":{"attributes":{"best_iteration":"133","best_score":"0.5932969991797612","scikit_learn":"{\"_estimator_type\": \"classifier\"}"},"feature_names":["elo_home","elo_away","elo_difference","elo_rolling_five_home","elo_rolling_five_away","implied_prob_home","pace_home","pace_away","pace_difference","shooting_pct_home","shooting_pct_away","shooting_pct_diff","home_win_pct_home","road_win_pct_home","games_played_home","home_win_pct_away","road_win_pct_away","games_played_away","home_implied_prob_close","away_implied_prob_close","home_spread_close","market_elo_diff","has_market_odds","sharp_signal_home","spread_movement_pts","open_implied_prob_home","line_movement","h2h_home_win_rate_10","h2h_home_pts_diff_10","home_court_strength_home","home_court_strength_away","ppg_10_home","opp_ppg_10_home","fg_pct_roll_10_home","ft_pct_roll_10_home","fg3_pct_roll_10_home","last_5_win_rate_home","last_10_win_rate_home","offensive_rating_home","defensive_rating_home","net_rating_home","turnovers_per_game_home","opponent_off_rating_10_home","opponent_def_rating_10_home","player_impact_estimate_home","player_injury_flag_home","injured_count_home","star_available_home","star_count_home","star_points_lost_home","star_points_lost_missing_home","rest_days_home","back_to_back_home","fatigue_load_index_home","coaching_adaptability_score_home","coaching_adaptability_score_missing_home","season_pressure_home","ppg_10_away","opp_ppg_10_away","fg_pct_roll_10_away","ft_pct_roll_10_away","fg3_pct_roll_10_away","last_5_win_rate_away","last_10_win_rate_away","offensive_rating_away","defensive_rating_away","net_rating_away","turnovers_per_game_away","opponent_off_rating_10_away","opponent_def_rating_10_away","player_impact_estimate_away","player_injury_flag_away","injured_count_away","star_available_away","star_count_away","star_points_lost_away","star_points_lost_missing_away","rest_days_away","back_to_back_away","fatigue_load_index_away","coaching_adaptability_score_away","coaching_adaptability_score_missing_away","season_pressure_away","elo_diff","net_rating_diff","offensive_rating_diff","defensive_rating_diff","last_5_win_rate_diff","last_10_win_rate_diff","ppg_10_diff","rest_days_diff","fatigue_load_index_diff","turnovers_per_game_diff","player_impact_estimate_diff","injured_count_diff","coaching_adaptability_score_diff","star_points_lost_diff","season_pressure_diff","sharp_signal_home_missing","book_consensus_std_missing","spread_movement_pts_missing","open_implied_prob_home_missing","line_movement_missing","home_spread_close_missing","coaching_adaptability_score_home_missing","coaching_adaptability_score_away_missing","star_points_lost_home_missing","star_points_lost_away_missing"],"feature_types":["float","float","float","float","float","float","float","float","float","float","float","float","float","float","int","float","float","int","float","float","float","float","int","float","float","float","float","float","float","float","float","float","float","float","float","float","float","float","float","float","float","float","float","float","float","int","int","int","int","float","int","int","int","int","float","int","int","float","float","float","float","float","float","float","float","float","float","float","float","float","float","int","int","int","int","float","int","int","int","int","float","int","int","float","float","float","float","float","float","float","int","int","float","float","int","float","float","int","int","int","int","int","int","int","int","int","int","int"],"gradient_booster":{"model":{"cats":{"enc":[],"feature_segments":[],"sorted_idx":[]},"gbtree_model_param":{"num_parallel_tree":"1","num_trees":"174"},"iteration_indptr":[0,1,2,3,4,5,6,7,8,9,10,11,12,13,14,15,16,17,18,19,20,21,22,23,24,25,26,27,28,29,30,31,32,33,34,35,36,37,38,39,40,41,42,43,44,45,46,47,48,49,50,51,52,53,54,55,56,57,58,59,60,61,62,63,64,65,66,67,68,69,70,71,72,73,74,75,76,77,78,79,80,81,82,83,84,85,86,87,88,89,90,91,92,93,94,95,96,97,98,99,100,101,102,103,104,105,106,107,108,109,110,111,112,113,114,115,116,117,118,119,120,121,122,123,124,125,126,127,128,129,130,131,132,133,134,135,136,137,138,139,140,141,142,143,144,145,146,147,148,149,150,151,152,153,154,155,156,157,158,159,160,161,162,163,164,165,166,167,168,169,170,171,172,173,174],"tree_info":[0,0,0,0,0,0,0,0,0,0,0,0,0,0,0,0,0,0,0,0,0,0,0,0,0,0,0,0,0,0,0,0,0,0,0,0,0,0,0,0,0,0,0,0,0,0,0,0,0,0,0,0,0,0,0,0,0,0,0,0,0,0,0,0,0,0,0,0,0,0,0,0,0,0,0,0,0,0,0,0,0,0,0,0,0,0,0,0,0,0,0,0,0,0,0,0,0,0,0,0,0,0,0,0,0,0,0,0,0,0,0,0,0,0,0,0,0,0,0,0,0,0,0,0,0,0,0,0,0,0,0,0,0,0,0,0,0,0,0,0,0,0,0,0,0,0,0,0,0,0,0,0,0,0,0,0,0,0,0,0,0,0,0,0,0,0,0,0,0,0,0,0,0,0],"trees":[{"base_weights":[-3.389804E-3,6.5384585E-1,-6.4242023E-1,1.1482699E0,4.7138E-1,-3.6698365E-1,-1.2584711E0,1.4608641E0,1.0219408E0,8.5486007E-1,2.5019288E-1,-9.985214E-2,-4.9986959E-1,-1.732903E0,-1.0814931E0,2.0096948E-2,4.5933116E-2,4.0328294E-2,2.7080242E-2,2.0535149E-2,3.513348E-2,4.221739E-3,1.5321684E-2,2.3064998E-3,-1.6407063E-2,-1.9779023E-2,-1.10292565E-2,-5.327885E-2,-2.4947012E-2,-4.612634E-2,-3.0460827E-2],"categories":[],"categories_nodes":[],"categories_segments":[],"categories_sizes":[],"default_left":[0,0,0,0,0,0,0,0,0,1,1,0,0,0,0,0,0,0,0,0,0,0,0,0,0,0,0,0,0,0,0],"id":0,"left_children":[1,3,5,7,9,11,13,15,17,19,21,23,25,27,29,-1,-1,-1,-1,-1,-1,-1,-1,-1,-1,-1,-1,-1,-1,-1,-1],"loss_changes":[2.2371826E3,2.363601E2,4.5781018E2,2.6433044E1,1.6262372E2,6.625093E1,6.815369E1,1.0152771E1,1.8276062E1,3.701068E1,3.4692E1,4.9163197E1,2.6046356E1,7.2526855E0,1.6838928E1,0E0,0E0,0E0,0E0,0E0,0E0,0E0,0E0,0E0,0E0,0E0,0E0,0E0,0E0,0E0,0E0],"parents":[2147483647,0,0,1,1,2,2,3,3,4,4,5,5,6,6,7,7,8,8,9,9,10,10,11,11,12,12,13,13,14,14],"right_children":[2,4,6,8,10,12,14,16,18,20,22,24,26,28,30,-1,-1,-1,-1,-1,-1,-1,-1,-1,-1,-1,-1,-1,-1,-1,-1],"split_conditions":[3.771316E-1,1.7945665E-1,6.172249E-1,1E0,2E0,2E0,2.4337554E-1,4E0,2E0,7.044335E-1,7.285667E-1,5.3601646E-1,5.116279E-1,1.75E1,1E0,2.0096948E-2,4.5933116E-2,4.0328294E-2,2.7080242E-2,2.0535149E-2,3.513348E-2,4.221739E-3,1.5321684E-2,2.3064998E-3,-1.6407063E-2,-1.9779023E-2,-1.10292565E-2,-5.327885E-2,-2.4947012E-2,-4.612634E-2,-3.0460827E-2],"split_indices":[19,19,19,45,72,72,18,14,72,25,25,19,18,20,45,0,0,0,0,0,0,0,0,0,0,0,0,0,0,0,0],"split_type":[0,0,0,0,0,0,0,0,0,0,0,0,0,0,0,0,0,0,0,0,0,0,0,0,0,0,0,0,0,0,0],"sum_hessian":[5.324706E3,2.6249504E3,2.6997554E3,7.061681E2,1.9187825E3,1.8667338E3,8.330217E2,2.0020604E2,5.0596207E2,7.0084216E2,1.2179403E3,6.2071136E2,1.2460223E3,2.2393057E2,6.090912E2,1.7188185E1,1.8301785E2,1.3387418E2,3.720879E2,4.5754465E2,2.4329755E2,8.58683E2,3.5925726E2,4.4544028E2,1.7527107E2,5.630946E2,6.8292773E2,2.1279457E2,1.1136007E1,7.432074E1,5.3477045E2],"tree_param":{"num_deleted":"0","num_feature":"108","num_nodes":"31","size_leaf_vector":"1"}},{"base_weights":[-1.9792444E-3,-6.649242E-1,6.044843E-1,-3.8024926E-1,-1.2412813E0,3.9670107E-1,1.072757E0,-5.732467E-1,-1.9114259E-1,-1.6146847E0,-1.0776132E0,7.461248E-1,1.8786494E-1,1.3657012E0,9.1629004E-1,-1.7993862E-2,7.497623E-3,5.3358744E-3,-1.1089023E-2,-5.4316796E-2,-4.290211E-2,-4.2685054E-2,-3.084992E-2,8.6825015E-3,2.5753163E-2,4.3694006E-4,1.0371655E-2,4.5010798E-2,3.4909602E-2,3.6656883E-2,2.0463424E-2],"categories":[],"categories_nodes":[],"categories_segments":[],"categories_sizes":[],"default_left":[0,0,1,0,0,0,0,0,0,0,0,0,0,0,0,0,0,0,0,0,0,0,0,0,0,0,0,0,0,0,0],"id":1,"left_children":[1,3,5,7,9,11,13,15,17,19,21,23,25,27,29,-1,-1,-1,-1,-1,-1,-1,-1,-1,-1,-1,-1,-1,-1,-1,-1],"loss_changes":[2.1548594E3,4.1965503E2,2.7192133E2,6.2499283E1,4.9971436E1,1.414531E2,3.8153748E1,1.869278E1,5.723314E1,6.6625366E0,8.59668E0,3.6967102E1,3.325641E1,6.342163E0,3.948819E1,0E0,0E0,0E0,0E0,0E0,0E0,0E0,0E0,0E0,0E0,0E0,0E0,0E0,0E0,0E0,0E0],"parents":[2147483647,0,0,1,1,2,2,3,3,4,4,5,5,6,6,7,7,8,8,9,9,10,10,11,11,12,12,13,13,14,14],"right_children":[2,4,6,8,10,12,14,16,18,20,22,24,26,28,30,-1,-1,-1,-1,-1,-1,-1,-1,-1,-1,-1,-1,-1,-1,-1,-1],"split_conditions":[6.0790116E-1,6.172249E-1,7.6878613E-1,5.116279E-1,2.5231287E-1,2E0,2E0,7.721311E-1,2E0,2E0,1E0,6E0,6.930878E-1,1E0,1.421005E-1,-1.7993862E-2,7.497623E-3,5.3358744E-3,-1.1089023E-2,-5.4316796E-2,-4.290211E-2,-4.2685054E-2,-3.084992E-2,8.6825015E-3,2.5753163E-2,4.3694006E-4,1.0371655E-2,4.5010798E-2,3.4909602E-2,3.6656883E-2,2.0463424E-2],"split_indices":[18,19,25,18,18,72,72,29,72,72,45,17,18,94,19,0,0,0,0,0,0,0,0,0,0,0,0,0,0,0,0],"split_type":[0,0,0,0,0,0,0,0,0,0,0,0,0,0,0,0,0,0,0,0,0,0,0,0,0,0,0,0,0,0,0],"sum_hessian":[5.357654E3,2.5595886E3,2.7980654E3,1.7144468E3,8.451418E2,1.9393699E3,8.5869556E2,8.474893E2,8.6695746E2,2.5484818E2,5.902936E2,7.245249E2,1.214845E3,2.9627277E2,5.624228E2,8.2127313E2,2.6216228E1,2.826414E2,5.843161E2,1.1937964E2,1.3546854E2,7.02593E1,5.200343E2,1.4371332E2,5.8081165E2,5.796162E2,6.352287E2,1.739287E2,1.22344055E2,2.4216847E2,3.202543E2],"tree_param":{"num_deleted":"0","num_feature":"108","num_nodes":"31","size_leaf_vector":"1"}},{"base_weights":[2.7987948E-3,-6.286968E-1,6.049117E-1,-1.0924454E0,-3.0718964E-1,4.276868E-1,1.0970199E0,-1.6258672E0,-9.4228584E-1,-3.5517782E-2,-4.4060457E-1,7.604098E-1,2.3799728E-1,1.3494884E0,8.461111E-1,-4.9390573E-2,-6.097507E-3,-3.567782E-2,-2.507762E-2,-1.0042669E-2,4.7025415E-3,-2.25218E-2,-1.11760935E-2,1.8243492E-2,3.418244E-2,2.2083665E-3,1.1883975E-2,2.7220549E-2,4.284138E-2,2.8011784E-2,1.2514564E-2],"categories":[],"categories_nodes":[],"categories_segments":[],"categories_sizes":[],"default_left":[0,0,0,0,0,0,0,0,0,0,0,1,0,0,0,0,0,0,0,0,0,0,0,0,0,0,0,0,0,0,0],"id":2,"left_children":[1,3,5,7,9,11,13,15,17,19,21,23,25,27,29,-1,-1,-1,-1,-1,-1,-1,-1,-1,-1,-1,-1,-1,-1,-1,-1],"loss_changes":[2.0268395E3,3.8758728E2,2.375155E2,8.3761475E1,5.5726746E1,1.2654416E2,4.4586426E1,6.4420166E0,2.089685E1,2.925704E1,2.1491043E1,4.1362396E1,3.325141E1,1.1143494E1,1.3318512E1,0E0,0E0,0E0,0E0,0E0,0E0,0E0,0E0,0E0,0E0,0E0,0E0,0E0,0E0,0E0,0E0],"parents":[2147483647,0,0,1,1,2,2,3,3,4,4,5,5,6,6,7,7,8,8,9,9,10,10,11,11,12,12,13,13,14,14],"right_children":[2,4,6,8,10,12,14,16,18,20,22,24,26,28,30,-1,-1,-1,-1,-1,-1,-1,-1,-1,-1,-1,-1,-1,-1,-1,-1],"split_conditions":[6.143408E-1,4.2016807E-1,8.17521E-1,2.5095165E-1,2E0,2E0,2E0,8.0487806E-1,2E0,5.068785E-1,2E0,7.183099E-1,7.050631E-1,9E0,-9E0,-4.9390573E-2,-6.097507E-3,-3.567782E-2,-2.507762E-2,-1.0042669E-2,4.7025415E-3,-2.25218E-2,-1.11760935E-2,1.8243492E-2,3.418244E-2,2.2083665E-3,1.1883975E-2,2.7220549E-2,4.284138E-2,2.8011784E-2,1.2514564E-2],"split_indices":[18,18,18,25,72,72,46,12,46,18,46,25,18,17,20,0,0,0,0,0,0,0,0,0,0,0,0,0,0,0,0],"split_type":[0,0,0,0,0,0,0,0,0,0,0,0,0,0,0,0,0,0,0,0,0,0,0,0,0,0,0,0,0,0,0],"sum_hessian":[5.328538E3,2.6007886E3,2.7277495E3,1.0638588E3,1.5369298E3,2.0068746E3,7.208748E2,2.315348E2,8.3232404E2,5.066034E2,1.0303264E3,7.276096E2,1.279265E3,3.571382E2,3.6373663E2,2.2809306E2,3.4417431E0,2.4748785E2,5.848362E2,1.978847E2,3.0871866E2,1.836371E2,8.466893E2,5.209028E2,2.0670686E2,6.279562E2,6.5130884E2,5.5775185E1,3.01363E2,3.0106686E2,6.2669758E1],"tree_param":{"num_deleted":"0","num_feature":"108","num_nodes":"31","size_leaf_vector":"1"}},{"base_weights":[3.370396E-3,-6.1309457E-1,5.720258E-1,-3.5253757E-1,-1.143462E0,3.0404064E-1,8.831691E-1,-5.206859E-1,-1.8662351E-1,-1.5452192E0,-9.892068E-1,6.4721966E-1,1.1873745E-1,1.155874E0,6.500462E-1,-1.6284391E-2,6.712568E-3,3.918262E-3,-1.0165676E-2,-5.179675E-2,-3.89947E-2,-3.796528E-2,-2.6084932E-2,6.353144E-3,2.2866976E-2,8.118469E-3,6.080665E-4,2.7526217E-2,4.1720435E-2,1.4086086E-2,2.611071E-2],"categories":[],"categories_nodes":[],"categories_segments":[],"categories_sizes":[],"default_left":[0,0,0,0,0,0,0,0,0,0,0,0,0,0,1,0,0,0,0,0,0,0,0,0,0,0,0,0,0,0,0],"id":3,"left_children":[1,3,5,7,9,11,13,15,17,19,21,23,25,27,29,-1,-1,-1,-1,-1,-1,-1,-1,-1,-1,-1,-1,-1,-1,-1,-1],"loss_changes":[1.8688547E3,3.5309314E2,2.3095648E2,4.7797684E1,5.0668457E1,9.476437E1,8.0793945E1,1.4157272E1,4.1850853E1,8.074829E0,1.9121216E1,2.6016922E1,1.4496439E1,3.173468E1,2.7183289E1,0E0,0E0,0E0,0E0,0E0,0E0,0E0,0E0,0E0,0E0,0E0,0E0,0E0,0E0,0E0,0E0],"parents":[2147483647,0,0,1,1,2,2,3,3,4,4,5,5,6,6,7,7,8,8,9,9,10,10,11,11,12,12,13,13,14,14],"right_children":[2,4,6,8,10,12,14,16,18,20,22,24,26,28,30,-1,-1,-1,-1,-1,-1,-1,-1,-1,-1,-1,-1,-1,-1,-1,-1],"split_conditions":[6.0790116E-1,6.172249E-1,7.5164855E-1,5.116279E-1,2.5095165E-1,2E0,2E0,7.721311E-1,2E0,3E0,2E0,7E0,3E0,8.367537E-1,8.094662E-1,-1.6284391E-2,6.712568E-3,3.918262E-3,-1.0165676E-2,-5.179675E-2,-3.89947E-2,-3.796528E-2,-2.6084932E-2,6.353144E-3,2.2866976E-2,8.118469E-3,6.080665E-4,2.7526217E-2,4.1720435E-2,1.4086086E-2,2.611071E-2],"split_indices":[18,19,18,18,25,72,46,29,72,46,46,17,72,18,25,0,0,0,0,0,0,0,0,0,0,0,0,0,0,0,0],"split_type":[0,0,0,0,0,0,0,0,0,0,0,0,0,0,0,0,0,0,0,0,0,0,0,0,0,0,0,0,0,0,0],"sum_hessian":[5.3291143E3,2.5570273E3,2.7720872E3,1.7157732E3,8.4125415E2,1.4903976E3,1.2816895E3,8.5108685E2,8.646863E2,2.3088847E2,6.1036566E2,5.2170825E2,9.686893E2,5.888731E2,6.928164E2,8.26783E2,2.4303833E1,2.804362E2,5.842501E2,1.2930249E2,1.01585976E2,1.8161215E2,4.287535E2,1.09598946E2,4.121093E2,3.8032568E2,5.883636E2,2.9467764E2,2.941955E2,3.8252695E2,3.1028943E2],"tree_param":{"num_deleted":"0","num_feature":"108","num_nodes":"31","size_leaf_vector":"1"}},{"base_weights":[-8.441601E-4,-6.0138637E-1,5.622353E-1,-3.434214E-1,-1.1155242E0,2.93238E-1,8.788387E-1,-5.249159E-1,-1.6198207E-1,-9.691309E-1,-1.4912115E0,6.2976426E-1,1.1102239E-1,1.1348702E0,6.5850973E-1,-2.2102814E-2,-1.2901101E-2,4.3039867E-3,-9.131819E-3,-3.834336E-2,-2.4957959E-2,-5.309517E-2,-4.1054938E-2,5.3100814E-3,2.183793E-2,8.416767E-3,4.495279E-5,4.1603655E-2,2.7260914E-2,1.4908416E-2,2.7209515E-2],"categories":[],"categories_nodes":[],"categories_segments":[],"categories_sizes":[],"default_left":[0,0,0,0,0,0,0,0,0,0,0,0,0,0,1,0,0,0,0,0,0,0,0,0,0,0,0,0,0,0,0],"id":4,"left_children":[1,3,5,7,9,11,13,15,17,19,21,23,25,27,29,-1,-1,-1,-1,-1,-1,-1,-1,-1,-1,-1,-1,-1,-1,-1,-1],"loss_changes":[1.8071388E3,3.426029E2,2.3463733E2,5.6669388E1,4.6049683E1,9.146051E1,7.069397E1,1.6992172E1,3.759738E1,2.5401001E1,5.7938843E0,2.3165558E1,1.8002594E1,3.203601E1,2.6970184E1,0E0,0E0,0E0,0E0,0E0,0E0,0E0,0E0,0E0,0E0,0E0,0E0,0E0,0E0,0E0,0E0],"parents":[2147483647,0,0,1,1,2,2,3,3,4,4,5,5,6,6,7,7,8,8,9,9,10,10,11,11,12,12,13,13,14,14],"right_children":[2,4,6,8,10,12,14,16,18,20,22,24,26,28,30,-1,-1,-1,-1,-1,-1,-1,-1,-1,-1,-1,-1,-1,-1,-1,-1],"split_conditions":[6.0790116E-1,6.172249E-1,7.5164855E-1,5.116279E-1,7.5662446E-1,2E0,2E0,2E0,2E0,2E0,2E0,6E0,3E0,-9.5E0,8.2044196E-1,-2.2102814E-2,-1.2901101E-2,4.3039867E-3,-9.131819E-3,-3.834336E-2,-2.4957959E-2,-5.309517E-2,-4.1054938E-2,5.3100814E-3,2.183793E-2,8.416767E-3,4.495279E-5,4.1603655E-2,2.7260914E-2,1.4908416E-2,2.7209515E-2],"split_indices":[18,19,18,18,19,72,46,46,72,46,46,17,72,20,25,0,0,0,0,0,0,0,0,0,0,0,0,0,0,0,0],"split_type":[0,0,0,0,0,0,0,0,0,0,0,0,0,0,0,0,0,0,0,0,0,0,0,0,0,0,0,0,0,0,0],"sum_hessian":[5.342146E3,2.5850452E3,2.7571008E3,1.7224741E3,8.62571E2,1.4916603E3,1.2654406E3,8.6015985E2,8.623143E2,6.2327893E2,2.3929202E2,5.2310455E2,9.6855566E2,5.8337897E2,6.820616E2,2.6398135E2,5.9617847E2,2.7419885E2,5.881154E2,1.8909924E2,4.3417972E2,6.906159E1,1.7023044E2,9.370848E1,4.293961E2,3.7951993E2,5.890357E2,2.735544E2,3.098246E2,4.1513385E2,2.6692776E2],"tree_param":{"num_deleted":"0","num_feature":"108","num_nodes":"31","size_leaf_vector":"1"}},{"base_weights":[-2.139007E-3,-5.335728E-1,5.9338266E-1,-9.278526E-1,-2.0826082E-1,4.0869468E-1,9.947265E-1,-1.3171213E0,-7.5872886E-1,4.940829E-2,-3.3500245E-1,7.312366E-1,2.258579E-1,1.2237428E0,7.83249E-1,-4.240603E-2,-2.0499928E-2,-2.4770714E-2,-1.2890865E-2,-4.9097636E-3,6.190453E-3,-1.5723294E-2,-6.5591563E-3,8.246056E-3,2.5472425E-2,4.9185962E-3,1.563432E-2,2.273219E-2,3.9285522E-2,6.7548146E-3,2.5124267E-2],"categories":[],"categories_nodes":[],"categories_segments":[],"categories_sizes":[],"default_left":[0,0,0,0,0,0,0,0,0,0,0,0,1,0,0,0,0,0,0,0,0,0,0,0,0,0,0,0,0,0,0],"id":5,"left_children":[1,3,5,7,9,11,13,15,17,19,21,23,25,27,29,-1,-1,-1,-1,-1,-1,-1,-1,-1,-1,-1,-1,-1,-1,-1,-1],"loss_changes":[1.6936134E3,3.6251923E2,1.8664673E2,8.314563E1,5.0659523E1,1.01854004E2,3.7525208E1,2.2605957E1,1.9328552E1,1.7159592E1,2.2761673E1,3.3401703E1,2.0123169E1,1.41848755E1,1.2397781E1,0E0,0E0,0E0,0E0,0E0,0E0,0E0,0E0,0E0,0E0,0E0,0E0,0E0,0E0,0E0,0E0],"parents":[2147483647,0,0,1,1,2,2,3,3,4,4,5,5,6,6,7,7,8,8,9,9,10,10,11,11,12,12,13,13,14,14],"right_children":[2,4,6,8,10,12,14,16,18,20,22,24,26,28,30,-1,-1,-1,-1,-1,-1,-1,-1,-1,-1,-1,-1,-1,-1,-1,-1],"split_conditions":[6.304647E-1,4.4799376E-1,8.0667835E-1,2.9765546E-1,2E0,2E0,2E0,4E0,2E0,4.8514727E-1,-6.2827232E1,7E0,7.5789475E-1,9E0,6E0,-4.240603E-2,-2.0499928E-2,-2.4770714E-2,-1.2890865E-2,-4.9097636E-3,6.190453E-3,-1.5723294E-2,-6.5591563E-3,8.246056E-3,2.5472425E-2,4.9185962E-3,1.563432E-2,2.273219E-2,3.9285522E-2,6.7548146E-3,2.5124267E-2],"split_indices":[18,18,18,25,72,72,46,72,94,44,2,17,25,17,17,0,0,0,0,0,0,0,0,0,0,0,0,0,0,0,0],"split_type":[0,0,0,0,0,0,0,0,0,0,0,0,0,0,0,0,0,0,0,0,0,0,0,0,0,0,0,0,0,0,0],"sum_hessian":[5.3494014E3,2.8268608E3,2.5225403E3,1.2771259E3,1.549735E3,1.7289437E3,7.935966E2,3.847551E2,8.923707E2,5.111545E2,1.0385806E3,6.244152E2,1.1045286E3,3.7870123E2,4.1489536E2,3.3288574E2,5.1869373E1,7.4021906E2,1.5215166E2,2.1679024E2,2.943643E2,3.9429416E2,6.442864E2,1.2883125E2,4.9558398E2,9.143886E2,1.9013992E2,6.0398327E1,3.1830292E2,3.7199387E1,3.7769598E2],"tree_param":{"num_deleted":"0","num_feature":"108","num_nodes":"31","size_leaf_vector":"1"}},{"base_weights":[7.7450164E-3,5.597952E-1,-5.183567E-1,1.0034573E0,4.011016E-1,-2.9325336E-1,-1.0116031E0,1.2709635E0,8.98502E-1,7.725967E-1,3.2419568E-1,-1.3552316E-1,-4.7829086E-1,-1.2847191E0,-7.9094976E-1,1.894927E-2,4.0474743E-2,3.1353366E-2,2.0447688E-2,6.2582763E-3,3.2054406E-2,7.0433267E-3,1.5850227E-2,-7.906846E-3,2.7615319E-3,-1.6184038E-2,-4.705678E-3,-4.9368475E-2,-3.51044E-2,-2.4292756E-2,1.4808265E-2],"categories":[],"categories_nodes":[],"categories_segments":[],"categories_sizes":[],"default_left":[0,0,0,0,0,0,0,0,0,0,0,0,0,0,0,0,0,0,0,0,0,0,0,0,0,0,0,0,0,0,0],"id":6,"left_children":[1,3,5,7,9,11,13,15,17,19,21,23,25,27,29,-1,-1,-1,-1,-1,-1,-1,-1,-1,-1,-1,-1,-1,-1,-1,-1],"loss_changes":[1.536577E3,1.813609E2,3.0048523E2,1.793518E1,5.4123016E1,5.4264847E1,5.011682E1,8.598999E0,1.4915649E1,5.412654E1,2.8689697E1,2.93459E1,1.6752136E1,1.3686157E1,1.1801697E1,0E0,0E0,0E0,0E0,0E0,0E0,0E0,0E0,0E0,0E0,0E0,0E0,0E0,0E0,0E0,0E0],"parents":[2147483647,0,0,1,1,2,2,3,3,4,4,5,5,6,6,7,7,8,8,9,9,10,10,11,11,12,12,13,13,14,14],"right_children":[2,4,6,8,10,12,14,16,18,20,22,24,26,28,30,-1,-1,-1,-1,-1,-1,-1,-1,-1,-1,-1,-1,-1,-1,-1,-1],"split_conditions":[3.771316E-1,1.7945665E-1,6.172249E-1,1E0,1E0,4.8916575E-1,2.9765546E-1,5E0,1.421005E-1,8E0,7.4908096E-1,1E0,2E0,1E0,4E0,1.894927E-2,4.0474743E-2,3.1353366E-2,2.0447688E-2,6.2582763E-3,3.2054406E-2,7.0433267E-3,1.5850227E-2,-7.906846E-3,2.7615319E-3,-1.6184038E-2,-4.705678E-3,-4.9368475E-2,-3.51044E-2,-2.4292756E-2,1.4808265E-2],"split_indices":[19,19,19,45,71,19,25,17,19,14,18,94,94,71,94,0,0,0,0,0,0,0,0,0,0,0,0,0,0,0,0],"split_type":[0,0,0,0,0,0,0,0,0,0,0,0,0,0,0,0,0,0,0,0,0,0,0,0,0,0,0,0,0,0,0],"sum_hessian":[5.2886147E3,2.5806343E3,2.7079805E3,6.7847845E2,1.9021558E3,1.8604978E3,8.474828E2,1.8805669E2,4.9042175E2,3.246901E2,1.5774657E3,1.0052944E3,8.552034E2,3.7656412E2,4.7091864E2,2.148365E1,1.6657304E2,2.903543E2,2.0006744E2,1.123133E2,2.1237679E2,1.0984718E3,4.7899396E2,6.432368E2,3.620576E2,7.1789233E2,1.3731111E2,8.751951E1,2.8904462E2,4.6448712E2,6.431498E0],"tree_param":{"num_deleted":"0","num_feature":"108","num_nodes":"31","size_leaf_vector":"1"}},{"base_weights":[5.808164E-3,5.5848396E-1,-5.14884E-1,9.8893887E-1,4.057608E-1,-2.9165667E-1,-1.0055518E0,1.2203084E0,7.620148E-1,7.431901E-1,2.1532679E-1,-4.6949574E-1,-1.4177099E-1,-1.3420427E0,-8.7880164E-1,3.0802485E-2,4.0967673E-2,2.3534518E-2,-1.769321E-2,1.7867642E-2,3.245464E-2,2.1159363E-3,9.28526E-3,-2.0576995E-2,-1.1137006E-2,4.445769E-3,-8.491807E-3,-4.8828244E-2,-3.6489557E-2,-3.4400698E-2,-2.2784526E-2],"categories":[],"categories_nodes":[],"categories_segments":[],"categories_sizes":[],"default_left":[0,0,0,0,0,0,0,1,0,1,0,0,0,0,0,0,0,0,0,0,0,0,0,0,0,0,0,0,0,0,0],"id":7,"left_children":[1,3,5,7,9,11,13,15,17,19,21,23,25,27,29,-1,-1,-1,-1,-1,-1,-1,-1,-1,-1,-1,-1,-1,-1,-1,-1],"loss_changes":[1.5290538E3,1.6904633E2,2.9936682E2,3.447351E1,1.2220114E2,5.0093674E1,3.528943E1,7.940033E0,1.0883438E1,3.3671997E1,1.659708E1,1.80372E1,4.1935883E1,6.351898E0,1.9074615E1,0E0,0E0,0E0,0E0,0E0,0E0,0E0,0E0,0E0,0E0,0E0,0E0,0E0,0E0,0E0,0E0],"parents":[2147483647,0,0,1,1,2,2,3,3,4,4,5,5,6,6,7,7,8,8,9,9,10,10,11,11,12,12,13,13,14,14],"right_children":[2,4,6,8,10,12,14,16,18,20,22,24,26,28,30,-1,-1,-1,-1,-1,-1,-1,-1,-1,-1,-1,-1,-1,-1,-1,-1],"split_conditions":[3.771316E-1,1.7945665E-1,6.172249E-1,2E0,2E0,5.116279E-1,2.4337554E-1,8.52459E-1,6E0,7.183099E-1,6.930878E-1,0E0,2E0,2E0,2E0,3.0802485E-2,4.0967673E-2,2.3534518E-2,-1.769321E-2,1.7867642E-2,3.245464E-2,2.1159363E-3,9.28526E-3,-2.0576995E-2,-1.1137006E-2,4.445769E-3,-8.491807E-3,-4.8828244E-2,-3.6489557E-2,-3.4400698E-2,-2.2784526E-2],"split_indices":[19,19,19,46,72,18,18,25,46,25,18,94,72,46,46,0,0,0,0,0,0,0,0,0,0,0,0,0,0,0,0],"split_type":[0,0,0,0,0,0,0,0,0,0,0,0,0,0,0,0,0,0,0,0,0,0,0,0,0,0,0,0,0,0,0],"sum_hessian":[5.3113857E3,2.576525E3,2.734861E3,6.733086E2,1.9032163E3,1.8807953E3,8.5406573E2,3.3122113E2,3.4208746E2,6.8556445E2,1.2176519E3,8.59211E2,1.0215843E3,2.3106265E2,6.2300305E2,1.4547313E2,1.85748E2,3.3690714E2,5.18033E0,4.7937433E2,2.0619014E2,4.8057025E2,7.3708154E2,2.66442E2,5.92769E2,3.3468082E2,6.869035E2,6.698021E1,1.6408246E2,1.8932501E2,4.3367804E2],"tree_param":{"num_deleted":"0","num_feature":"108","num_nodes":"31","size_leaf_vector":"1"}},{"base_weights":[-1.419644E-4,4.6898162E-1,-5.66693E-1,8.2223797E-1,2.730234E-1,-3.3778536E-1,-9.7408843E-1,1.0719306E0,6.0519487E-1,4.6772793E-1,-2.4633821E-2,-9.3891494E-2,-4.4052002E-1,-1.2810253E0,-8.451589E-1,1.614615E-2,3.557858E-2,1.93468E-2,-6.0096313E-3,1.8117014E-2,8.971532E-3,4.9743247E-3,-4.8251515E-3,5.798102E-3,-6.2513263E-3,-1.9103408E-2,-1.0616795E-2,-4.8168212E-2,-3.4378096E-2,-2.9156959E-2,-2.0053355E-2],"categories":[],"categories_nodes":[],"categories_segments":[],"categories_sizes":[],"default_left":[0,0,0,0,0,0,0,0,0,0,0,0,0,0,0,0,0,0,0,0,0,0,0,0,0,0,0,0,0,0,0],"id":8,"left_children":[1,3,5,7,9,11,13,15,17,19,21,23,25,27,29,-1,-1,-1,-1,-1,-1,-1,-1,-1,-1,-1,-1,-1,-1,-1,-1],"loss_changes":[1.408848E3,2.0050311E2,2.2358337E2,5.539386E1,1.08190384E2,3.85157E1,3.3078552E1,2.8547852E1,1.7893494E1,2.5740082E1,1.9198376E1,1.5076066E1,1.8178085E1,9.271332E0,1.3030884E1,0E0,0E0,0E0,0E0,0E0,0E0,0E0,0E0,0E0,0E0,0E0,0E0,0E0,0E0,0E0,0E0],"parents":[2147483647,0,0,1,1,2,2,3,3,4,4,5,5,6,6,7,7,8,8,9,9,10,10,11,11,12,12,13,13,14,14],"right_children":[2,4,6,8,10,12,14,16,18,20,22,24,26,28,30,-1,-1,-1,-1,-1,-1,-1,-1,-1,-1,-1,-1,-1,-1,-1,-1],"split_conditions":[4.108787E-1,2.2522523E-1,6.172249E-1,2E0,3E0,-1E0,2.5534442E-1,9E0,5E0,3.266449E-1,3.0902126E-1,2E0,0E0,2E0,3E0,1.614615E-2,3.557858E-2,1.93468E-2,-6.0096313E-3,1.8117014E-2,8.971532E-3,4.9743247E-3,-4.8251515E-3,5.798102E-3,-6.2513263E-3,-1.9103408E-2,-1.0616795E-2,-4.8168212E-2,-3.4378096E-2,-2.9156959E-2,-2.0053355E-2],"split_indices":[19,19,19,46,72,20,25,17,72,19,19,72,94,46,46,0,0,0,0,0,0,0,0,0,0,0,0,0,0,0,0],"split_type":[0,0,0,0,0,0,0,0,0,0,0,0,0,0,0,0,0,0,0,0,0,0,0,0,0,0,0,0,0,0,0],"sum_hessian":[5.298757E3,2.8987036E3,2.4000532E3,1.033109E3,1.8655945E3,1.5378142E3,8.62239E2,4.7858826E2,5.5452075E2,1.1274995E3,7.3809503E2,4.5634866E2,1.0814656E3,2.5240758E2,6.098314E2,8.525204E1,3.933362E2,5.286658E2,2.5854998E1,6.224314E2,5.0506805E2,3.0767657E2,4.3041846E2,1.2988194E2,3.264667E2,3.29226E2,7.5223956E2,7.097889E1,1.814287E2,3.5251E2,2.5732144E2],"tree_param":{"num_deleted":"0","num_feature":"108","num_nodes":"31","size_leaf_vector":"1"}},{"base_weights":[-3.1699642E-4,-5.7769024E-1,4.416843E-1,-3.5577834E-1,-9.719093E-1,2.072525E-1,7.7988845E-1,-1.8813726E-1,-4.9615812E-1,-8.536879E-1,-1.3341854E0,5.3355587E-1,3.3976838E-2,1.0288794E0,5.715628E-1,1.8689126E-3,-8.9005865E-3,-2.2305775E-2,-1.1592662E-2,-3.0001359E-2,-1.9520175E-2,-4.1736074E-2,-2.3570891E-2,2.3227207E-2,1.0924812E-2,5.93013E-3,-2.1064586E-3,1.4461596E-2,3.4039762E-2,2.3895336E-2,1.2398476E-2],"categories":[],"categories_nodes":[],"categories_segments":[],"categories_sizes":[],"default_left":[0,0,0,0,1,0,0,0,0,0,0,0,0,0,0,0,0,0,0,0,0,0,0,0,0,0,0,0,0,0,0],"id":9,"left_children":[1,3,5,7,9,11,13,15,17,19,21,23,25,27,29,-1,-1,-1,-1,-1,-1,-1,-1,-1,-1,-1,-1,-1,-1,-1,-1],"loss_changes":[1.3485667E3,2.0010156E2,2.3714539E2,3.4444763E1,3.418103E1,1.00006966E2,6.2952515E1,1.824494E1,2.1378448E1,1.7906494E1,5.196869E0,2.4732162E1,1.9739769E1,3.1658325E1,2.3497513E1,0E0,0E0,0E0,0E0,0E0,0E0,0E0,0E0,0E0,0E0,0E0,0E0,0E0,0E0,0E0,0E0],"parents":[2147483647,0,0,1,1,2,2,3,3,4,4,5,5,6,6,7,7,8,8,9,9,10,10,11,11,12,12,13,13,14,14],"right_children":[2,4,6,8,10,12,14,16,18,20,22,24,26,28,30,-1,-1,-1,-1,-1,-1,-1,-1,-1,-1,-1,-1,-1,-1,-1,-1],"split_conditions":[5.792858E-1,6.2473005E-1,7.5164855E-1,2E0,8.5E0,2E0,2E0,2E0,0E0,3E0,8.214286E-1,-4.5E0,3E0,8E0,-9.5E0,1.8689126E-3,-8.9005865E-3,-2.2305775E-2,-1.1592662E-2,-3.0001359E-2,-1.9520175E-2,-4.1736074E-2,-2.3570891E-2,2.3227207E-2,1.0924812E-2,5.93013E-3,-2.1064586E-3,1.4461596E-2,3.4039762E-2,2.3895336E-2,1.2398476E-2],"split_indices":[18,19,18,20,20,72,46,72,94,46,16,20,72,14,20,0,0,0,0,0,0,0,0,0,0,0,0,0,0,0,0],"split_type":[0,0,0,0,0,0,0,0,0,0,0,0,0,0,0,0,0,0,0,0,0,0,0,0,0,0,0,0,0,0,0],"sum_hessian":[5.282358E3,2.2903E3,2.992058E3,1.4666199E3,8.2368005E2,1.76809E3,1.2239681E3,6.6947516E2,7.971448E2,6.235527E2,2.0012738E2,6.125291E2,1.1555608E3,5.557712E2,6.6819696E2,2.0256396E2,4.6691116E2,2.4318346E2,5.539613E2,3.6005594E2,2.6349677E2,1.7989073E2,2.0236645E1,2.5154805E2,3.6098105E2,4.490968E2,7.0646405E2,9.09845E1,4.647867E2,2.743118E2,3.9388513E2],"tree_param":{"num_deleted":"0","num_feature":"108","num_nodes":"31","size_leaf_vector":"1"}},{"base_weights":[-8.444291E-3,5.1011336E-1,-4.7894305E-1,9.913554E-1,3.82499E-1,-2.1474132E-1,-8.218086E-1,1.3057815E0,8.701472E-1,7.090203E-1,1.9593647E-1,1.0463577E-2,-3.2669753E-1,-6.59012E-1,-1.091026E0,1.3068159E-2,3.9838232E-2,3.2235224E-2,2.1836212E-2,9.440356E-3,2.490992E-2,1.094762E-2,2.3937286E-3,-1.791784E-3,1.28143765E-2,-1.458682E-2,-6.5271463E-3,-2.1507364E-2,-9.972889E-3,-4.259125E-2,-2.9672833E-2],"categories":[],"categories_nodes":[],"categories_segments":[],"categories_sizes":[],"default_left":[0,0,0,0,0,0,0,0,0,0,0,0,0,0,0,0,0,0,0,0,0,0,0,0,0,0,0,0,0,0,0],"id":10,"left_children":[1,3,5,7,9,11,13,15,17,19,21,23,25,27,29,-1,-1,-1,-1,-1,-1,-1,-1,-1,-1,-1,-1,-1,-1,-1,-1],"loss_changes":[1.2854521E3,1.5354333E2,2.5005066E2,1.8860352E1,1.20637054E2,3.9373344E1,5.1954773E1,2.1980438E0,1.0315887E1,3.4207153E1,2.4761757E1,1.5218342E1,1.8051956E1,1.39713745E1,1.3717957E1,0E0,0E0,0E0,0E0,0E0,0E0,0E0,0E0,0E0,0E0,0E0,0E0,0E0,0E0,0E0,0E0],"parents":[2147483647,0,0,1,1,2,2,3,3,4,4,5,5,6,6,7,7,8,8,9,9,10,10,11,11,12,12,13,13,14,14],"right_children":[2,4,6,8,10,12,14,16,18,20,22,24,26,28,30,-1,-1,-1,-1,-1,-1,-1,-1,-1,-1,-1,-1,-1,-1,-1,-1],"split_conditions":[3.7526998E-1,-9.5E0,5.623795E-1,1E0,2E0,2E0,6.9576997E-1,8.17521E-1,-1.2E1,8E0,3E0,5.3194606E-1,-6.2827232E1,5.152064E-1,1E0,1.3068159E-2,3.9838232E-2,3.2235224E-2,2.1836212E-2,9.440356E-3,2.490992E-2,1.094762E-2,2.3937286E-3,-1.791784E-3,1.28143765E-2,-1.458682E-2,-6.5271463E-3,-2.1507364E-2,-9.972889E-3,-4.259125E-2,-2.9672833E-2],"split_indices":[19,20,19,45,72,72,19,18,20,14,72,44,2,44,72,0,0,0,0,0,0,0,0,0,0,0,0,0,0,0,0],"split_type":[0,0,0,0,0,0,0,0,0,0,0,0,0,0,0,0,0,0,0,0,0,0,0,0,0,0,0,0,0,0,0],"sum_hessian":[5.2666616E3,2.5053354E3,2.761326E3,5.2369165E2,1.9816438E3,1.5604879E3,1.2008381E3,1.4298953E2,3.807021E2,7.1952765E2,1.2621162E3,5.1846967E2,1.0420183E3,7.504727E2,4.5036536E2,4.063884E0,1.3892564E2,1.5356718E2,2.2713492E2,1.7011885E2,5.494088E2,5.1324133E2,7.488749E2,4.4445782E2,7.40118E1,4.2185638E2,6.2016187E2,6.36442E2,1.14030716E2,1.0354665E2,3.468187E2],"tree_param":{"num_deleted":"0","num_feature":"108","num_nodes":"31","size_leaf_vector":"1"}},{"base_weights":[-4.421629E-3,4.4933206E-1,-5.1451993E-1,8.008567E-1,2.5088313E-1,-3.060043E-1,-9.0962535E-1,6.3235915E-1,1.0443982E0,4.274704E-1,-2.009367E-2,-5.162772E-1,-2.089246E-1,-1.225162E0,-7.8681266E-1,2.7933476E-2,1.3495468E-2,3.4880612E-2,2.5004722E-2,1.6292874E-2,8.101141E-3,4.541171E-3,-4.510801E-3,-1.6503613E-2,3.715612E-3,-3.0875523E-3,-1.2741084E-2,-4.228156E-2,-3.174763E-2,-2.4246529E-2,-2.3775713E-3],"categories":[],"categories_nodes":[],"categories_segments":[],"categories_sizes":[],"default_left":[0,0,0,0,0,0,0,0,0,0,0,1,0,0,0,0,0,0,0,0,0,0,0,0,0,0,0,0,0,0,0],"id":11,"left_children":[1,3,5,7,9,11,13,15,17,19,21,23,25,27,29,-1,-1,-1,-1,-1,-1,-1,-1,-1,-1,-1,-1,-1,-1,-1,-1],"loss_changes":[1.2152335E3,1.9363513E2,2.0335388E2,4.046454E1,8.5061935E1,3.2948822E1,3.210376E1,3.2017593E1,9.216858E0,1.944371E1,1.570852E1,1.113446E1,2.5336258E1,5.8044434E0,9.281158E0,0E0,0E0,0E0,0E0,0E0,0E0,0E0,0E0,0E0,0E0,0E0,0E0,0E0,0E0,0E0,0E0],"parents":[2147483647,0,0,1,1,2,2,3,3,4,4,5,5,6,6,7,7,8,8,9,9,10,10,11,11,12,12,13,13,14,14],"right_children":[2,4,6,8,10,12,14,16,18,20,22,24,26,28,30,-1,-1,-1,-1,-1,-1,-1,-1,-1,-1,-1,-1,-1,-1,-1,-1],"split_conditions":[4.037267E-1,2.2522523E-1,6.172249E-1,8.578995E-1,3E0,0E0,2.5095165E-1,2E0,3E0,2E0,3.0902126E-1,2.6875E1,5.3601646E-1,2E0,1.1366504E2,2.7933476E-2,1.3495468E-2,3.4880612E-2,2.5004722E-2,1.6292874E-2,8.101141E-3,4.541171E-3,-4.510801E-3,-1.6503613E-2,3.715612E-3,-3.0875523E-3,-1.2741084E-2,-4.228156E-2,-3.174763E-2,-2.4246529E-2,-2.3775713E-3],"split_indices":[19,19,19,18,72,94,25,72,72,72,19,49,19,72,43,0,0,0,0,0,0,0,0,0,0,0,0,0,0,0,0],"split_type":[0,0,0,0,0,0,0,0,0,0,0,0,0,0,0,0,0,0,0,0,0,0,0,0,0,0,0,0,0,0,0],"sum_hessian":[5.2483203E3,2.7776257E3,2.4706948E3,1.0011652E3,1.7764604E3,1.6183763E3,8.5231836E2,5.938786E2,4.0728662E2,1.075205E3,7.012555E2,5.0981277E2,1.1085636E3,2.3627994E2,6.1603845E2,2.2366031E2,3.7021832E2,2.5804654E2,1.4924008E2,6.185004E2,4.567045E2,3.026818E2,3.9857373E2,4.843463E2,2.5466446E1,7.443573E2,3.6420633E2,1.0877547E2,1.2750447E2,5.9781134E2,1.8227093E1],"tree_param":{"num_deleted":"0","num_feature":"108","num_nodes":"31","size_leaf_vector":"1"}},{"base_weights":[4.077168E-3,4.8111656E-1,-4.3701756E-1,9.7617114E-1,3.5718048E-1,-1.9505256E-1,-7.6653725E-1,1.2106059E0,7.428078E-1,6.6658306E-1,1.9053186E-1,2.6705123E-2,-3.0509275E-1,-6.5527725E-1,-1.1109849E0,3.8473025E-2,2.8391248E-2,2.427334E-2,-1.6491051E-3,7.869743E-3,2.3783306E-2,1.03177875E-2,2.579812E-3,-7.3185656E-3,5.160197E-3,-1.7460924E-2,-7.2992896E-3,-2.1386322E-2,-1.0132089E-2,-3.5693545E-2,-1.7449284E-2],"categories":[],"categories_nodes":[],"categories_segments":[],"categories_sizes":[],"default_left":[0,0,0,0,0,0,1,0,0,0,0,0,0,0,0,0,0,0,0,0,0,0,0,0,0,0,0,0,0,0,0],"id":12,"left_children":[1,3,5,7,9,11,13,15,17,19,21,23,25,27,29,-1,-1,-1,-1,-1,-1,-1,-1,-1,-1,-1,-1,-1,-1,-1,-1],"loss_changes":[1.1086471E3,1.549555E2,2.1811841E2,2.679602E1,1.0433661E2,3.85588E1,4.3677734E1,3.5491638E0,1.3600784E1,3.595294E1,2.1108013E1,2.0682962E1,1.7925644E1,1.5822876E1,1.1048248E1,0E0,0E0,0E0,0E0,0E0,0E0,0E0,0E0,0E0,0E0,0E0,0E0,0E0,0E0,0E0,0E0],"parents":[2147483647,0,0,1,1,2,2,3,3,4,4,5,5,6,6,7,7,8,8,9,9,10,10,11,11,12,12,13,13,14,14],"right_children":[2,4,6,8,10,12,14,16,18,20,22,24,26,28,30,-1,-1,-1,-1,-1,-1,-1,-1,-1,-1,-1,-1,-1,-1,-1,-1],"split_conditions":[3.771316E-1,1.6E-1,5.71116E-1,2E0,2E0,2E0,7.5E0,3E0,6.818182E-1,9E0,3E0,-3.3916988E0,2E0,4E0,4E0,3.8473025E-2,2.8391248E-2,2.427334E-2,-1.6491051E-3,7.869743E-3,2.3783306E-2,1.03177875E-2,2.579812E-3,-7.3185656E-3,5.160197E-3,-1.7460924E-2,-7.2992896E-3,-2.1386322E-2,-1.0132089E-2,-3.5693545E-2,-1.7449284E-2],"split_indices":[19,19,19,46,72,72,20,72,15,14,72,40,46,46,72,0,0,0,0,0,0,0,0,0,0,0,0,0,0,0,0],"split_type":[0,0,0,0,0,0,0,0,0,0,0,0,0,0,0,0,0,0,0,0,0,0,0,0,0,0,0,0,0,0,0],"sum_hessian":[5.2667456E3,2.5302336E3,2.7365122E3,5.0523386E2,2.0249998E3,1.5787987E3,1.1577136E3,2.4994933E2,2.5528452E2,7.0783026E2,1.3171694E3,5.23857E2,1.0549417E3,8.772542E2,2.804594E2,1.9349602E2,5.6453316E1,2.3568266E2,1.960186E1,1.6912425E2,5.38706E2,5.329109E2,7.8425854E2,1.8275497E2,3.4110202E2,1.9088655E2,8.640551E2,7.4150446E2,1.3574979E2,2.4303291E2,3.7426487E1],"tree_param":{"num_deleted":"0","num_feature":"108","num_nodes":"31","size_leaf_vector":"1"}},{"base_weights":[5.5983714E-3,-4.1875458E-1,4.8449147E-1,-2.41017E-1,-8.1823176E-1,9.137048E-1,3.4422094E-1,-3.9545152E-1,-1.13669455E-1,-1.130632E0,-6.989323E-1,1.170443E0,6.9298124E-1,6.5976197E-1,2.756466E-1,-1.2469752E-2,1.2487342E-2,6.2847803E-3,-5.2078846E-3,-4.2422377E-2,-3.0417161E-2,-2.7592575E-2,-1.8061701E-2,2.5755374E-2,3.7503846E-2,2.489765E-2,1.216841E-2,3.9039287E-3,2.9307602E-2,1.7548012E-2,7.056743E-3],"categories":[],"categories_nodes":[],"categories_segments":[],"categories_sizes":[],"default_left":[0,0,0,0,0,0,0,0,0,0,0,0,0,0,0,0,0,0,0,0,0,0,0,0,0,0,0,0,0,0,0],"id":13,"left_children":[1,3,5,7,9,11,13,15,17,19,21,23,25,27,29,-1,-1,-1,-1,-1,-1,-1,-1,-1,-1,-1,-1,-1,-1,-1,-1],"loss_changes":[1.0691942E3,1.9786224E2,1.4850183E2,3.7950592E1,3.120642E1,3.3655914E1,4.016356E1,1.4487228E1,2.0569016E1,6.3624268E0,1.2792725E1,5.8796387E0,1.2630051E1,5.5667007E1,1.9032997E1,0E0,0E0,0E0,0E0,0E0,0E0,0E0,0E0,0E0,0E0,0E0,0E0,0E0,0E0,0E0,0E0],"parents":[2147483647,0,0,1,1,2,2,3,3,4,4,5,5,6,6,7,7,8,8,9,9,10,10,11,11,12,12,13,13,14,14],"right_children":[2,4,6,8,10,12,14,16,18,20,22,24,26,28,30,-1,-1,-1,-1,-1,-1,-1,-1,-1,-1,-1,-1,-1,-1,-1,-1],"split_conditions":[6.261006E-1,6.172249E-1,-9E0,5.116279E-1,2.5095165E-1,2E0,1E0,7.7286154E-1,1E0,2E0,2E0,8.367537E-1,1.044E2,8E0,1E0,-1.2469752E-2,1.2487342E-2,6.2847803E-3,-5.2078846E-3,-4.2422377E-2,-3.0417161E-2,-2.7592575E-2,-1.8061701E-2,2.5755374E-2,3.7503846E-2,2.489765E-2,1.216841E-2,3.9039287E-3,2.9307602E-2,1.7548012E-2,7.056743E-3],"split_indices":[18,19,20,18,25,46,71,29,71,46,46,18,32,14,45,0,0,0,0,0,0,0,0,0,0,0,0,0,0,0,0],"split_type":[0,0,0,0,0,0,0,0,0,0,0,0,0,0,0,0,0,0,0,0,0,0,0,0,0,0,0,0,0,0,0],"sum_hessian":[5.259274E3,2.7884873E3,2.4707866E3,1.9309583E3,8.575292E2,6.0722546E2,1.8635613E3,8.717186E2,1.0592396E3,2.3463399E2,6.228952E2,2.787223E2,3.2850314E2,3.3115396E2,1.5324073E3,8.510207E2,2.0697933E1,1.6530676E2,8.9393286E2,6.519839E1,1.694356E2,1.8735039E2,4.355448E2,5.9109604E1,2.1961269E2,2.2120392E2,1.0729923E2,1.24559296E2,2.0659467E2,1.7556935E2,1.356838E3],"tree_param":{"num_deleted":"0","num_feature":"108","num_nodes":"31","size_leaf_vector":"1"}},{"base_weights":[4.5418553E-3,4.7748518E-1,-3.9887285E-1,3.2820055E-1,8.148663E-1,-2.3026337E-1,-8.119192E-1,6.203391E-1,1.6729091E-1,1.047552E0,6.064849E-1,-1.4330602E-1,-4.4372064E-1,-1.1196328E0,-7.0197606E-1,4.2286376E-3,2.1585602E-2,9.601392E-3,1.5029341E-3,1.8997766E-2,3.384722E-2,1.6434673E-2,3.353433E-2,2.8042817E-3,-7.7455775E-3,1.4464621E-3,-1.4633725E-2,-1.7017843E-2,-3.5398763E-2,-2.8718973E-2,-1.7911078E-2],"categories":[],"categories_nodes":[],"categories_segments":[],"categories_sizes":[],"default_left":[0,0,0,0,0,0,0,0,0,0,0,0,0,0,0,0,0,0,0,0,0,0,0,0,0,0,0,0,0,0,0],"id":14,"left_children":[1,3,5,7,9,11,13,15,17,19,21,23,25,27,29,-1,-1,-1,-1,-1,-1,-1,-1,-1,-1,-1,-1,-1,-1,-1,-1],"loss_changes":[1.00075E3,1.2134271E2,1.9695273E2,7.866051E1,3.5244537E1,3.727385E1,2.6960938E1,2.8175934E1,1.935049E1,1.0926483E1,1.1168564E1,3.894287E1,1.2636299E1,6.4688416E0,1.5690735E1,0E0,0E0,0E0,0E0,0E0,0E0,0E0,0E0,0E0,0E0,0E0,0E0,0E0,0E0,0E0,0E0],"parents":[2147483647,0,0,1,1,2,2,3,3,4,4,5,5,6,6,7,7,8,8,9,9,10,10,11,11,12,12,13,13,14,14],"right_children":[2,4,6,8,10,12,14,16,18,20,22,24,26,28,30,-1,-1,-1,-1,-1,-1,-1,-1,-1,-1,-1,-1,-1,-1,-1,-1],"split_conditions":[3.6953536E-1,8.0667835E-1,6.2473005E-1,2E0,2E0,5.3601646E-1,2.4210526E-1,6E0,-6E0,9E0,9.21522E-1,2E0,4E0,-4.76E0,2E0,4.2286376E-3,2.1585602E-2,9.601392E-3,1.5029341E-3,1.8997766E-2,3.384722E-2,1.6434673E-2,3.353433E-2,2.8042817E-3,-7.7455775E-3,1.4464621E-3,-1.4633725E-2,-1.7017843E-2,-3.5398763E-2,-2.8718973E-2,-1.7911078E-2],"split_indices":[19,18,19,72,46,19,25,17,20,17,18,72,17,8,46,0,0,0,0,0,0,0,0,0,0,0,0,0,0,0,0],"split_type":[0,0,0,0,0,0,0,0,0,0,0,0,0,0,0,0,0,0,0,0,0,0,0,0,0,0,0,0,0,0,0],"sum_hessian":[5.2432344E3,2.4135383E3,2.8296958E3,1.6745535E3,7.389849E2,2.010534E3,8.1916187E2,5.9373895E2,1.0808145E3,3.472296E2,3.917553E2,1.429757E3,5.807771E2,2.1321698E2,6.059449E2,1.0219717E2,4.9154178E2,4.6846387E2,6.1235065E2,5.8045525E1,2.8918408E2,3.5329462E2,3.8460686E1,4.6712964E2,9.6262726E2,4.774352E1,5.3303357E2,2.2017546E1,1.9119943E2,1.741382E2,4.3180667E2],"tree_param":{"num_deleted":"0","num_feature":"108","num_nodes":"31","size_leaf_vector":"1"}},{"base_weights":[2.3267413E-3,-4.3172997E-1,4.2818007E-1,-8.008422E-1,-2.493819E-1,2.1952339E-1,6.774524E-1,-1.073391E0,-6.983396E-1,-4.5103535E-1,-1.581761E-1,5.1057196E-1,1.6331246E-1,9.123344E-1,4.8551476E-1,-4.0811848E-2,-2.8395798E-2,-2.467115E-2,-1.5682898E-2,-1.73845E-2,-8.020386E-3,-8.784107E-3,-3.852932E-4,2.099436E-3,2.2637904E-2,9.7674895E-3,3.1632837E-3,1.2606047E-2,3.0579442E-2,1.1483752E-2,2.2250777E-2],"categories":[],"categories_nodes":[],"categories_segments":[],"categories_sizes":[],"default_left":[0,0,0,0,0,0,0,0,0,1,0,0,0,0,0,0,0,0,0,0,0,0,0,0,0,0,0,0,0,0,0],"id":15,"left_children":[1,3,5,7,9,11,13,15,17,19,21,23,25,27,29,-1,-1,-1,-1,-1,-1,-1,-1,-1,-1,-1,-1,-1,-1,-1,-1],"loss_changes":[9.65726E2,1.7394672E2,1.3701736E2,2.31391E1,3.1806656E1,2.3426453E1,5.370862E1,7.1536255E0,1.316452E1,1.2568459E1,2.337749E1,2.4905823E1,1.1289558E1,2.7950043E1,1.7167023E1,0E0,0E0,0E0,0E0,0E0,0E0,0E0,0E0,0E0,0E0,0E0,0E0,0E0,0E0,0E0,0E0],"parents":[2147483647,0,0,1,1,2,2,3,3,4,4,5,5,6,6,7,7,8,8,9,9,10,10,11,11,12,12,13,13,14,14],"right_children":[2,4,6,8,10,12,14,16,18,20,22,24,26,28,30,-1,-1,-1,-1,-1,-1,-1,-1,-1,-1,-1,-1,-1,-1,-1,-1],"split_conditions":[6.0790116E-1,3.8277513E-1,7.4908096E-1,2.4337554E-1,0E0,1E0,2E0,2E0,3E0,4.8916575E-1,5.162468E-1,8E0,0E0,9E0,8.578995E-1,-4.0811848E-2,-2.8395798E-2,-2.467115E-2,-1.5682898E-2,-1.73845E-2,-8.020386E-3,-8.784107E-3,-3.852932E-4,2.099436E-3,2.2637904E-2,9.7674895E-3,3.1632837E-3,1.2606047E-2,3.0579442E-2,1.1483752E-2,2.2250777E-2],"split_indices":[18,18,18,18,94,71,46,46,46,25,18,14,91,17,18,0,0,0,0,0,0,0,0,0,0,0,0,0,0,0,0],"split_type":[0,0,0,0,0,0,0,0,0,0,0,0,0,0,0,0,0,0,0,0,0,0,0,0,0,0,0,0,0,0,0],"sum_hessian":[5.222532E3,2.5863481E3,2.6361838E3,8.5409064E2,1.7322574E3,1.4360227E3,1.2001611E3,2.3083685E2,6.232538E2,5.382521E2,1.1940054E3,2.3114069E2,1.2048821E3,5.380157E2,6.6214545E2,6.777861E1,1.6305824E2,3.630799E2,2.601739E2,3.154872E2,2.2276488E2,6.19305E2,5.747004E2,8.284662E1,1.4829407E2,3.1551907E2,8.89363E2,9.695048E1,4.4106525E2,4.7440942E2,1.87736E2],"tree_param":{"num_deleted":"0","num_feature":"108","num_nodes":"31","size_leaf_vector":"1"}},{"base_weights":[-6.571822E-4,4.2351168E-1,-4.2412263E-1,2.8361756E-1,8.095641E-1,-2.9290998E-1,-8.711959E-1,5.343888E-1,1.4184664E-1,1.0814768E0,5.9017295E-1,-1.3559067E-1,-4.2051962E-1,-1.0454053E0,-7.487933E-1,4.7034356E-3,1.977494E-2,7.267287E-3,-3.243626E-4,1.666167E-2,3.383258E-2,2.124523E-2,1.0422984E-2,3.7011923E-3,-7.6496294E-3,-1.9397266E-2,-9.655295E-3,-3.4685668E-2,-2.1628698E-2,-2.3004636E-2,1.2651657E-2],"categories":[],"categories_nodes":[],"categories_segments":[],"categories_sizes":[],"default_left":[0,1,0,0,0,0,0,0,0,0,0,0,0,0,0,0,0,0,0,0,0,0,0,0,0,0,0,0,0,0,0],"id":16,"left_children":[1,3,5,7,9,11,13,15,17,19,21,23,25,27,29,-1,-1,-1,-1,-1,-1,-1,-1,-1,-1,-1,-1,-1,-1,-1,-1],"loss_changes":[9.3683136E2,1.4049173E2,1.528497E2,6.797499E1,4.0674316E1,4.0480804E1,1.1834259E1,3.245134E1,1.8764748E1,6.873108E0,1.0795486E1,2.8039484E1,2.465097E1,7.852173E0,7.731079E0,0E0,0E0,0E0,0E0,0E0,0E0,0E0,0E0,0E0,0E0,0E0,0E0,0E0,0E0,0E0,0E0],"parents":[2147483647,0,0,1,1,2,2,3,3,4,4,5,5,6,6,7,7,8,8,9,9,10,10,11,11,12,12,13,13,14,14],"right_children":[2,4,6,8,10,12,14,16,18,20,22,24,26,28,30,-1,-1,-1,-1,-1,-1,-1,-1,-1,-1,-1,-1,-1,-1,-1,-1],"split_conditions":[3.9209884E-1,7.766498E-1,6.6664904E-1,2E0,2E0,4.931215E-1,2E0,8E0,3.207547E-1,3.197E-1,1.7945665E-1,2E0,2E0,3E0,1.1522096E2,4.7034356E-3,1.977494E-2,7.267287E-3,-3.243626E-4,1.666167E-2,3.383258E-2,2.124523E-2,1.0422984E-2,3.7011923E-3,-7.6496294E-3,-1.9397266E-2,-9.655295E-3,-3.4685668E-2,-2.1628698E-2,-2.3004636E-2,1.2651657E-2],"split_indices":[19,25,19,72,46,19,72,17,19,35,19,72,46,46,65,0,0,0,0,0,0,0,0,0,0,0,0,0,0,0,0],"split_type":[0,0,0,0,0,0,0,0,0,0,0,0,0,0,0,0,0,0,0,0,0,0,0,0,0,0,0,0,0,0,0],"sum_hessian":[5.2136045E3,2.604639E3,2.6089656E3,1.9131161E3,6.9152277E2,2.0182728E3,5.9069275E2,6.899427E2,1.2231733E3,3.07044E2,3.844788E2,9.0483704E2,1.1134358E3,2.4064883E2,3.500439E2,1.7192006E2,5.1802264E2,7.3754126E2,4.8563208E2,2.587586E1,2.8116812E2,2.5742255E2,1.2705624E2,2.855234E2,6.193136E2,3.3665253E2,7.767832E2,1.7748325E2,6.3165596E1,3.450741E2,4.9698315E0],"tree_param":{"num_deleted":"0","num_feature":"108","num_nodes":"31","size_leaf_vector":"1"}},{"base_weights":[3.6459437E-3,4.208168E-1,-3.6948603E-1,7.377553E-1,2.7087322E-1,-6.398248E-1,-1.3284291E-1,9.8869044E-1,5.272987E-1,5.2783936E-1,1.3439496E-1,-9.066958E-1,-4.9748936E-1,6.301295E-2,-2.2889626E-1,2.4643991E-2,3.5303414E-2,1.8418627E-2,4.0163375E-3,3.5645105E-3,1.8438961E-2,8.027829E-3,1.3840363E-3,-3.6119763E-2,-2.3491103E-2,-1.6897654E-2,-5.104614E-3,-8.265453E-4,1.4209814E-2,-1.0841302E-2,-3.9578993E-3],"categories":[],"categories_nodes":[],"categories_segments":[],"categories_sizes":[],"default_left":[0,0,0,0,0,0,0,1,0,0,0,0,0,0,0,0,0,0,0,0,0,0,0,0,0,0,0,0,0,0,0],"id":17,"left_children":[1,3,5,7,9,11,13,15,17,19,21,23,25,27,29,-1,-1,-1,-1,-1,-1,-1,-1,-1,-1,-1,-1,-1,-1,-1,-1],"loss_changes":[8.1120795E2,1.1673038E2,1.7590149E2,4.1179962E1,5.856202E1,4.8313477E1,2.7633894E1,1.0326141E1,1.4631874E1,2.0502762E1,1.284041E1,1.5428833E1,1.7975464E1,1.8008488E1,1.26091E1,0E0,0E0,0E0,0E0,0E0,0E0,0E0,0E0,0E0,0E0,0E0,0E0,0E0,0E0,0E0,0E0],"parents":[2147483647,0,0,1,1,2,2,3,3,4,4,5,5,6,6,7,7,8,8,9,9,10,10,11,11,12,12,13,13,14,14],"right_children":[2,4,6,8,10,12,14,16,18,20,22,24,26,28,30,-1,-1,-1,-1,-1,-1,-1,-1,-1,-1,-1,-1,-1,-1,-1,-1],"split_conditions":[3.771316E-1,2.0276627E-1,4.4799376E-1,2E0,2E0,3.0423003E-1,2E0,8.465011E-1,1.00856E2,6E0,3E0,2E0,2E0,1.566275E3,0E0,2.4643991E-2,3.5303414E-2,1.8418627E-2,4.0163375E-3,3.5645105E-3,1.8438961E-2,8.027829E-3,1.3840363E-3,-3.6119763E-2,-2.3491103E-2,-1.6897654E-2,-5.104614E-3,-8.265453E-4,1.4209814E-2,-1.0841302E-2,-3.9578993E-3],"split_indices":[19,19,18,46,72,18,72,25,6,17,72,46,94,3,94,0,0,0,0,0,0,0,0,0,0,0,0,0,0,0,0],"split_type":[0,0,0,0,0,0,0,0,0,0,0,0,0,0,0,0,0,0,0,0,0,0,0,0,0,0,0,0,0,0,0],"sum_hessian":[5.209417E3,2.4595032E3,2.7499138E3,7.886337E2,1.6708695E3,1.2827776E3,1.4671361E3,3.580362E2,4.3059756E2,5.785976E2,1.0922719E3,4.443243E2,8.384533E2,4.8287744E2,9.8425867E2,1.9237228E2,1.6566391E2,3.524137E2,7.818386E1,1.0169848E2,4.768991E2,4.3450345E2,6.5776843E2,1.27957466E2,3.1636685E2,6.9758014E2,1.4087318E2,3.9639023E2,8.648723E1,4.1480426E2,5.694544E2],"tree_param":{"num_deleted":"0","num_feature":"108","num_nodes":"31","size_leaf_vector":"1"}},{"base_weights":[5.4354155E-3,-4.1595498E-1,3.654679E-1,-7.2302264E-1,-2.4545355E-1,2.1506402E-1,7.265224E-1,-9.1960824E-1,-5.67327E-1,-2.958564E-1,3.189782E-2,4.6614936E-1,7.855476E-2,1.0116962E0,5.1541674E-1,-3.2602232E-2,-1.8288163E-2,-1.3983051E-2,-2.4162732E-2,-1.1446336E-2,-4.6501993E-3,-2.905458E-4,2.6662506E-2,4.394615E-3,1.787887E-2,-3.7506066E-4,6.679786E-3,2.5766935E-2,3.5599552E-2,2.4876958E-2,1.3017169E-2],"categories":[],"categories_nodes":[],"categories_segments":[],"categories_sizes":[],"default_left":[0,0,1,0,0,0,0,0,1,1,0,0,0,0,0,0,0,0,0,0,0,0,0,0,0,0,0,0,0,0,0],"id":18,"left_children":[1,3,5,7,9,11,13,15,17,19,21,23,25,27,29,-1,-1,-1,-1,-1,-1,-1,-1,-1,-1,-1,-1,-1,-1,-1,-1],"loss_changes":[7.8992664E2,1.25419525E2,1.5231549E2,2.5676758E1,2.1593155E1,6.794864E1,4.9160095E1,1.885437E1,1.11996E1,1.5710884E1,8.500691E0,2.8892746E1,1.6878876E1,8.337372E0,1.1822304E1,0E0,0E0,0E0,0E0,0E0,0E0,0E0,0E0,0E0,0E0,0E0,0E0,0E0,0E0,0E0,0E0],"parents":[2147483647,0,0,1,1,2,2,3,3,4,4,5,5,6,6,7,7,8,8,9,9,10,10,11,11,12,12,13,13,14,14],"right_children":[2,4,6,8,10,12,14,16,18,20,22,24,26,28,30,-1,-1,-1,-1,-1,-1,-1,-1,-1,-1,-1,-1,-1,-1,-1,-1],"split_conditions":[5.891213E-1,3.8277513E-1,7.5789475E-1,2.9765546E-1,2E0,2E0,2E0,3E0,2.0074074E1,4.8916575E-1,7.602085E0,1E1,7.050631E-1,8.52459E-1,2E0,-3.2602232E-2,-1.8288163E-2,-1.3983051E-2,-2.4162732E-2,-1.1446336E-2,-4.6501993E-3,-2.905458E-4,2.6662506E-2,4.394615E-3,1.787887E-2,-3.7506066E-4,6.679786E-3,2.5766935E-2,3.5599552E-2,2.4876958E-2,1.3017169E-2],"split_indices":[18,18,25,25,94,72,46,72,49,25,40,14,18,25,72,0,0,0,0,0,0,0,0,0,0,0,0,0,0,0,0],"split_type":[0,0,0,0,0,0,0,0,0,0,0,0,0,0,0,0,0,0,0,0,0,0,0,0,0,0,0,0,0,0,0],"sum_hessian":[5.2046724E3,2.3979272E3,2.806745E3,8.549497E2,1.5429777E3,1.9824957E3,8.242495E2,3.756885E2,4.7926117E2,1.3056383E3,2.3733936E2,6.973765E2,1.2851191E3,3.4900314E2,4.7524637E2,2.4246301E2,1.3322548E2,3.3836526E2,1.4089592E2,8.107169E2,4.9492136E2,2.272974E2,1.0041949E1,2.0202412E2,4.9535242E2,7.8806854E2,4.970507E2,1.8945271E2,1.5955043E2,9.6098206E1,3.7914816E2],"tree_param":{"num_deleted":"0","num_feature":"108","num_nodes":"31","size_leaf_vector":"1"}},{"base_weights":[-2.015337E-3,-3.515003E-1,4.210401E-1,-1.9002034E-1,-7.52477E-1,8.419995E-1,3.1462672E-1,-3.3295345E-1,-8.140273E-2,-1.05448E0,-6.6067135E-1,1.0865642E0,7.018305E-1,5.9699094E-1,1.6103062E-1,-1.1627391E-2,-1.1994666E-3,3.917163E-3,-5.586502E-3,-3.2659575E-2,-1.0012448E-2,-2.0315811E-2,1.5562863E-2,3.3597883E-2,-5.7190973E-3,3.247963E-2,1.7534012E-2,4.3835236E-5,2.0274153E-2,8.836736E-3,2.1128457E-3],"categories":[],"categories_nodes":[],"categories_segments":[],"categories_sizes":[],"default_left":[0,0,0,0,0,0,0,0,0,0,0,1,0,0,0,0,0,0,0,0,0,0,0,0,0,0,0,0,0,0,0],"id":19,"left_children":[1,3,5,7,9,11,13,15,17,19,21,23,25,27,29,-1,-1,-1,-1,-1,-1,-1,-1,-1,-1,-1,-1,-1,-1,-1,-1],"loss_changes":[7.66194E2,1.836066E2,1.04751495E2,3.1402496E1,2.1883057E1,1.5433014E1,8.113141E1,1.3968971E1,2.5611122E1,4.271347E0,1.2574005E1,7.470703E0,1.2916199E1,3.0952637E1,1.4671085E1,0E0,0E0,0E0,0E0,0E0,0E0,0E0,0E0,0E0,0E0,0E0,0E0,0E0,0E0,0E0,0E0],"parents":[2147483647,0,0,1,1,2,2,3,3,4,4,5,5,6,6,7,7,8,8,9,9,10,10,11,11,12,12,13,13,14,14],"right_children":[2,4,6,8,10,12,14,16,18,20,22,24,26,28,30,-1,-1,-1,-1,-1,-1,-1,-1,-1,-1,-1,-1,-1,-1,-1,-1],"split_conditions":[6.323767E-1,6.2473005E-1,1.6E-1,5.068785E-1,2.265254E-1,2E0,2E0,2E0,2E0,5.119724E-1,4E0,2.0929825E1,8.292683E-2,4E0,3E0,-1.1627391E-2,-1.1994666E-3,3.917163E-3,-5.586502E-3,-3.2659575E-2,-1.0012448E-2,-2.0315811E-2,1.5562863E-2,3.3597883E-2,-5.7190973E-3,3.247963E-2,1.7534012E-2,4.3835236E-5,2.0274153E-2,8.836736E-3,2.1128457E-3],"split_indices":[18,19,19,18,18,72,72,94,72,5,94,96,19,17,72,0,0,0,0,0,0,0,0,0,0,0,0,0,0,0,0],"split_type":[0,0,0,0,0,0,0,0,0,0,0,0,0,0,0,0,0,0,0,0,0,0,0,0,0,0,0,0,0,0,0],"sum_hessian":[5.1801846E3,2.8368442E3,2.3433403E3,2.0234437E3,8.134005E2,4.7144476E2,1.8718956E3,8.728151E2,1.1506287E3,1.8717744E2,6.262231E2,1.6930032E2,3.0214444E2,6.584831E2,1.2134125E3,7.353768E2,1.3743834E2,3.8062027E2,7.7000836E2,1.7821704E2,8.960398E0,6.1799164E2,8.231426E0,1.6511017E2,4.1901617E0,6.924188E1,2.3290256E2,7.7079445E1,5.814036E2,4.896012E2,7.2381134E2],"tree_param":{"num_deleted":"0","num_feature":"108","num_nodes":"31","size_leaf_vector":"1"}},{"base_weights":[-1.3036112E-2,-3.601369E-1,4.0821302E-1,-1.6962568E-1,-6.382857E-1,8.3809656E-1,2.93689E-1,-3.6597246E-1,-7.805997E-2,-5.637706E-1,-1.0163152E0,1.0729178E0,6.387655E-1,5.567751E-1,1.4828637E-1,-3.3990182E-3,-1.3943525E-2,-6.269619E-3,1.1881602E-3,1.3949913E-2,-1.7365098E-2,-3.410898E-2,-2.221973E-2,3.2726854E-2,-1.0547596E-3,4.9883556E-3,2.0457499E-2,3.5393902E-3,1.977454E-2,9.381246E-4,8.107081E-3],"categories":[],"categories_nodes":[],"categories_segments":[],"categories_sizes":[],"default_left":[0,0,0,0,1,0,0,0,0,0,0,0,0,0,0,0,0,0,0,0,0,0,0,0,0,0,0,0,0,0,0],"id":20,"left_children":[1,3,5,7,9,11,13,15,17,19,21,23,25,27,29,-1,-1,-1,-1,-1,-1,-1,-1,-1,-1,-1,-1,-1,-1,-1,-1],"loss_changes":[7.53875E2,1.4968054E2,1.14424255E2,3.0157742E1,3.1784729E1,2.2223877E1,7.0332275E1,1.3272438E1,1.766773E1,1.5176575E1,5.4070435E0,4.485443E0,5.334282E0,2.9339783E1,1.6928495E1,0E0,0E0,0E0,0E0,0E0,0E0,0E0,0E0,0E0,0E0,0E0,0E0,0E0,0E0,0E0,0E0],"parents":[2147483647,0,0,1,1,2,2,3,3,4,4,5,5,6,6,7,7,8,8,9,9,10,10,11,11,12,12,13,13,14,14],"right_children":[2,4,6,8,10,12,14,16,18,20,22,24,26,28,30,-1,-1,-1,-1,-1,-1,-1,-1,-1,-1,-1,-1,-1,-1,-1,-1],"split_conditions":[6.323767E-1,5.71116E-1,-9.5E0,0E0,8.5E0,2E0,2E0,6.2528634E0,4.899111E-1,1E0,3E0,1.06816E2,1.0133391E2,6E0,4.4E1,-3.3990182E-3,-1.3943525E-2,-6.269619E-3,1.1881602E-3,1.3949913E-2,-1.7365098E-2,-3.410898E-2,-2.221973E-2,3.2726854E-2,-1.0547596E-3,4.9883556E-3,2.0457499E-2,3.5393902E-3,1.977454E-2,9.381246E-4,8.107081E-3],"split_indices":[18,19,20,94,20,46,72,96,44,14,72,6,43,14,14,0,0,0,0,0,0,0,0,0,0,0,0,0,0,0,0],"split_type":[0,0,0,0,0,0,0,0,0,0,0,0,0,0,0,0,0,0,0,0,0,0,0,0,0,0,0,0,0,0,0],"sum_hessian":[5.1538975E3,2.8257124E3,2.3281848E3,1.6780104E3,1.1477021E3,4.884383E2,1.8397466E3,5.327098E2,1.1453005E3,9.608049E2,1.8689725E2,2.2224306E2,2.6619525E2,6.538556E2,1.185891E3,1.5036285E2,3.8234692E2,5.41733E2,6.0356757E2,1.3436578E1,9.4736835E2,1.27825516E2,5.907173E1,2.1871022E2,3.5328405E0,2.2682703E1,2.4351254E2,1.2410039E2,5.2975525E2,6.058298E2,5.800612E2],"tree_param":{"num_deleted":"0","num_feature":"108","num_nodes":"31","size_leaf_vector":"1"}},{"base_weights":[-1.9529385E-3,-3.3320013E-1,3.9709115E-1,-1.8356964E-1,-6.798007E-1,7.6282305E-1,2.6830867E-1,-1.3835778E-2,-2.6674414E-1,-9.5235425E-1,-5.6623995E-1,9.8978597E-1,5.6147426E-1,5.114643E-1,1.4113346E-1,-6.443445E-3,4.1845418E-3,-9.0696225E-3,4.9503555E-4,-3.537489E-2,-2.3455847E-2,-2.1431925E-2,-1.2860718E-2,3.2675385E-2,2.1751452E-2,-1.0241035E-2,1.7608667E-2,3.4188898E-3,1.8614361E-2,-4.015236E-2,4.4246563E-3],"categories":[],"categories_nodes":[],"categories_segments":[],"categories_sizes":[],"default_left":[0,0,0,0,0,0,0,0,0,0,0,0,0,0,0,0,0,0,0,0,0,0,0,0,0,0,0,0,0,0,0],"id":21,"left_children":[1,3,5,7,9,11,13,15,17,19,21,23,25,27,29,-1,-1,-1,-1,-1,-1,-1,-1,-1,-1,-1,-1,-1,-1,-1,-1],"loss_changes":[6.821482E2,1.461196E2,1.1004614E2,2.7821358E1,2.5766876E1,2.727707E1,5.3509903E1,2.0032692E1,1.3333817E1,8.6875305E0,1.1970322E1,6.7096252E0,7.678261E0,2.569783E1,1.09077835E1,0E0,0E0,0E0,0E0,0E0,0E0,0E0,0E0,0E0,0E0,0E0,0E0,0E0,0E0,0E0,0E0],"parents":[2147483647,0,0,1,1,2,2,3,3,4,4,5,5,6,6,7,7,8,8,9,9,10,10,11,11,12,12,13,13,14,14],"right_children":[2,4,6,8,10,12,14,16,18,20,22,24,26,28,30,-1,-1,-1,-1,-1,-1,-1,-1,-1,-1,-1,-1,-1,-1,-1,-1],"split_conditions":[6.304647E-1,6.172249E-1,1.8247904E-1,2E0,2E0,2E0,2E0,5.068785E-1,6.877539E-1,2.9765546E-1,3.0423003E-1,3.6842105E-1,1.2195122E-1,7E0,-5.9E0,-6.443445E-3,4.1845418E-3,-9.0696225E-3,4.9503555E-4,-3.537489E-2,-2.3455847E-2,-2.1431925E-2,-1.2860718E-2,3.2675385E-2,2.1751452E-2,-1.0241035E-2,1.7608667E-2,3.4188898E-3,1.8614361E-2,-4.015236E-2,4.4246563E-3],"split_indices":[18,19,19,72,46,46,72,18,5,25,25,16,13,17,92,0,0,0,0,0,0,0,0,0,0,0,0,0,0,0,0],"split_type":[0,0,0,0,0,0,0,0,0,0,0,0,0,0,0,0,0,0,0,0,0,0,0,0,0,0,0,0,0,0,0],"sum_hessian":[5.1586636E3,2.8188752E3,2.3397883E3,1.9699573E3,8.489181E2,6.080504E2,1.7317378E3,6.4824756E2,1.3217097E3,2.4750441E2,6.014137E2,2.8400293E2,3.2404752E2,5.9365796E2,1.1380798E3,2.8037723E2,3.6787033E2,1.1741633E3,1.4754637E2,1.0367192E2,1.4383249E2,2.875227E2,3.13891E2,2.0421709E2,7.978583E1,8.554403E0,3.1549313E2,1.2820973E2,4.6544824E2,3.9710288E0,1.1341088E3],"tree_param":{"num_deleted":"0","num_feature":"108","num_nodes":"31","size_leaf_vector":"1"}},{"base_weights":[2.1278749E-3,3.3562437E-1,-3.7683865E-1,8.07022E-1,2.4031293E-1,-2.5784895E-1,-7.4101514E-1,1.0291823E0,5.934152E-1,3.8080034E-1,2.6602218E-2,-3.1150672E-1,2.9139746E-2,-1.0011934E0,-6.3631105E-1,1.5263466E-2,3.2247923E-2,1.995618E-2,-8.358158E-3,1.7521134E-2,7.7887326E-3,-2.873667E-3,4.4470034E-3,-3.5022506E-3,-1.13907205E-2,-2.328232E-3,9.597687E-3,-3.0879635E-2,1.0643333E-2,-1.5142458E-2,-2.4974959E-2],"categories":[],"categories_nodes":[],"categories_segments":[],"categories_sizes":[],"default_left":[0,0,0,0,0,0,0,0,0,0,0,0,0,0,0,0,0,0,0,0,0,0,0,0,0,0,0,0,0,0,0],"id":22,"left_children":[1,3,5,7,9,11,13,15,17,19,21,23,25,27,29,-1,-1,-1,-1,-1,-1,-1,-1,-1,-1,-1,-1,-1,-1,-1,-1],"loss_changes":[6.514038E2,1.2298273E2,1.04355255E2,2.1249939E1,6.850055E1,2.8035423E1,1.553421E1,4.796646E0,1.5035614E1,3.3753906E1,1.3503712E1,2.0318954E1,8.951876E0,6.7955933E0,1.0575882E1,0E0,0E0,0E0,0E0,0E0,0E0,0E0,0E0,0E0,0E0,0E0,0E0,0E0,0E0,0E0,0E0],"parents":[2147483647,0,0,1,1,2,2,3,3,4,4,5,5,6,6,7,7,8,8,9,9,10,10,11,11,12,12,13,13,14,14],"right_children":[2,4,6,8,10,12,14,16,18,20,22,24,26,28,30,-1,-1,-1,-1,-1,-1,-1,-1,-1,-1,-1,-1,-1,-1,-1,-1],"split_conditions":[4.108787E-1,1.6E-1,6.626768E-1,2E0,3E0,2E0,2E0,2E0,6.818182E-1,-6E0,6.949182E-1,-1E0,7.777778E-1,5.4557323E0,8.5E0,1.5263466E-2,3.2247923E-2,1.995618E-2,-8.358158E-3,1.7521134E-2,7.7887326E-3,-2.873667E-3,4.4470034E-3,-3.5022506E-3,-1.13907205E-2,-2.328232E-3,9.597687E-3,-3.0879635E-2,1.0643333E-2,-1.5142458E-2,-2.4974959E-2],"split_indices":[19,19,19,46,72,94,46,53,15,20,18,20,15,85,20,0,0,0,0,0,0,0,0,0,0,0,0,0,0,0,0],"split_type":[0,0,0,0,0,0,0,0,0,0,0,0,0,0,0,0,0,0,0,0,0,0,0,0,0,0,0,0,0,0,0],"sum_hessian":[5.1521626E3,2.74055E3,2.4116125E3,4.5966098E2,2.280889E3,1.8189905E3,5.9262213E2,2.2344763E2,2.3621333E2,1.3757366E3,9.0515234E2,1.5323958E3,2.865947E2,1.6759781E2,4.2502435E2,1.9035515E1,2.0441211E2,2.1846495E2,1.774839E1,5.1244275E2,8.632939E2,4.5127277E2,4.538796E2,3.9806107E2,1.1343347E3,2.101727E2,7.6422005E1,1.6442786E2,3.1699388E0,2.5655356E2,1.6847081E2],"tree_param":{"num_deleted":"0","num_feature":"108","num_nodes":"31","size_leaf_vector":"1"}},{"base_weights":[3.3987418E-3,-3.8469666E-1,3.1629387E-1,-2.353959E-1,-6.5716904E-1,2.0483524E-1,6.856953E-1,-4.0816662E-1,-1.5766364E-1,-9.312347E-1,-5.498186E-1,3.396803E-1,-2.4341366E-3,9.677985E-1,4.76553E-1,-1.0253774E-2,-2.798689E-2,-8.335883E-3,-6.752405E-4,-2.8515993E-2,6.2714666E-3,-2.4292601E-2,-1.3308576E-2,-3.4065262E-4,1.1788854E-2,-2.907206E-3,5.250071E-3,3.4614947E-2,2.3230353E-2,1.965421E-2,9.606529E-3],"categories":[],"categories_nodes":[],"categories_segments":[],"categories_sizes":[],"default_left":[0,0,1,0,0,0,0,0,0,0,0,0,1,0,0,0,0,0,0,0,0,0,0,0,0,0,0,0,0,0,0],"id":23,"left_children":[1,3,5,7,9,11,13,15,17,19,21,23,25,27,29,-1,-1,-1,-1,-1,-1,-1,-1,-1,-1,-1,-1,-1,-1,-1,-1],"loss_changes":[6.247105E2,9.325964E1,1.1712744E2,1.9879074E1,2.3386566E1,6.119358E1,3.846405E1,1.5708336E1,1.6658974E1,5.1979675E0,1.5820419E1,2.4814255E1,1.4499416E1,9.180206E0,1.0423096E1,0E0,0E0,0E0,0E0,0E0,0E0,0E0,0E0,0E0,0E0,0E0,0E0,0E0,0E0,0E0,0E0],"parents":[2147483647,0,0,1,1,2,2,3,3,4,4,5,5,6,6,7,7,8,8,9,9,10,10,11,11,12,12,13,13,14,14],"right_children":[2,4,6,8,10,12,14,16,18,20,22,24,26,28,30,-1,-1,-1,-1,-1,-1,-1,-1,-1,-1,-1,-1,-1,-1,-1,-1],"split_conditions":[5.792858E-1,6.2473005E-1,7.766498E-1,0E0,2.4337554E-1,3E0,2E0,2.212819E-2,4.899111E-1,8.0487806E-1,2E0,-4.9326224E0,6.718147E-1,2E0,5.0071967E-1,-1.0253774E-2,-2.798689E-2,-8.335883E-3,-6.752405E-4,-2.8515993E-2,6.2714666E-3,-2.4292601E-2,-1.3308576E-2,-3.4065262E-4,1.1788854E-2,-2.907206E-3,5.250071E-3,3.4614947E-2,2.3230353E-2,1.965421E-2,9.606529E-3],"split_indices":[18,19,25,94,18,72,46,95,44,12,46,40,25,72,10,0,0,0,0,0,0,0,0,0,0,0,0,0,0,0,0],"split_type":[0,0,0,0,0,0,0,0,0,0,0,0,0,0,0,0,0,0,0,0,0,0,0,0,0,0,0,0,0,0,0],"sum_hessian":[5.142478E3,2.2953013E3,2.8471768E3,1.4840063E3,8.1129486E2,2.1884233E3,6.587533E2,4.5917502E2,1.0248313E3,2.2618083E2,5.85114E2,1.325465E3,8.629584E2,2.7891254E2,3.7984076E2,4.090809E2,5.009414E1,5.418698E2,4.8296152E2,2.2258025E2,3.60059E0,1.6779416E2,4.1731985E2,1.7477553E2,1.1506895E3,5.6342645E2,2.9953195E2,1.3965237E2,1.3926016E2,1.758129E2,2.0402786E2],"tree_param":{"num_deleted":"0","num_feature":"108","num_nodes":"31","size_leaf_vector":"1"}},{"base_weights":[-5.59695E-3,3.0942276E-1,-3.5571206E-1,1.3293962E-1,5.5387527E-1,-2.1430425E-1,-6.187928E-1,4.160384E-1,8.066875E-2,7.765111E-1,3.790016E-1,-2.6232457E-1,4.42876E-2,-7.679337E-1,-4.6067753E-1,1.9167562E-3,1.8266855E-2,3.0943402E-3,-9.17265E-3,6.544813E-3,2.717398E-2,1.9190928E-2,8.315961E-3,-9.21456E-3,-5.834229E-4,-2.2446658E-3,1.2839987E-2,-2.522468E-2,-1.0514851E-2,-3.8045293E-4,-1.5651602E-2],"categories":[],"categories_nodes":[],"categories_segments":[],"categories_sizes":[],"default_left":[0,0,0,0,0,0,0,0,0,0,0,0,0,0,0,0,0,0,0,0,0,0,0,0,0,0,0,0,0,0,0],"id":24,"left_children":[1,3,5,7,9,11,13,15,17,19,21,23,25,27,29,-1,-1,-1,-1,-1,-1,-1,-1,-1,-1,-1,-1,-1,-1,-1,-1],"loss_changes":[5.640188E2,1.1605661E2,8.996933E1,2.31185E1,4.3632904E1,1.9591759E1,1.9600555E1,1.6505749E1,1.151295E1,3.5564392E1,1.6645393E1,1.4474396E1,1.1357761E1,1.2909058E1,1.1294075E1,0E0,0E0,0E0,0E0,0E0,0E0,0E0,0E0,0E0,0E0,0E0,0E0,0E0,0E0,0E0,0E0],"parents":[2147483647,0,0,1,1,2,2,3,3,4,4,5,5,6,6,7,7,8,8,9,9,10,10,11,11,12,12,13,13,14,14],"right_children":[2,4,6,8,10,12,14,16,18,20,22,24,26,28,30,-1,-1,-1,-1,-1,-1,-1,-1,-1,-1,-1,-1,-1,-1,-1,-1],"split_conditions":[4.0832075E-1,7.4908096E-1,6.172249E-1,1E0,2E0,2E0,3.0423003E-1,8E0,4.143E-1,9E0,1.421005E-1,2.1642677E-2,7.75E-1,1.0892399E2,9.789474E1,1.9167562E-3,1.8266855E-2,3.0943402E-3,-9.17265E-3,6.544813E-3,2.717398E-2,1.9190928E-2,8.315961E-3,-9.21456E-3,-5.834229E-4,-2.2446658E-3,1.2839987E-2,-2.522468E-2,-1.0514851E-2,-3.8045293E-4,-1.5651602E-2],"split_indices":[19,18,19,71,46,94,18,14,35,17,19,93,15,43,43,0,0,0,0,0,0,0,0,0,0,0,0,0,0,0,0],"split_type":[0,0,0,0,0,0,0,0,0,0,0,0,0,0,0,0,0,0,0,0,0,0,0,0,0,0,0,0,0,0,0],"sum_hessian":[5.1118174E3,2.6908306E3,2.4209866E3,1.563559E3,1.1272717E3,1.5757983E3,8.451883E2,2.4261234E2,1.3209465E3,4.943995E2,6.328722E2,1.3289912E3,2.4680707E2,4.3295255E2,4.1223578E2,8.632274E1,1.562896E2,1.2490311E3,7.191549E1,9.346108E1,4.0093842E2,1.7624965E2,4.5662256E2,1.1216968E3,2.0729442E2,1.8895705E2,5.7850018E1,3.677291E2,6.522345E1,4.9579082E1,3.6265668E2],"tree_param":{"num_deleted":"0","num_feature":"108","num_nodes":"31","size_leaf_vector":"1"}},{"base_weights":[-4.6732053E-4,-2.2321062E-1,4.5207962E-1,-4.33335E-2,-4.9057314E-1,8.336558E-1,3.530311E-1,1.4933039E-1,-1.3849528E-1,-3.4828475E-1,-6.9752103E-1,1.0368062E0,6.312445E-1,6.28609E-1,2.0148991E-1,1.7357513E-3,1.4024686E-2,-8.395737E-3,-1.5573234E-3,-1.739224E-2,-7.525151E-3,-2.670765E-2,-1.6932515E-2,8.675124E-3,3.276581E-2,2.1963274E-2,3.3359313E-3,1.5285083E-3,2.127474E-2,1.8362425E-2,4.7676116E-3],"categories":[],"categories_nodes":[],"categories_segments":[],"categories_sizes":[],"default_left":[0,0,0,0,0,0,0,0,0,0,0,0,0,0,0,0,0,0,0,0,0,0,0,0,0,0,0,0,0,0,0],"id":25,"left_children":[1,3,5,7,9,11,13,15,17,19,21,23,25,27,29,-1,-1,-1,-1,-1,-1,-1,-1,-1,-1,-1,-1,-1,-1,-1,-1],"loss_changes":[5.129218E2,1.6397437E2,6.314032E1,3.7415604E1,4.0139404E1,1.353833E1,5.559352E1,1.9612217E1,1.6702549E1,1.8228592E1,1.3805664E1,6.7530975E0,9.121658E0,2.1968674E1,1.4975136E1,0E0,0E0,0E0,0E0,0E0,0E0,0E0,0E0,0E0,0E0,0E0,0E0,0E0,0E0,0E0,0E0],"parents":[2147483647,0,0,1,1,2,2,3,3,4,4,5,5,6,6,7,7,8,8,9,9,10,10,11,11,12,12,13,13,14,14],"right_children":[2,4,6,8,10,12,14,16,18,20,22,24,26,28,30,-1,-1,-1,-1,-1,-1,-1,-1,-1,-1,-1,-1,-1,-1,-1,-1],"split_conditions":[6.9097877E-1,5.3601646E-1,1.421005E-1,2E0,6.6664904E-1,2E0,2E0,3.5038543E0,9.85E1,2E0,2E0,4E0,1.075E2,4E0,1E0,1.7357513E-3,1.4024686E-2,-8.395737E-3,-1.5573234E-3,-1.739224E-2,-7.525151E-3,-2.670765E-2,-1.6932515E-2,8.675124E-3,3.276581E-2,2.1963274E-2,3.3359313E-3,1.5285083E-3,2.127474E-2,1.8362425E-2,4.7676116E-3],"split_indices":[18,19,19,72,19,46,72,40,58,46,72,14,32,17,45,0,0,0,0,0,0,0,0,0,0,0,0,0,0,0,0],"split_type":[0,0,0,0,0,0,0,0,0,0,0,0,0,0,0,0,0,0,0,0,0,0,0,0,0,0,0,0,0,0,0],"sum_hessian":[5.086418E3,3.4090117E3,1.6774065E3,2.0386221E3,1.3703895E3,3.4415637E2,1.3332501E3,6.7382715E2,1.3647949E3,8.136454E2,5.567442E2,1.6970717E2,1.7444922E2,4.7191803E2,8.6133203E2,5.242772E2,1.4954991E2,5.1756226E2,8.4723267E2,2.3959798E2,5.7404736E2,2.2510478E2,3.316394E2,1.213441E1,1.5757275E2,1.4576909E2,2.8680126E1,5.795135E1,4.1396667E2,7.965606E1,7.8167596E2],"tree_param":{"num_deleted":"0","num_feature":"108","num_nodes":"31","size_leaf_vector":"1"}},{"base_weights":[-8.463525E-4,-2.9163665E-1,3.5734624E-1,-1.6260958E-1,-6.1644095E-1,7.110241E-1,2.4742137E-1,-2.8680843E-1,-6.519595E-2,-8.936951E-1,-5.213555E-1,9.602328E-1,5.144007E-1,4.7874016E-1,1.2216947E-1,-1.188958E-2,-4.531421E-3,3.4787154E-3,-4.5810426E-3,-3.184924E-2,-1.9853193E-2,-2.2032823E-2,-1.2988576E-2,3.441705E-2,2.2756E-2,2.1058938E-2,1.0397476E-2,3.123065E-3,1.8363757E-2,2.6554626E-4,7.4556163E-3],"categories":[],"categories_nodes":[],"categories_segments":[],"categories_sizes":[],"default_left":[0,0,0,0,0,0,0,0,0,0,0,0,0,0,0,0,0,0,0,0,0,0,0,0,0,0,0,0,0,0,0],"id":26,"left_children":[1,3,5,7,9,11,13,15,17,19,21,23,25,27,29,-1,-1,-1,-1,-1,-1,-1,-1,-1,-1,-1,-1,-1,-1,-1,-1],"loss_changes":[5.2914343E2,1.1740648E2,8.832089E1,2.4276386E1,2.054004E1,2.5926605E1,5.0299057E1,1.3058952E1,1.7877846E1,7.1686096E0,1.0903152E1,8.0555725E0,9.311401E0,3.042807E1,1.6161057E1,0E0,0E0,0E0,0E0,0E0,0E0,0E0,0E0,0E0,0E0,0E0,0E0,0E0,0E0,0E0,0E0],"parents":[2147483647,0,0,1,1,2,2,3,3,4,4,5,5,6,6,7,7,8,8,9,9,10,10,11,11,12,12,13,13,14,14],"right_children":[2,4,6,8,10,12,14,16,18,20,22,24,26,28,30,-1,-1,-1,-1,-1,-1,-1,-1,-1,-1,-1,-1,-1,-1,-1,-1],"split_conditions":[6.323767E-1,6.2473005E-1,-9E0,4.8468608E-1,2.4210526E-1,2E0,2E0,5.529633E-1,2E0,6.296296E-1,2E0,2E0,5.0001806E-1,8E0,4.5E1,-1.188958E-2,-4.531421E-3,3.4787154E-3,-4.5810426E-3,-3.184924E-2,-1.9853193E-2,-2.2032823E-2,-1.2988576E-2,3.441705E-2,2.2756E-2,2.1058938E-2,1.0397476E-2,3.123065E-3,1.8363757E-2,2.6554626E-4,7.4556163E-3],"split_indices":[18,19,20,44,25,46,72,5,72,16,46,72,10,14,14,0,0,0,0,0,0,0,0,0,0,0,0,0,0,0,0],"split_type":[0,0,0,0,0,0,0,0,0,0,0,0,0,0,0,0,0,0,0,0,0,0,0,0,0,0,0,0,0,0,0],"sum_hessian":[5.0781543E3,2.8028843E3,2.2752703E3,2.0070808E3,7.958033E2,5.381928E2,1.7370775E3,8.813928E2,1.1256881E3,2.0108174E2,5.9472156E2,2.3564406E2,3.0254877E2,6.091885E2,1.127889E3,4.8679947E2,3.9459332E2,3.6654483E2,7.5914325E2,1.1455164E2,8.6530106E1,1.7225024E2,4.224713E2,1.19844475E2,1.1579958E2,1.4136627E2,1.611825E2,1.6041428E2,4.4877423E2,5.9517584E2,5.327132E2],"tree_param":{"num_deleted":"0","num_feature":"108","num_nodes":"31","size_leaf_vector":"1"}},{"base_weights":[-1.4507065E-3,3.37788E-1,-2.9257402E-1,7.4851865E-1,2.4351032E-1,-4.9417958E-1,-1.1861026E-1,9.877974E-1,5.366918E-1,4.7860232E-1,1.2114989E-1,-4.2769495E-1,-8.8912106E-1,-2.8664085E-1,-3.9034564E-2,3.0609483E-2,6.221944E-3,1.8290257E-2,-9.600113E-3,2.3175726E-2,9.843517E-3,7.3161647E-3,5.872243E-4,-1.8725622E-2,-1.04102325E-2,-3.2742362E-2,-2.0959333E-2,-1.3749416E-3,-1.14990715E-2,-6.2203915E-3,1.4756644E-3],"categories":[],"categories_nodes":[],"categories_segments":[],"categories_sizes":[],"default_left":[0,0,0,0,0,1,0,0,0,0,0,0,0,0,0,0,0,0,0,0,0,0,0,0,0,0,0,0,0,0,0],"id":27,"left_children":[1,3,5,7,9,11,13,15,17,19,21,23,25,27,29,-1,-1,-1,-1,-1,-1,-1,-1,-1,-1,-1,-1,-1,-1,-1,-1],"loss_changes":[5.0232462E2,9.077878E1,9.594292E1,2.1672623E1,5.4942146E1,3.290341E1,1.9653498E1,4.978241E0,1.4859764E1,2.8680481E1,1.5687292E1,1.7015137E1,6.2392273E0,1.0980576E1,1.4847217E1,0E0,0E0,0E0,0E0,0E0,0E0,0E0,0E0,0E0,0E0,0E0,0E0,0E0,0E0,0E0,0E0],"parents":[2147483647,0,0,1,1,2,2,3,3,4,4,5,5,6,6,7,7,8,8,9,9,10,10,11,11,12,12,13,13,14,14],"right_children":[2,4,6,8,10,12,14,16,18,20,22,24,26,28,30,-1,-1,-1,-1,-1,-1,-1,-1,-1,-1,-1,-1,-1,-1,-1,-1],"split_conditions":[3.771316E-1,1.6E-1,4.4799376E-1,2E0,2E0,8.5E0,0E0,3.187464E0,6.7741936E-1,-6.5E0,-6E0,2E0,2E0,-8.366765E-3,4.7718304E-1,3.0609483E-2,6.221944E-3,1.8290257E-2,-9.600113E-3,2.3175726E-2,9.843517E-3,7.3161647E-3,5.872243E-4,-1.8725622E-2,-1.04102325E-2,-3.2742362E-2,-2.0959333E-2,-1.3749416E-3,-1.14990715E-2,-6.2203915E-3,1.4756644E-3],"split_indices":[19,19,18,46,72,20,94,66,15,20,20,46,72,95,44,0,0,0,0,0,0,0,0,0,0,0,0,0,0,0,0],"split_type":[0,0,0,0,0,0,0,0,0,0,0,0,0,0,0,0,0,0,0,0,0,0,0,0,0,0,0,0,0,0,0],"sum_hessian":[5.084301E3,2.3480347E3,2.736266E3,4.3704822E2,1.9109865E3,1.2665863E3,1.4696799E3,2.0350575E2,2.3354248E2,6.531579E2,1.2578286E3,1.0858729E3,1.8071335E2,4.714894E2,9.9819055E2,1.9506989E2,8.435859E0,2.1547418E2,1.8068304E1,2.197726E2,4.333853E2,5.6898663E2,6.888419E2,3.1413763E2,7.717353E2,8.534493E1,9.5368416E1,1.3547055E2,3.3601886E2,3.4281696E2,6.553736E2],"tree_param":{"num_deleted":"0","num_feature":"108","num_nodes":"31","size_leaf_vector":"1"}},{"base_weights":[2.9210371E-3,3.3141473E-1,-2.7983764E-1,7.850494E-1,2.4625649E-1,-1.9205502E-1,-6.142615E-1,1.0082703E0,5.8203316E-1,3.7933946E-1,4.3572538E-2,-2.950069E-1,-8.312888E-2,-7.5819105E-1,-4.2364174E-1,8.785747E-3,3.196306E-2,7.53537E-3,2.0909594E-2,1.701732E-2,8.03739E-3,1.30048115E-2,2.4191533E-4,-1.4836211E-2,-6.2650247E-3,3.588227E-3,-5.4163807E-3,-2.583584E-2,-1.3812337E-2,3.258352E-2,-1.3572805E-2],"categories":[],"categories_nodes":[],"categories_segments":[],"categories_sizes":[],"default_left":[0,0,0,0,0,0,0,0,0,0,0,0,0,0,0,0,0,0,0,0,0,0,0,0,0,0,0,0,0,0,0],"id":28,"left_children":[1,3,5,7,9,11,13,15,17,19,21,23,25,27,29,-1,-1,-1,-1,-1,-1,-1,-1,-1,-1,-1,-1,-1,-1,-1,-1],"loss_changes":[4.68829E2,9.000516E1,7.9513504E1,1.6116302E1,5.304921E1,2.408628E1,1.5139526E1,6.8117065E0,7.256233E0,2.4709778E1,1.0808284E1,1.8895393E1,2.0682026E1,9.413086E0,1.1125904E1,0E0,0E0,0E0,0E0,0E0,0E0,0E0,0E0,0E0,0E0,0E0,0E0,0E0,0E0,0E0,0E0],"parents":[2147483647,0,0,1,1,2,2,3,3,4,4,5,5,6,6,7,7,8,8,9,9,10,10,11,11,12,12,13,13,14,14],"right_children":[2,4,6,8,10,12,14,16,18,20,22,24,26,28,30,-1,-1,-1,-1,-1,-1,-1,-1,-1,-1,-1,-1,-1,-1,-1,-1],"split_conditions":[3.771316E-1,1.4803398E-1,6.6664904E-1,2E0,3E0,5.068785E-1,3E0,4E0,0E0,-6.5E0,-2.1551723E1,2E0,2E0,3E0,-1E0,8.785747E-3,3.196306E-2,7.53537E-3,2.0909594E-2,1.701732E-2,8.03739E-3,1.30048115E-2,2.4191533E-4,-1.4836211E-2,-6.2650247E-3,3.588227E-3,-5.4163807E-3,-2.583584E-2,-1.3812337E-2,3.258352E-2,-1.3572805E-2],"split_indices":[19,19,19,46,72,18,46,14,94,20,96,46,72,72,91,0,0,0,0,0,0,0,0,0,0,0,0,0,0,0,0],"split_type":[0,0,0,0,0,0,0,0,0,0,0,0,0,0,0,0,0,0,0,0,0,0,0,0,0,0,0,0,0,0,0],"sum_hessian":[5.045446E3,2.3338887E3,2.7115574E3,3.675809E2,1.9663077E3,2.1490337E3,5.625236E2,1.7318912E2,1.9439178E2,1.1864252E3,7.798825E2,1.1039364E3,1.0450973E3,3.1881866E2,2.4370494E2,1.3267785E1,1.5992134E2,5.0946026E1,1.4344576E2,4.4012595E2,7.4629926E2,6.4157745E1,7.157248E2,3.315324E2,7.7240393E2,3.3912042E2,7.0597687E2,2.3547466E2,8.3344025E1,3.8723187E0,2.3983263E2],"tree_param":{"num_deleted":"0","num_feature":"108","num_nodes":"31","size_leaf_vector":"1"}},{"base_weights":[-4.739169E-4,-2.656413E-1,3.3358058E-1,-1.4158604E-1,-5.6285185E-1,7.278054E-1,2.3986238E-1,-1.8377978E-1,9.501972E-2,-8.0549896E-1,-4.771991E-1,9.831601E-1,4.983828E-1,5.423519E-1,1.7926809E-1,-2.5153928E-3,-8.383692E-3,-1.153102E-2,4.422986E-3,-2.9510986E-2,-1.731321E-2,-1.4837362E-2,1.754071E-2,3.0072387E-2,-2.995805E-3,1.6986273E-2,-8.323112E-3,2.6738359E-2,4.389575E-3,-4.8754727E-3,6.2706377E-3],"categories":[],"categories_nodes":[],"categories_segments":[],"categories_sizes":[],"default_left":[0,0,0,0,0,0,0,0,0,0,0,1,0,0,0,0,0,0,0,0,0,0,0,0,0,0,0,0,0,0,0],"id":29,"left_children":[1,3,5,7,9,11,13,15,17,19,21,23,25,27,29,-1,-1,-1,-1,-1,-1,-1,-1,-1,-1,-1,-1,-1,-1,-1,-1],"loss_changes":[4.475909E2,1.03781296E2,8.243765E1,1.9871395E1,1.6849121E1,2.464122E1,3.3042725E1,1.6116837E1,7.635563E0,8.177887E0,1.1644928E1,4.3117676E0,1.215416E1,4.1497864E1,1.5367004E1,0E0,0E0,0E0,0E0,0E0,0E0,0E0,0E0,0E0,0E0,0E0,0E0,0E0,0E0,0E0,0E0],"parents":[2147483647,0,0,1,1,2,2,3,3,4,4,5,5,6,6,7,7,8,8,9,9,10,10,11,11,12,12,13,13,14,14],"right_children":[2,4,6,8,10,12,14,16,18,20,22,24,26,28,30,-1,-1,-1,-1,-1,-1,-1,-1,-1,-1,-1,-1,-1,-1,-1,-1],"split_conditions":[6.323767E-1,6.172249E-1,1.6E-1,2E0,2.4337554E-1,2E0,1E0,4.6753246E-1,5E0,3E0,1.1486052E2,2.2385965E1,6.818182E-1,-4.5E0,1.4259845E3,-2.5153928E-3,-8.383692E-3,-1.153102E-2,4.422986E-3,-2.9510986E-2,-1.731321E-2,-1.4837362E-2,1.754071E-2,3.0072387E-2,-2.995805E-3,1.6986273E-2,-8.323112E-3,2.6738359E-2,4.389575E-3,-4.8754727E-3,6.2706377E-3],"split_indices":[18,19,19,94,18,46,71,19,14,46,65,96,15,20,3,0,0,0,0,0,0,0,0,0,0,0,0,0,0,0,0],"split_type":[0,0,0,0,0,0,0,0,0,0,0,0,0,0,0,0,0,0,0,0,0,0,0,0,0,0,0,0,0,0,0],"sum_hessian":[5.0509355E3,2.815912E3,2.2350234E3,1.987718E3,8.281943E2,4.2797684E2,1.8070465E3,1.6870846E3,3.0063333E2,2.1388147E2,6.1431274E2,2.0098674E2,2.2699011E2,3.002473E2,1.5067992E3,8.261036E2,8.60981E2,2.9005602E1,2.7162775E2,1.1828425E2,9.559723E1,6.0494604E2,9.366741E0,1.9754935E2,3.43739E0,2.0898932E2,1.8000788E1,1.5895163E2,1.4129568E2,1.2030908E2,1.3864901E3],"tree_param":{"num_deleted":"0","num_feature":"108","num_nodes":"31","size_leaf_vector":"1"}},{"base_weights":[1.0053623E-3,-3.3095154E-1,2.4620955E-1,-5.3920007E-1,-2.0993774E-1,9.158819E-2,5.120358E-1,-7.686189E-1,-4.4414404E-1,-2.6185632E-1,6.852014E-2,3.433207E-1,-2.9631687E-2,6.67257E-1,2.5714827E-1,-1.8231198E-2,-3.2527283E-2,-1.3672145E-2,3.310675E-2,-9.863617E-3,-3.2930742E-3,-5.827884E-3,6.2693874E-3,5.2772E-3,1.4972019E-2,-4.6539265E-3,1.9185711E-3,1.6027281E-2,2.770363E-2,4.00315E-3,2.1921134E-2],"categories":[],"categories_nodes":[],"categories_segments":[],"categories_sizes":[],"default_left":[0,0,0,0,0,0,0,1,0,1,0,0,0,0,1,0,0,0,0,0,0,0,0,0,0,0,0,0,0,0,0],"id":30,"left_children":[1,3,5,7,9,11,13,15,17,19,21,23,25,27,29,-1,-1,-1,-1,-1,-1,-1,-1,-1,-1,-1,-1,-1,-1,-1,-1],"loss_changes":[4.0887476E2,5.3667786E1,1.1870276E2,1.6749329E1,1.9555061E1,5.5786964E1,4.1855865E1,1.0931854E1,1.0488609E1,1.1560417E1,7.9084816E0,1.5404999E1,1.4510758E1,2.1983917E1,2.3551653E1,0E0,0E0,0E0,0E0,0E0,0E0,0E0,0E0,0E0,0E0,0E0,0E0,0E0,0E0,0E0,0E0],"parents":[2147483647,0,0,1,1,2,2,3,3,4,4,5,5,6,6,7,7,8,8,9,9,10,10,11,11,12,12,13,13,14,14],"right_children":[2,4,6,8,10,12,14,16,18,20,22,24,26,28,30,-1,-1,-1,-1,-1,-1,-1,-1,-1,-1,-1,-1,-1,-1,-1,-1],"split_conditions":[5.642421E-1,3.7526998E-1,7.5164855E-1,2E0,2E0,2E0,3E0,7.5E0,1.81E1,4.8916575E-1,2.9411766E-1,3E1,1.5074634E3,8.51966E-1,8.72093E-1,-1.8231198E-2,-3.2527283E-2,-1.3672145E-2,3.310675E-2,-9.863617E-3,-3.2930742E-3,-5.827884E-3,6.2693874E-3,5.2772E-3,1.4972019E-2,-4.6539265E-3,1.9185711E-3,1.6027281E-2,2.770363E-2,4.00315E-3,2.1921134E-2],"split_indices":[18,18,18,46,94,72,72,20,67,25,13,14,0,18,25,0,0,0,0,0,0,0,0,0,0,0,0,0,0,0,0],"split_type":[0,0,0,0,0,0,0,0,0,0,0,0,0,0,0,0,0,0,0,0,0,0,0,0,0,0,0,0,0,0,0],"sum_hessian":[5.0212017E3,2.1330854E3,2.8881162E3,7.8270306E2,1.3503823E3,1.8268494E3,1.0612667E3,2.2721967E2,5.554834E2,1.1382203E3,2.1216199E2,5.931813E2,1.2336681E3,6.5858453E2,4.0268222E2,1.5243185E2,7.47878E1,5.520534E2,3.4299939E0,7.8957855E2,3.486417E2,7.3767914E1,1.3839406E2,2.8690878E2,3.0627246E2,5.266953E2,7.0697284E2,4.3554208E2,2.2304245E2,3.2029218E2,8.239007E1],"tree_param":{"num_deleted":"0","num_feature":"108","num_nodes":"31","size_leaf_vector":"1"}},{"base_weights":[1.9057159E-3,2.3694602E-1,-3.1478646E-1,1.3440697E-1,5.786779E-1,-2.2466107E-1,-5.8041793E-1,3.2892603E-1,3.4212116E-2,9.0781486E-1,4.1925254E-1,-3.6788955E-1,-1.61165E-1,-8.4532285E-1,-5.103029E-1,1.4574097E-3,1.324075E-2,1.8772273E-3,-8.482662E-3,3.0438976E-2,2.0823294E-2,2.5916219E-2,1.051026E-2,-1.6742132E-3,-1.3823285E-2,-5.985547E-3,2.413138E-3,1.0357279E-2,-2.7433796E-2,-1.6670883E-2,-8.034275E-4],"categories":[],"categories_nodes":[],"categories_segments":[],"categories_sizes":[],"default_left":[0,1,0,0,0,0,0,0,0,0,0,0,0,0,0,0,0,0,0,0,0,0,0,0,0,0,0,0,0,0,0],"id":31,"left_children":[1,3,5,7,9,11,13,15,17,19,21,23,25,27,29,-1,-1,-1,-1,-1,-1,-1,-1,-1,-1,-1,-1,-1,-1,-1,-1],"loss_changes":[3.7472348E2,1.0117668E2,5.1211548E1,4.3333744E1,3.4599228E1,1.45184555E1,9.648056E0,2.380693E1,1.3223854E1,4.2418213E0,1.3514206E1,1.42239E1,1.0323494E1,9.538765E0,9.4585495E0,0E0,0E0,0E0,0E0,0E0,0E0,0E0,0E0,0E0,0E0,0E0,0E0,0E0,0E0,0E0,0E0],"parents":[2147483647,0,0,1,1,2,2,3,3,4,4,5,5,6,6,7,7,8,8,9,9,10,10,11,11,12,12,13,13,14,14],"right_children":[2,4,6,8,10,12,14,16,18,20,22,24,26,28,30,-1,-1,-1,-1,-1,-1,-1,-1,-1,-1,-1,-1,-1,-1,-1,-1],"split_conditions":[4.3575788E-1,7.6878613E-1,6.6664904E-1,2E0,2E0,2E0,1E0,1E1,7.4206346E-1,2E0,-1.35E1,1E0,8.518519E-1,3E0,1.1068345E2,1.4574097E-3,1.324075E-2,1.8772273E-3,-8.482662E-3,3.0438976E-2,2.0823294E-2,2.5916219E-2,1.051026E-2,-1.6742132E-3,-1.3823285E-2,-5.985547E-3,2.413138E-3,1.0357279E-2,-2.7433796E-2,-1.6670883E-2,-8.034275E-4],"split_indices":[19,25,19,72,72,46,71,14,30,46,20,20,15,17,43,0,0,0,0,0,0,0,0,0,0,0,0,0,0,0,0],"split_type":[0,0,0,0,0,0,0,0,0,0,0,0,0,0,0,0,0,0,0,0,0,0,0,0,0,0,0,0,0,0,0],"sum_hessian":[5.032207E3,2.8886108E3,2.1435964E3,2.2229827E3,6.656282E2,1.6019281E3,5.416682E2,7.549785E2,1.4680042E3,2.1567288E2,4.499553E2,4.9056454E2,1.1113635E3,1.1104973E2,4.3061847E2,2.1652177E2,5.384568E2,1.3481727E3,1.1983137E2,1.412987E2,7.4374176E1,5.883118E1,3.911241E2,1.128866E2,3.7767795E2,9.592601E2,1.5210349E2,5.8756275E0,1.051741E2,3.9352496E2,3.709353E1],"tree_param":{"num_deleted":"0","num_feature":"108","num_nodes":"31","size_leaf_vector":"1"}},{"base_weights":[6.545114E-3,-2.5261578E-1,2.9052556E-1,-1.6815321E-1,-5.557052E-1,1.6294351E-1,5.783083E-1,-2.482647E-1,-2.9429698E-2,-8.8218206E-1,-4.693046E-1,3.4261551E-1,6.66242E-2,8.34584E-1,4.0188363E-1,-9.024142E-3,9.2348026E-4,-6.038248E-3,2.6346869E-3,1.7710572E-2,-2.8075267E-2,-1.4818044E-2,1.1653719E-2,7.8466296E-4,1.3836006E-2,-2.657283E-3,4.9581192E-3,3.0531555E-2,1.920276E-2,1.695067E-2,6.95668E-3],"categories":[],"categories_nodes":[],"categories_segments":[],"categories_sizes":[],"default_left":[0,0,1,0,0,0,0,0,0,0,0,0,0,0,0,0,0,0,0,0,0,0,0,0,0,0,0,0,0,0,0],"id":32,"left_children":[1,3,5,7,9,11,13,15,17,19,21,23,25,27,29,-1,-1,-1,-1,-1,-1,-1,-1,-1,-1,-1,-1,-1,-1,-1,-1],"loss_changes":[3.6872183E2,6.696503E1,8.76765E1,2.2775558E1,1.5677338E1,2.8664448E1,3.2845657E1,1.9060364E1,1.5162263E1,9.895348E0,9.766922E0,2.168895E1,1.655534E1,9.973282E0,1.1976578E1,0E0,0E0,0E0,0E0,0E0,0E0,0E0,0E0,0E0,0E0,0E0,0E0,0E0,0E0,0E0,0E0],"parents":[2147483647,0,0,1,1,2,2,3,3,4,4,5,5,6,6,7,7,8,8,9,9,10,10,11,11,12,12,13,13,14,14],"right_children":[2,4,6,8,10,12,14,16,18,20,22,24,26,28,30,-1,-1,-1,-1,-1,-1,-1,-1,-1,-1,-1,-1,-1,-1,-1,-1],"split_conditions":[6.143408E-1,6.626768E-1,7.5789475E-1,1E0,1E0,2E0,2E0,2.0484162E-2,4.785164E-1,2E0,1.1408372E2,8E0,3.1E1,2E0,4.477E-1,-9.024142E-3,9.2348026E-4,-6.038248E-3,2.6346869E-3,1.7710572E-2,-2.8075267E-2,-1.4818044E-2,1.1653719E-2,7.8466296E-4,1.3836006E-2,-2.657283E-3,4.9581192E-3,3.0531555E-2,1.920276E-2,1.695067E-2,6.95668E-3],"split_indices":[18,19,25,94,72,72,46,93,44,14,65,14,14,72,59,0,0,0,0,0,0,0,0,0,0,0,0,0,0,0,0],"split_type":[0,0,0,0,0,0,0,0,0,0,0,0,0,0,0,0,0,0,0,0,0,0,0,0,0,0,0,0,0,0,0],"sum_hessian":[5.0080396E3,2.618502E3,2.3895376E3,2.049045E3,5.6945703E2,1.6566604E3,7.328772E2,1.2984265E3,7.506184E2,1.172397E2,4.5221732E2,5.7727216E2,1.0793883E3,2.972945E2,4.3558273E2,1.0926251E3,2.0580135E2,3.0414594E2,4.4647247E2,3.770428E0,1.1346927E2,4.400069E2,1.2210423E1,1.5768576E2,4.1958636E2,4.1949673E2,6.5989154E2,1.5093794E2,1.4635654E2,2.2108751E2,2.1449521E2],"tree_param":{"num_deleted":"0","num_feature":"108","num_nodes":"31","size_leaf_vector":"1"}},{"base_weights":[6.109257E-3,-2.2606218E-1,2.9975644E-1,-1.1709875E-1,-4.8664698E-1,6.91067E-1,2.2650129E-1,-2.582976E-1,-5.1909212E-2,-7.40613E-1,-4.080982E-1,9.430261E-1,4.6139443E-1,5.132855E-1,1.7117552E-1,-9.247996E-3,2.6221613E-3,-5.6332033E-3,5.7961844E-4,-2.8524244E-2,-1.3711393E-2,-1.8184133E-2,-9.788265E-3,8.653972E-3,3.0005565E-2,3.0626338E-3,1.7727096E-2,1.0678826E-3,2.3366E-2,-6.5115476E-3,6.132528E-3],"categories":[],"categories_nodes":[],"categories_segments":[],"categories_sizes":[],"default_left":[0,0,0,0,0,0,0,0,0,0,0,0,0,0,0,0,0,0,0,0,0,0,0,0,0,0,0,0,0,0,0],"id":33,"left_children":[1,3,5,7,9,11,13,15,17,19,21,23,25,27,29,-1,-1,-1,-1,-1,-1,-1,-1,-1,-1,-1,-1,-1,-1,-1,-1],"loss_changes":[3.4139594E2,7.934764E1,6.3223816E1,1.8149813E1,1.6140472E1,1.971222E1,2.948536E1,1.0789238E1,1.308036E1,1.1097809E1,1.0039459E1,5.887314E0,8.506134E0,3.8149033E1,2.022787E1,0E0,0E0,0E0,0E0,0E0,0E0,0E0,0E0,0E0,0E0,0E0,0E0,0E0,0E0,0E0,0E0],"parents":[2147483647,0,0,1,1,2,2,3,3,4,4,5,5,6,6,7,7,8,8,9,9,10,10,11,11,12,12,13,13,14,14],"right_children":[2,4,6,8,10,12,14,16,18,20,22,24,26,28,30,-1,-1,-1,-1,-1,-1,-1,-1,-1,-1,-1,-1,-1,-1,-1,-1],"split_conditions":[6.323767E-1,6.172249E-1,1.4803398E-1,0E0,2.4210526E-1,2E0,1E0,3.705735E1,-3.5994763E0,6.1764705E-1,2E0,4E0,1.5E0,8E0,1.4259845E3,-9.247996E-3,2.6221613E-3,-5.6332033E-3,5.7961844E-4,-2.8524244E-2,-1.3711393E-2,-1.8184133E-2,-9.788265E-3,8.653972E-3,3.0005565E-2,3.0626338E-3,1.7727096E-2,1.0678826E-3,2.3366E-2,-6.5115476E-3,6.132528E-3],"split_indices":[18,19,19,94,25,46,71,2,40,16,46,17,89,17,3,0,0,0,0,0,0,0,0,0,0,0,0,0,0,0,0],"split_type":[0,0,0,0,0,0,0,0,0,0,0,0,0,0,0,0,0,0,0,0,0,0,0,0,0,0,0,0,0,0,0],"sum_hessian":[5.005538E3,2.7955073E3,2.2100308E3,1.9722579E3,8.232493E2,3.471594E2,1.8628715E3,6.220189E2,1.350239E3,1.9248224E2,6.307671E2,1.6406651E2,1.8309286E2,2.9992346E2,1.562948E3,5.4355945E2,7.8459465E1,4.6385077E2,8.863882E2,1.09190895E2,8.329135E1,1.8254239E2,4.482247E2,1.3662067E1,1.5040445E2,4.8983173E1,1.341097E2,1.0757213E2,1.9235133E2,1.228366E2,1.4401113E3],"tree_param":{"num_deleted":"0","num_feature":"108","num_nodes":"31","size_leaf_vector":"1"}},{"base_weights":[6.9344235E-3,-2.2083575E-1,2.9698086E-1,-6.0065967E-1,-1.5511407E-1,2.2602274E-1,7.166521E-1,-6.731754E-1,-1.4594337E-1,-5.2048513E-3,-2.2703221E-1,4.40537E-1,1.15599774E-1,9.5586705E-1,5.006596E-1,-2.7538812E-2,-1.6857922E-2,2.2683026E-2,-1.0815561E-2,-2.2518706E-2,6.3805387E-4,-1.093975E-2,-4.9468456E-3,2.1064144E-2,8.719201E-3,6.959342E-3,7.222932E-5,2.9905198E-2,3.7852682E-3,1.61204E-2,-1.9684648E-2],"categories":[],"categories_nodes":[],"categories_segments":[],"categories_sizes":[],"default_left":[0,0,0,0,0,0,0,0,0,0,0,0,0,1,0,0,0,0,0,0,0,0,0,0,0,0,0,0,0,0,0],"id":34,"left_children":[1,3,5,7,9,11,13,15,17,19,21,23,25,27,29,-1,-1,-1,-1,-1,-1,-1,-1,-1,-1,-1,-1,-1,-1,-1,-1],"loss_changes":[3.2993814E2,6.973863E1,6.525615E1,1.3496948E1,2.572438E1,4.4493744E1,1.5913483E1,9.159744E0,1.1495887E1,1.5302324E1,1.3729691E1,2.4841476E1,1.637134E1,4.9542084E0,7.517269E0,0E0,0E0,0E0,0E0,0E0,0E0,0E0,0E0,0E0,0E0,0E0,0E0,0E0,0E0,0E0,0E0],"parents":[2147483647,0,0,1,1,2,2,3,3,4,4,5,5,6,6,7,7,8,8,9,9,10,10,11,11,12,12,13,13,14,14],"right_children":[2,4,6,8,10,12,14,16,18,20,22,24,26,28,30,-1,-1,-1,-1,-1,-1,-1,-1,-1,-1,-1,-1,-1,-1,-1,-1],"split_conditions":[6.323767E-1,3.0423003E-1,8.578995E-1,4E0,-1E0,2E0,2E0,2E0,1.2428572E1,-2E0,0E0,-6.5E0,-6E0,2.4838709E1,1.125233E2,-2.7538812E-2,-1.6857922E-2,2.2683026E-2,-1.0815561E-2,-2.2518706E-2,6.3805387E-4,-1.093975E-2,-4.9468456E-3,2.1064144E-2,8.719201E-3,6.959342E-3,7.222932E-5,2.9905198E-2,3.7852682E-3,1.61204E-2,-1.9684648E-2],"split_indices":[18,18,18,72,20,72,46,46,41,94,94,20,20,49,69,0,0,0,0,0,0,0,0,0,0,0,0,0,0,0,0],"split_type":[0,0,0,0,0,0,0,0,0,0,0,0,0,0,0,0,0,0,0,0,0,0,0,0,0,0,0,0,0,0,0],"sum_hessian":[4.992233E3,2.7964504E3,2.1957822E3,4.11299E2,2.3851516E3,1.8795294E3,3.1625275E2,3.543144E2,5.698463E1,7.7363214E2,1.6115193E3,6.3770197E2,1.2418275E3,1.484342E2,1.6781853E2,1.0844283E2,2.4587157E2,1.0465489E1,4.6519142E1,2.5594847E1,7.480373E2,4.997562E2,1.1117632E3,2.309545E2,4.067475E2,6.1177875E2,6.300487E2,1.4125702E2,7.177196E0,1.6317897E2,4.639547E0],"tree_param":{"num_deleted":"0","num_feature":"108","num_nodes":"31","size_leaf_vector":"1"}},{"base_weights":[1.6060774E-3,3.038018E-1,-2.2630143E-1,7.067686E-1,2.2844967E-1,-5.0922567E-1,-1.2903771E-1,8.670933E-1,4.3797156E-1,4.3991762E-1,1.2082399E-1,-7.1685416E-1,-4.2648962E-1,-3.0512708E-1,-8.282743E-2,2.9160785E-2,1.42619535E-2,-2.9880914E-3,1.7960487E-2,3.5609293E-3,1.6470676E-2,6.796447E-3,4.3861044E-4,1.6073776E-2,-2.2606079E-2,-1.6811565E-2,-9.87496E-3,-1.1057189E-2,4.392138E-4,-1.808035E-2,-1.96316E-3],"categories":[],"categories_nodes":[],"categories_segments":[],"categories_sizes":[],"default_left":[0,0,0,0,0,0,0,0,0,0,0,0,1,0,0,0,0,0,0,0,0,0,0,0,0,0,0,0,0,0,0],"id":35,"left_children":[1,3,5,7,9,11,13,15,17,19,21,23,25,27,29,-1,-1,-1,-1,-1,-1,-1,-1,-1,-1,-1,-1,-1,-1,-1,-1],"loss_changes":[3.448519E2,6.520401E1,7.8482285E1,1.4214249E1,4.125627E1,1.2232803E1,1.727016E1,8.214645E0,1.1165068E1,2.1376816E1,1.3518244E1,9.892677E0,6.649086E0,8.961746E0,1.5192514E1,0E0,0E0,0E0,0E0,0E0,0E0,0E0,0E0,0E0,0E0,0E0,0E0,0E0,0E0,0E0,0E0],"parents":[2147483647,0,0,1,1,2,2,3,3,4,4,5,5,6,6,7,7,8,8,9,9,10,10,11,11,12,12,13,13,14,14],"right_children":[2,4,6,8,10,12,14,16,18,20,22,24,26,28,30,-1,-1,-1,-1,-1,-1,-1,-1,-1,-1,-1,-1,-1,-1,-1,-1],"split_conditions":[3.6422083E-1,1.4803398E-1,3.6851358E-1,3E0,2E0,2E0,4.5725647E-1,3E0,8.706972E-1,9E0,-6E0,3.2426304E-1,2.5095165E-1,8.4210527E-1,-1.0217612E-1,2.9160785E-2,1.42619535E-2,-2.9880914E-3,1.7960487E-2,3.5609293E-3,1.6470676E-2,6.796447E-3,4.3861044E-4,1.6073776E-2,-2.2606079E-2,-1.6811565E-2,-9.87496E-3,-1.1057189E-2,4.392138E-4,-1.808035E-2,-1.96316E-3],"split_indices":[19,19,18,72,72,46,25,46,18,14,20,29,25,15,93,0,0,0,0,0,0,0,0,0,0,0,0,0,0,0,0],"split_type":[0,0,0,0,0,0,0,0,0,0,0,0,0,0,0,0,0,0,0,0,0,0,0,0,0,0,0,0,0,0,0],"sum_hessian":[5.0050947E3,2.1516992E3,2.8533953E3,3.3764868E2,1.8140505E3,7.2890234E2,2.124493E3,2.1010507E2,1.275436E2,6.108117E2,1.2032389E3,2.0550853E2,5.2339386E2,4.4046176E2,1.6840312E3,1.6454327E2,4.55618E1,2.9441814E1,9.810179E1,1.553951E2,4.5541663E2,6.024124E2,6.008264E2,5.4596753E0,2.0004884E2,2.1830215E2,3.0509167E2,3.6741028E2,7.305146E1,5.3417377E1,1.6306139E3],"tree_param":{"num_deleted":"0","num_feature":"108","num_nodes":"31","size_leaf_vector":"1"}},{"base_weights":[8.7187905E-4,2.614472E-1,-2.1877936E-1,5.819659E-1,1.7401023E-1,-8.972748E-2,-4.036002E-1,8.688882E-1,3.7381208E-1,3.747546E-1,7.060508E-2,5.5056747E-2,-1.6095701E-1,-6.7444533E-1,-3.4072256E-1,3.1255264E-2,2.0684756E-2,1.4371719E-2,-1.2427779E-3,2.8323059E-3,1.4787127E-2,1.5354843E-3,1.4977808E-2,2.8552006E-3,-1.8016335E-2,-6.0510407E-3,4.2624916E-3,-2.46834E-2,-1.4532202E-2,-1.5447705E-2,-8.103562E-3],"categories":[],"categories_nodes":[],"categories_segments":[],"categories_sizes":[],"default_left":[0,0,0,0,0,0,0,0,0,0,0,0,0,0,0,0,0,0,0,0,0,0,0,0,0,0,0,0,0,0,0],"id":36,"left_children":[1,3,5,7,9,11,13,15,17,19,21,23,25,27,29,-1,-1,-1,-1,-1,-1,-1,-1,-1,-1,-1,-1,-1,-1,-1,-1],"loss_changes":[2.8500452E2,6.3728073E1,6.440852E1,2.8804047E1,3.7147953E1,1.6429945E1,1.8684402E1,5.6207733E0,1.2449368E1,2.0112617E1,9.825327E0,1.3885777E1,1.3209141E1,5.471504E0,1.0972031E1,0E0,0E0,0E0,0E0,0E0,0E0,0E0,0E0,0E0,0E0,0E0,0E0,0E0,0E0,0E0,0E0],"parents":[2147483647,0,0,1,1,2,2,3,3,4,4,5,5,6,6,7,7,8,8,9,9,10,10,11,11,12,12,13,13,14,14],"right_children":[2,4,6,8,10,12,14,16,18,20,22,24,26,28,30,-1,-1,-1,-1,-1,-1,-1,-1,-1,-1,-1,-1,-1,-1,-1,-1],"split_conditions":[3.771316E-1,-9E0,5.71116E-1,2E0,2E0,2E0,2.4337554E-1,2E0,1.075E2,1.1E1,1.0365513E-1,9.917585E0,6.877539E-1,3E0,2E0,3.1255264E-2,2.0684756E-2,1.4371719E-2,-1.2427779E-3,2.8323059E-3,1.4787127E-2,1.5354843E-3,1.4977808E-2,2.8552006E-3,-1.8016335E-2,-6.0510407E-3,4.2624916E-3,-2.46834E-2,-1.4532202E-2,-1.5447705E-2,-8.103562E-3],"split_indices":[19,20,19,46,72,72,18,72,32,17,93,86,5,46,46,0,0,0,0,0,0,0,0,0,0,0,0,0,0,0,0],"split_type":[0,0,0,0,0,0,0,0,0,0,0,0,0,0,0,0,0,0,0,0,0,0,0,0,0,0,0,0,0,0,0],"sum_hessian":[4.9774897E3,2.2765713E3,2.7009185E3,4.867243E2,1.789847E3,1.5912837E3,1.1096348E3,2.0330772E2,2.8341656E2,6.0762244E2,1.1822246E3,5.247933E2,1.0664905E3,2.0723677E2,9.0239795E2,1.0106484E2,1.02242874E2,2.2598521E2,5.7431366E1,1.806876E2,4.2693484E2,1.132051E3,5.0173553E1,4.9533807E2,2.9455177E1,9.403879E2,1.26102615E2,1.1451922E2,9.2717545E1,2.5844443E2,6.4395355E2],"tree_param":{"num_deleted":"0","num_feature":"108","num_nodes":"31","size_leaf_vector":"1"}},{"base_weights":[1.543493E-3,-2.060861E-1,2.704806E-1,-1.1155735E-1,-4.3764228E-1,5.776338E-1,1.8123846E-1,2.9848712E-2,-1.8122473E-1,-3.6493272E-1,-7.094411E-1,9.158667E-1,4.217019E-1,3.8781732E-1,7.369252E-2,-2.2650415E-3,7.166534E-3,-6.9206827E-3,6.8063254E-4,-1.3380148E-2,-5.014989E-3,-2.8537866E-2,-1.5293181E-2,2.8226102E-2,-3.3366596E-3,1.5669063E-2,9.061064E-4,-1.9114478E-3,1.38150295E-2,-8.127559E-4,5.6513506E-3],"categories":[],"categories_nodes":[],"categories_segments":[],"categories_sizes":[],"default_left":[0,0,0,0,1,0,0,0,0,0,0,1,0,0,0,0,0,0,0,0,0,0,0,0,0,0,0,0,0,0,0],"id":37,"left_children":[1,3,5,7,9,11,13,15,17,19,21,23,25,27,29,-1,-1,-1,-1,-1,-1,-1,-1,-1,-1,-1,-1,-1,-1,-1,-1],"loss_changes":[2.77115E2,6.1252243E1,5.916194E1,1.9610275E1,1.577861E1,2.526271E1,3.7225094E1,1.4501921E1,1.3454113E1,1.0223732E1,7.7336884E0,4.0235596E0,1.3166874E1,1.8862747E1,1.2765431E1,0E0,0E0,0E0,0E0,0E0,0E0,0E0,0E0,0E0,0E0,0E0,0E0,0E0,0E0,0E0,0E0],"parents":[2147483647,0,0,1,1,2,2,3,3,4,4,5,5,6,6,7,7,8,8,9,9,10,10,11,11,12,12,13,13,14,14],"right_children":[2,4,6,8,10,12,14,16,18,20,22,24,26,28,30,-1,-1,-1,-1,-1,-1,-1,-1,-1,-1,-1,-1,-1,-1,-1,-1],"split_conditions":[6.323767E-1,6.172249E-1,-9E0,2E0,8.5E0,2E0,2E0,1.5177117E3,6.5987945E0,1.52E1,2E0,2.05E1,1.075E2,4E0,4.5E1,-2.2650415E-3,7.166534E-3,-6.9206827E-3,6.8063254E-4,-1.3380148E-2,-5.014989E-3,-2.8537866E-2,-1.5293181E-2,2.8226102E-2,-3.3366596E-3,1.5669063E-2,9.061064E-4,-1.9114478E-3,1.38150295E-2,-8.127559E-4,5.6513506E-3],"split_indices":[18,19,20,72,20,72,72,3,2,41,72,96,32,17,14,0,0,0,0,0,0,0,0,0,0,0,0,0,0,0,0],"split_type":[0,0,0,0,0,0,0,0,0,0,0,0,0,0,0,0,0,0,0,0,0,0,0,0,0,0,0,0,0,0,0],"sum_hessian":[4.9607246E3,2.7995784E3,2.1611462E3,1.9890608E3,8.1051746E2,4.8531583E2,1.6758304E3,6.5670264E2,1.3323582E3,6.413035E2,1.6921394E2,1.5160185E2,3.33714E2,5.728566E2,1.1029738E3,4.3706757E2,2.1963504E2,1.0721473E3,2.602108E2,4.539545E2,1.8734903E2,7.482643E1,9.438752E1,1.4808093E2,3.5209315E0,2.6522668E2,6.84873E1,7.944491E1,4.9341174E2,5.874736E2,5.155002E2],"tree_param":{"num_deleted":"0","num_feature":"108","num_nodes":"31","size_leaf_vector":"1"}},{"base_weights":[4.718875E-3,3.4268945E-1,-1.5228605E-1,5.785566E-1,2.2264923E-1,-3.7228128E-1,-2.725635E-2,-6.8637975E-2,6.696385E-1,5.596542E-1,1.4241558E-1,-3.0532956E-1,-6.359825E-1,1.16261534E-1,-9.601466E-2,1.4523258E-2,-1.3111894E-2,1.4459841E-2,2.4971936E-2,-2.311668E-3,1.918225E-2,1.737675E-2,2.977775E-3,9.82218E-3,-9.812497E-3,-2.5561888E-2,-1.3505887E-2,-5.84861E-3,6.714354E-3,-8.631394E-3,-1.5626056E-3],"categories":[],"categories_nodes":[],"categories_segments":[],"categories_sizes":[],"default_left":[0,0,0,0,0,1,0,0,0,0,0,0,0,0,0,0,0,0,0,0,0,0,0,0,0,0,0,0,0,0,0],"id":38,"left_children":[1,3,5,7,9,11,13,15,17,19,21,23,25,27,29,-1,-1,-1,-1,-1,-1,-1,-1,-1,-1,-1,-1,-1,-1,-1,-1],"loss_changes":[2.6299854E2,4.438385E1,9.30761E1,3.1266037E1,2.8135937E1,2.1456284E1,2.1315605E1,1.3702538E1,1.3781204E1,1.0221703E1,1.5856415E1,1.359491E1,9.547432E0,2.3465202E1,1.2281039E1,0E0,0E0,0E0,0E0,0E0,0E0,0E0,0E0,0E0,0E0,0E0,0E0,0E0,0E0,0E0,0E0],"parents":[2147483647,0,0,1,1,2,2,3,3,4,4,5,5,6,6,7,7,8,8,9,9,10,10,11,11,12,12,13,13,14,14],"right_children":[2,4,6,8,10,12,14,16,18,20,22,24,26,28,30,-1,-1,-1,-1,-1,-1,-1,-1,-1,-1,-1,-1,-1,-1,-1,-1],"split_conditions":[3.0902126E-1,2E0,4.4799376E-1,4E0,1.421005E-1,7.5E0,2E0,-5.5E0,7.770904E-1,3.229E-1,1E0,2E0,2E0,-4.20313E0,2E0,1.4523258E-2,-1.3111894E-2,1.4459841E-2,2.4971936E-2,-2.311668E-3,1.918225E-2,1.737675E-2,2.977775E-3,9.82218E-3,-9.812497E-3,-2.5561888E-2,-1.3505887E-2,-5.84861E-3,6.714354E-3,-8.631394E-3,-1.5626056E-3],"split_indices":[19,72,18,17,19,20,72,20,18,35,45,17,72,40,46,0,0,0,0,0,0,0,0,0,0,0,0,0,0,0,0],"split_type":[0,0,0,0,0,0,0,0,0,0,0,0,0,0,0,0,0,0,0,0,0,0,0,0,0,0,0,0,0,0,0],"sum_hessian":[4.9543574E3,1.5711339E3,3.3832234E3,5.286228E2,1.0425112E3,1.2252915E3,2.157932E3,6.524715E1,4.6337564E2,1.9932256E2,8.4318866E2,9.7891125E2,2.4638028E2,6.987512E2,1.4591805E3,2.5970192E1,3.9276955E1,2.1707411E2,2.4630151E2,2.219163E1,1.7713092E2,7.469891E1,7.6848975E2,3.20697E1,9.4684155E2,1.1224565E2,1.3413463E2,1.7924945E2,5.195018E2,2.7100043E2,1.18818E3],"tree_param":{"num_deleted":"0","num_feature":"108","num_nodes":"31","size_leaf_vector":"1"}},{"base_weights":[-3.0567436E-3,3.137815E-1,-1.6528855E-1,2.2678939E-1,5.727167E-1,-1.1238322E-1,-5.3745264E-1,3.7297615E-1,1.3560805E-1,8.1936616E-1,3.944399E-1,-1.6549577E-1,5.1216837E-2,-7.564691E-1,-4.272222E-1,4.7641134E-4,1.5621981E-2,5.8363844E-3,-4.8270053E-3,2.9731737E-2,1.9357767E-2,1.484801E-2,-4.3786693E-4,-6.269026E-3,2.2410264E-3,1.9197479E-3,-4.7825463E-2,-3.253777E-2,-1.8597467E-2,-1.4055078E-2,1.6724953E-2],"categories":[],"categories_nodes":[],"categories_segments":[],"categories_sizes":[],"default_left":[0,1,0,0,0,0,0,0,0,0,0,0,0,0,0,0,0,0,0,0,0,0,0,0,0,0,0,0,0,0,0],"id":39,"left_children":[1,3,5,7,9,11,13,15,17,19,21,23,25,27,29,-1,-1,-1,-1,-1,-1,-1,-1,-1,-1,-1,-1,-1,-1,-1,-1],"loss_changes":[2.5308505E2,3.742807E1,6.40552E1,1.6607567E1,1.8085434E1,2.4792824E1,9.455147E0,2.5291168E1,1.3509042E1,4.5831757E0,1.0075275E1,2.250193E1,1.4811859E1,5.3453293E0,1.1306713E1,0E0,0E0,0E0,0E0,0E0,0E0,0E0,0E0,0E0,0E0,0E0,0E0,0E0,0E0,0E0,0E0],"parents":[2147483647,0,0,1,1,2,2,3,3,4,4,5,5,6,6,7,7,8,8,9,9,10,10,11,11,12,12,13,13,14,14],"right_children":[2,4,6,8,10,12,14,16,18,20,22,24,26,28,30,-1,-1,-1,-1,-1,-1,-1,-1,-1,-1,-1,-1,-1,-1,-1,-1],"split_conditions":[3.207547E-1,8.094662E-1,6.9576997E-1,2E0,2E0,1.2576003E-2,2.1576764E-1,1.2E1,1.7142857E0,-1.15E1,1.01004E2,2E0,8.573846E-1,2E0,1.16143906E2,4.7641134E-4,1.5621981E-2,5.8363844E-3,-4.8270053E-3,2.9731737E-2,1.9357767E-2,1.484801E-2,-4.3786693E-4,-6.269026E-3,2.2410264E-3,1.9197479E-3,-4.7825463E-2,-3.253777E-2,-1.8597467E-2,-1.4055078E-2,1.6724953E-2],"split_indices":[19,25,19,46,46,93,25,14,92,20,6,94,5,46,39,0,0,0,0,0,0,0,0,0,0,0,0,0,0,0,0],"split_type":[0,0,0,0,0,0,0,0,0,0,0,0,0,0,0,0,0,0,0,0,0,0,0,0,0,0,0,0,0,0,0],"sum_hessian":[4.921706E3,1.6663654E3,3.2553406E3,1.2487201E3,4.1764526E2,2.8513118E3,4.0402893E2,4.784896E2,7.7023047E2,1.7371338E2,2.4393187E2,2.1524954E3,6.988164E2,1.3330435E2,2.7072458E2,1.4036504E2,3.3812454E2,6.4280206E2,1.274284E2,8.510091E1,8.861247E1,1.9565294E2,4.8278942E1,1.8227385E3,3.2975668E2,6.9438635E2,4.430057E0,3.7133633E1,9.617072E1,2.603353E2,1.0389277E1],"tree_param":{"num_deleted":"0","num_feature":"108","num_nodes":"31","size_leaf_vector":"1"}},{"base_weights":[3.3050734E-3,-1.8488291E-1,2.6965967E-1,-7.693623E-2,-3.7404072E-1,6.1178356E-1,1.85384E-1,-2.5905848E-1,-3.3308778E-2,-6.243357E-1,-3.117406E-1,8.8382053E-1,4.138631E-1,3.00739E-1,1.0106058E-2,-2.2746699E-2,-5.256827E-3,3.3156488E-3,-3.1296758E-3,-2.380287E-2,-1.29498895E-2,-1.9854462E-2,-8.242837E-3,1.8411078E-2,2.9576693E-2,1.6604144E-2,3.8629745E-3,9.594674E-3,-2.0679768E-2,8.821614E-3,-1.5997632E-3],"categories":[],"categories_nodes":[],"categories_segments":[],"categories_sizes":[],"default_left":[0,1,0,0,0,0,0,0,0,0,0,0,0,0,0,0,0,0,0,0,0,0,0,0,0,0,0,0,0,0,0],"id":40,"left_children":[1,3,5,7,9,11,13,15,17,19,21,23,25,27,29,-1,-1,-1,-1,-1,-1,-1,-1,-1,-1,-1,-1,-1,-1,-1,-1],"loss_changes":[2.4748929E2,5.9049118E1,5.8826035E1,1.4637611E1,1.619336E1,2.1364075E1,3.3188744E1,1.4767754E1,1.521236E1,6.4489975E0,1.0737709E1,4.0568695E0,9.302074E0,1.8925385E1,1.1769828E1,0E0,0E0,0E0,0E0,0E0,0E0,0E0,0E0,0E0,0E0,0E0,0E0,0E0,0E0,0E0,0E0],"parents":[2147483647,0,0,1,1,2,2,3,3,4,4,5,5,6,6,7,7,8,8,9,9,10,10,11,11,12,12,13,13,14,14],"right_children":[2,4,6,8,10,12,14,16,18,20,22,24,26,28,30,-1,-1,-1,-1,-1,-1,-1,-1,-1,-1,-1,-1,-1,-1,-1,-1],"split_conditions":[6.42635E-1,2.5E0,-9.5E0,1.4020598E3,2.5231287E-1,2E0,3E0,1.22E1,2E0,-5E0,1E0,8.52459E-1,1.045E2,9E0,1E0,-2.2746699E-2,-5.256827E-3,3.3156488E-3,-3.1296758E-3,-2.380287E-2,-1.29498895E-2,-1.9854462E-2,-8.242837E-3,1.8411078E-2,2.9576693E-2,1.6604144E-2,3.8629745E-3,9.594674E-3,-2.0679768E-2,8.821614E-3,-1.5997632E-3],"split_indices":[18,20,20,3,18,46,72,67,72,28,45,25,32,77,73,0,0,0,0,0,0,0,0,0,0,0,0,0,0,0,0],"split_type":[0,0,0,0,0,0,0,0,0,0,0,0,0,0,0,0,0,0,0,0,0,0,0,0,0,0,0,0,0,0,0],"sum_hessian":[4.9354736E3,2.8922869E3,2.0431868E3,1.8423309E3,1.049956E3,4.0258817E2,1.6405986E3,3.5508698E2,1.4872439E3,2.07458E2,8.4249805E2,1.6808867E2,2.3449948E2,9.8899774E2,6.516009E2,4.9902378E1,3.0518457E2,4.9140393E2,9.9584E2,1.08829285E2,9.8628716E1,7.8878426E1,7.636196E2,4.802007E1,1.200686E2,1.5678337E2,7.771611E1,9.709595E2,1.8038288E1,1.1831851E2,5.3328235E2],"tree_param":{"num_deleted":"0","num_feature":"108","num_nodes":"31","size_leaf_vector":"1"}},{"base_weights":[2.532269E-3,-2.4528374E-1,1.892953E-1,-1.8491568E-1,-5.388851E-1,1.030366E-1,4.5542604E-1,-3.3927473E-1,-1.18579425E-1,-6.778366E-1,-2.9554015E-1,2.1672189E-1,-6.374763E-2,7.676312E-1,3.1511655E-1,-6.294272E-3,-1.6474586E-2,-2.2295753E-3,-9.407933E-3,-2.4366789E-2,-1.2922848E-2,-1.4163169E-2,3.1524163E-3,-3.1474363E-3,7.7443197E-3,-2.5949518E-3,1.7642675E-2,1.7032227E-2,2.870838E-2,1.9165343E-2,6.6886293E-3],"categories":[],"categories_nodes":[],"categories_segments":[],"categories_sizes":[],"default_left":[0,1,1,0,0,0,0,0,0,0,0,0,0,1,0,0,0,0,0,0,0,0,0,0,0,0,0,0,0,0,0],"id":41,"left_children":[1,3,5,7,9,11,13,15,17,19,21,23,25,27,29,-1,-1,-1,-1,-1,-1,-1,-1,-1,-1,-1,-1,-1,-1,-1,-1],"loss_changes":[2.2896658E2,3.75829E1,6.471344E1,1.803255E1,1.2042351E1,4.0434715E1,2.9994812E1,1.4285416E1,1.0645376E1,7.2770157E0,9.483798E0,1.6919483E1,1.2876787E1,7.52948E0,1.4116688E1,0E0,0E0,0E0,0E0,0E0,0E0,0E0,0E0,0E0,0E0,0E0,0E0,0E0,0E0,0E0,0E0],"parents":[2147483647,0,0,1,1,2,2,3,3,4,4,5,5,6,6,7,7,8,8,9,9,10,10,11,11,12,12,13,13,14,14],"right_children":[2,4,6,8,10,12,14,16,18,20,22,24,26,28,30,-1,-1,-1,-1,-1,-1,-1,-1,-1,-1,-1,-1,-1,-1,-1,-1],"split_conditions":[5.642421E-1,6.5E0,7.5789475E-1,2E0,3E0,3E0,2E0,6.854981E-3,4.24E0,3E0,1.114E2,2.0833333E-1,1.0365513E-1,-1.8199878E-3,-1.2E1,-6.294272E-3,-1.6474586E-2,-2.2295753E-3,-9.407933E-3,-2.4366789E-2,-1.2922848E-2,-1.4163169E-2,3.1524163E-3,-3.1474363E-3,7.7443197E-3,-2.5949518E-3,1.7642675E-2,1.7032227E-2,2.870838E-2,1.9165343E-2,6.6886293E-3],"split_indices":[18,20,25,46,72,72,72,95,8,46,32,13,93,26,20,0,0,0,0,0,0,0,0,0,0,0,0,0,0,0,0],"split_type":[0,0,0,0,0,0,0,0,0,0,0,0,0,0,0,0,0,0,0,0,0,0,0,0,0,0,0,0,0,0,0],"sum_hessian":[4.94511E3,2.1250571E3,2.820053E3,1.763989E3,3.6106802E2,2.1308013E3,6.892516E2,5.2898035E2,1.2350087E3,2.2869582E2,1.323722E2,1.2669259E3,8.638754E2,2.1232733E2,4.7692426E2,3.284017E2,2.0057864E2,1.0076902E3,2.2731851E2,1.4664493E2,8.205089E1,9.1754715E1,4.0617477E1,1.4437134E2,1.1225546E3,8.355789E2,2.8296534E1,1.05224144E2,1.0710318E2,1.0437297E2,3.7255127E2],"tree_param":{"num_deleted":"0","num_feature":"108","num_nodes":"31","size_leaf_vector":"1"}},{"base_weights":[-7.930717E-3,-1.6096412E-1,2.9212025E-1,-3.4187126E-1,-5.2943233E-2,5.773292E-1,2.0876771E-1,-6.2529314E-1,-2.8547564E-1,-1.5781434E-1,1.7010884E-2,8.682904E-1,3.457579E-1,2.2300434E-1,-7.131693E-1,-2.815393E-2,-1.5355691E-2,1.7529547E-2,-9.030661E-3,-3.1432424E-2,-4.217394E-3,-1.2693176E-3,7.256591E-3,1.6560232E-2,2.9510358E-2,1.236302E-2,-1.2103709E-2,1.1346523E-2,3.9896336E-3,1.3716659E-2,-4.099297E-2],"categories":[],"categories_nodes":[],"categories_segments":[],"categories_sizes":[],"default_left":[0,0,0,0,0,0,0,0,0,0,0,0,0,0,1,0,0,0,0,0,0,0,0,0,0,0,0,0,0,0,0],"id":42,"left_children":[1,3,5,7,9,11,13,15,17,19,21,23,25,27,29,-1,-1,-1,-1,-1,-1,-1,-1,-1,-1,-1,-1,-1,-1,-1,-1],"loss_changes":[2.253428E2,6.349122E1,3.9284714E1,1.9239517E1,1.4939621E1,2.4919716E1,1.70154E1,6.6522446E0,1.3902E1,1.234985E1,1.631517E1,5.486702E0,1.0608532E1,1.7630928E1,1.573914E1,0E0,0E0,0E0,0E0,0E0,0E0,0E0,0E0,0E0,0E0,0E0,0E0,0E0,0E0,0E0,0E0],"parents":[2147483647,0,0,1,1,2,2,3,3,4,4,5,5,6,6,7,7,8,8,9,9,10,10,11,11,12,12,13,13,14,14],"right_children":[2,4,6,8,10,12,14,16,18,20,22,24,26,28,30,-1,-1,-1,-1,-1,-1,-1,-1,-1,-1,-1,-1,-1,-1,-1,-1],"split_conditions":[6.8007755E-1,4.4799376E-1,1.6E-1,2.5095165E-1,9.85E1,2E0,1E1,2E0,1E0,-5E-1,4.73E-1,4.6965767E-2,6.818182E-1,2E0,6E-1,-2.815393E-2,-1.5355691E-2,1.7529547E-2,-9.030661E-3,-3.1432424E-2,-4.217394E-3,-1.2693176E-3,7.256591E-3,1.6560232E-2,2.9510358E-2,1.236302E-2,-1.2103709E-2,1.1346523E-2,3.9896336E-3,1.3716659E-2,-4.099297E-2],"split_indices":[18,18,19,25,58,46,77,46,14,24,33,93,15,46,27,0,0,0,0,0,0,0,0,0,0,0,0,0,0,0,0],"split_type":[0,0,0,0,0,0,0,0,0,0,0,0,0,0,0,0,0,0,0,0,0,0,0,0,0,0,0,0,0,0,0],"sum_hessian":[4.9055E3,3.2489294E3,1.6565706E3,1.2138606E3,2.0350688E3,3.7330377E2,1.2832668E3,1.9977641E2,1.0140842E3,8.138047E2,1.2212642E3,1.642189E2,2.0908487E2,1.2644984E3,1.8768375E1,5.1187412E1,1.4858899E2,1.7164658E1,9.969196E2,1.4324842E1,7.994798E2,9.669876E2,2.5427654E2,4.5442772E1,1.1877614E2,1.924899E2,1.6594969E1,4.6298474E2,8.015137E2,6.8306413E0,1.1937734E1],"tree_param":{"num_deleted":"0","num_feature":"108","num_nodes":"31","size_leaf_vector":"1"}},{"base_weights":[1.139705E-2,2.6654556E-1,-1.4426744E-1,1.9162157E-1,5.3327507E-1,-3.2400802E-1,-3.757155E-2,3.7786955E-1,9.219516E-2,7.903582E-1,4.179796E-1,-5.0238526E-1,-2.4842331E-1,1.0814046E-1,-1.07078835E-1,-4.1882973E-3,1.3825202E-2,1.676523E-3,1.1433281E-2,1.1845607E-2,2.5936462E-2,1.5177288E-2,7.0063584E-4,-1.7661233E-2,9.3160867E-4,1.682272E-2,-7.906102E-3,9.349469E-4,1.1946756E-2,-4.3595815E-3,3.9982465E-3],"categories":[],"categories_nodes":[],"categories_segments":[],"categories_sizes":[],"default_left":[0,1,0,0,0,0,0,0,0,0,0,0,0,0,0,0,0,0,0,0,0,0,0,0,0,0,0,0,0,0,0],"id":43,"left_children":[1,3,5,7,9,11,13,15,17,19,21,23,25,27,29,-1,-1,-1,-1,-1,-1,-1,-1,-1,-1,-1,-1,-1,-1,-1,-1],"loss_changes":[1.9497385E2,3.70708E1,5.8459198E1,2.6885494E1,1.1743866E1,1.5185783E1,1.9400318E1,2.1774223E1,9.935529E0,3.326538E0,9.820347E0,1.5536217E1,9.926289E0,1.3804153E1,1.1936766E1,0E0,0E0,0E0,0E0,0E0,0E0,0E0,0E0,0E0,0E0,0E0,0E0,0E0,0E0,0E0,0E0],"parents":[2147483647,0,0,1,1,2,2,3,3,4,4,5,5,6,6,7,7,8,8,9,9,10,10,11,11,12,12,13,13,14,14],"right_children":[2,4,6,8,10,12,14,16,18,20,22,24,26,28,30,-1,-1,-1,-1,-1,-1,-1,-1,-1,-1,-1,-1,-1,-1,-1,-1],"split_conditions":[3.426268E-1,8.094662E-1,4.3762052E-1,2E0,2E0,2.9765546E-1,2E0,4E0,9.190555E-2,-2.3965854E-2,1.01004E2,4E0,1E0,1.5991506E3,4.777E-1,-4.1882973E-3,1.3825202E-2,1.676523E-3,1.1433281E-2,1.1845607E-2,2.5936462E-2,1.5177288E-2,7.0063584E-4,-1.7661233E-2,9.3160867E-4,1.682272E-2,-7.906102E-3,9.349469E-4,1.1946756E-2,-4.3595815E-3,3.9982465E-3],"split_indices":[19,25,18,72,72,25,72,17,80,21,6,72,14,1,33,0,0,0,0,0,0,0,0,0,0,0,0,0,0,0,0],"split_type":[0,0,0,0,0,0,0,0,0,0,0,0,0,0,0,0,0,0,0,0,0,0,0,0,0,0,0,0,0,0,0],"sum_hessian":[4.9070396E3,1.8590963E3,3.0479434E3,1.4527413E3,4.063549E2,1.1345822E3,1.9133611E3,5.0463895E2,9.481025E2,1.24002365E2,2.8235254E2,3.3599628E2,7.9858594E2,6.1776013E2,1.295601E3,6.963697E1,4.3500195E2,8.43308E2,1.0479445E2,2.0585367E1,1.03417E2,2.3067232E2,5.1680214E1,2.8910837E2,4.6887886E1,1.3980087E1,7.8460583E2,4.8908597E2,1.286742E2,1.1181046E3,1.7749638E2],"tree_param":{"num_deleted":"0","num_feature":"108","num_nodes":"31","size_leaf_vector":"1"}},{"base_weights":[9.181397E-3,2.4270631E-1,-1.6190775E-1,5.486152E-1,1.7603678E-1,-4.0146697E-2,-3.2023063E-1,8.1249565E-1,3.4112808E-1,1.8823458E-1,-6.642887E-1,-1.7882036E-1,2.5110072E-2,-5.9746677E-1,-2.669522E-1,1.4181324E-2,2.7816527E-2,1.3500076E-2,-4.4260556E-3,9.92065E-3,3.3109612E-3,-3.71044E-2,9.413825E-3,1.7851642E-3,-8.118953E-3,-7.449535E-3,2.1041946E-3,-2.2934731E-2,-1.165204E-2,1.5963359E-2,-8.45553E-3],"categories":[],"categories_nodes":[],"categories_segments":[],"categories_sizes":[],"default_left":[0,0,0,0,0,0,0,0,0,0,0,0,0,0,0,0,0,0,0,0,0,0,0,0,0,0,0,0,0,0,0],"id":44,"left_children":[1,3,5,7,9,11,13,