{"learner":{"attributes":{"best_iteration":"911","best_score":"0.6234262836541689","scikit_learn":"{\"_estimator_type\": \"classifier\"}"},"feature_names":["elo_home","elo_away","elo_difference","elo_rolling_five_home","elo_rolling_five_away","implied_prob_home","pace_home","pace_away","pace_difference","shooting_pct_home","shooting_pct_away","shooting_pct_diff","home_win_pct_home","road_win_pct_home","games_played_home","home_win_pct_away","road_win_pct_away","games_played_away","ppg_10_home","opp_ppg_10_home","fg_pct_roll_10_home","ft_pct_roll_10_home","fg3_pct_roll_10_home","last_5_win_rate_home","last_10_win_rate_home","offensive_rating_home","defensive_rating_home","net_rating_home","turnovers_per_game_home","opponent_off_rating_10_home","opponent_def_rating_10_home","player_impact_estimate_home","player_injury_flag_home","injured_count_home","star_available_home","star_count_home","star_points_lost_home","rest_days_home","back_to_back_home","fatigue_load_index_home","coaching_adaptability_score_home","season_pressure_home","ppg_10_away","opp_ppg_10_away","fg_pct_roll_10_away","ft_pct_roll_10_away","fg3_pct_roll_10_away","last_5_win_rate_away","last_10_win_rate_away","offensive_rating_away","defensive_rating_away","net_rating_away","turnovers_per_game_away","opponent_off_rating_10_away","opponent_def_rating_10_away","player_impact_estimate_away","player_injury_flag_away","injured_count_away","star_available_away","star_count_away","star_points_lost_away","rest_days_away","back_to_back_away","fatigue_load_index_away","coaching_adaptability_score_away","season_pressure_away","elo_diff","net_rating_diff","offensive_rating_diff","defensive_rating_diff","last_5_win_rate_diff","last_10_win_rate_diff","ppg_10_diff","rest_days_diff","fatigue_load_index_diff","turnovers_per_game_diff","player_impact_estimate_diff","injured_count_diff","coaching_adaptability_score_diff","star_points_lost_diff","season_pressure_diff"],"feature_types":["float","float","float","float","float","float","float","float","float","float","float","float","float","float","int","float","float","int","float","float","float","float","float","float","float","float","float","float","float","float","float","float","int","int","int","int","float","int","int","int","float","int","float","float","float","float","float","float","float","float","float","float","float","float","float","float","int","int","int","int","float","int","int","int","float","int","float","float","float","float","float","float","float","int","int","float","float","int","float","float","int"],"gradient_booster":{"model":{"cats":{"enc":[],"feature_segments":[],"sorted_idx":[]},"gbtree_model_param":{"num_parallel_tree":"1","num_trees":"952"},"iteration_indptr":[0,1,2,3,4,5,6,7,8,9,10,11,12,13,14,15,16,17,18,19,20,21,22,23,24,25,26,27,28,29,30,31,32,33,34,35,36,37,38,39,40,41,42,43,44,45,46,47,48,49,50,51,52,53,54,55,56,57,58,59,60,61,62,63,64,65,66,67,68,69,70,71,72,73,74,75,76,77,78,79,80,81,82,83,84,85,86,87,88,89,90,91,92,93,94,95,96,97,98,99,100,101,102,103,104,105,106,107,108,109,110,111,112,113,114,115,116,117,118,119,120,121,122,123,124,125,126,127,128,129,130,131,132,133,134,135,136,137,138,139,140,141,142,143,144,145,146,147,148,149,150,151,152,153,154,155,156,157,158,159,160,161,162,163,164,165,166,167,168,169,170,171,172,173,174,175,176,177,178,179,180,181,182,183,184,185,186,187,188,189,190,191,192,193,194,195,196,197,198,199,200,201,202,203,204,205,206,207,208,209,210,211,212,213,214,215,216,217,218,219,220,221,222,223,224,225,226,227,228,229,230,231,232,233,234,235,236,237,238,239,240,241,242,243,244,245,246,247,248,249,250,251,252,253,254,255,256,257,258,259,260,261,262,263,264,265,266,267,268,269,270,271,272,273,274,275,276,277,278,279,280,281,282,283,284,285,286,287,288,289,290,291,292,293,294,295,296,297,298,299,300,301,302,303,304,305,306,307,308,309,310,311,312,313,314,315,316,317,318,319,320,321,322,323,324,325,326,327,328,329,330,331,332,333,334,335,336,337,338,339,340,341,342,343,344,345,346,347,348,349,350,351,352,353,354,355,356,357,358,359,360,361,362,363,364,365,366,367,368,369,370,371,372,373,374,375,376,377,378,379,380,381,382,383,384,385,386,387,388,389,390,391,392,393,394,395,396,397,398,399,400,401,402,403,404,405,406,407,408,409,410,411,412,413,414,415,416,417,418,419,420,421,422,423,424,425,426,427,428,429,430,431,432,433,434,435,436,437,438,439,440,441,442,443,444,445,446,447,448,449,450,451,452,453,454,455,456,457,458,459,460,461,462,463,464,465,466,467,468,469,470,471,472,473,474,475,476,477,478,479,480,481,482,483,484,485,486,487,488,489,490,491,492,493,494,495,496,497,498,499,500,501,502,503,504,505,506,507,508,509,510,511,512,513,514,515,516,517,518,519,520,521,522,523,524,525,526,527,528,529,530,531,532,533,534,535,536,537,538,539,540,541,542,543,544,545,546,547,548,549,550,551,552,553,554,555,556,557,558,559,560,561,562,563,564,565,566,567,568,569,570,571,572,573,574,575,576,577,578,579,580,581,582,583,584,585,586,587,588,589,590,591,592,593,594,595,596,597,598,599,600,601,602,603,604,605,606,607,608,609,610,611,612,613,614,615,616,617,618,619,620,621,622,623,624,625,626,627,628,629,630,631,632,633,634,635,636,637,638,639,640,641,642,643,644,645,646,647,648,649,650,651,652,653,654,655,656,657,658,659,660,661,662,663,664,665,666,667,668,669,670,671,672,673,674,675,676,677,678,679,680,681,682,683,684,685,686,687,688,689,690,691,692,693,694,695,696,697,698,699,700,701,702,703,704,705,706,707,708,709,710,711,712,713,714,715,716,717,718,719,720,721,722,723,724,725,726,727,728,729,730,731,732,733,734,735,736,737,738,739,740,741,742,743,744,745,746,747,748,749,750,751,752,753,754,755,756,757,758,759,760,761,762,763,764,765,766,767,768,769,770,771,772,773,774,775,776,777,778,779,780,781,782,783,784,785,786,787,788,789,790,791,792,793,794,795,796,797,798,799,800,801,802,803,804,805,806,807,808,809,810,811,812,813,814,815,816,817,818,819,820,821,822,823,824,825,826,827,828,829,830,831,832,833,834,835,836,837,838,839,840,841,842,843,844,845,846,847,848,849,850,851,852,853,854,855,856,857,858,859,860,861,862,863,864,865,866,867,868,869,870,871,872,873,874,875,876,877,878,879,880,881,882,883,884,885,886,887,888,889,890,891,892,893,894,895,896,897,898,899,900,901,902,903,904,905,906,907,908,909,910,911,912,913,914,915,916,917,918,919,920,921,922,923,924,925,926,927,928,929,930,931,932,933,934,935,936,937,938,939,940,941,942,943,944,945,946,947,948,949,950,951,952],"tree_info":[0,0,0,0,0,0,0,0,0,0,0,0,0,0,0,0,0,0,0,0,0,0,0,0,0,0,0,0,0,0,0,0,0,0,0,0,0,0,0,0,0,0,0,0,0,0,0,0,0,0,0,0,0,0,0,0,0,0,0,0,0,0,0,0,0,0,0,0,0,0,0,0,0,0,0,0,0,0,0,0,0,0,0,0,0,0,0,0,0,0,0,0,0,0,0,0,0,0,0,0,0,0,0,0,0,0,0,0,0,0,0,0,0,0,0,0,0,0,0,0,0,0,0,0,0,0,0,0,0,0,0,0,0,0,0,0,0,0,0,0,0,0,0,0,0,0,0,0,0,0,0,0,0,0,0,0,0,0,0,0,0,0,0,0,0,0,0,0,0,0,0,0,0,0,0,0,0,0,0,0,0,0,0,0,0,0,0,0,0,0,0,0,0,0,0,0,0,0,0,0,0,0,0,0,0,0,0,0,0,0,0,0,0,0,0,0,0,0,0,0,0,0,0,0,0,0,0,0,0,0,0,0,0,0,0,0,0,0,0,0,0,0,0,0,0,0,0,0,0,0,0,0,0,0,0,0,0,0,0,0,0,0,0,0,0,0,0,0,0,0,0,0,0,0,0,0,0,0,0,0,0,0,0,0,0,0,0,0,0,0,0,0,0,0,0,0,0,0,0,0,0,0,0,0,0,0,0,0,0,0,0,0,0,0,0,0,0,0,0,0,0,0,0,0,0,0,0,0,0,0,0,0,0,0,0,0,0,0,0,0,0,0,0,0,0,0,0,0,0,0,0,0,0,0,0,0,0,0,0,0,0,0,0,0,0,0,0,0,0,0,0,0,0,0,0,0,0,0,0,0,0,0,0,0,0,0,0,0,0,0,0,0,0,0,0,0,0,0,0,0,0,0,0,0,0,0,0,0,0,0,0,0,0,0,0,0,0,0,0,0,0,0,0,0,0,0,0,0,0,0,0,0,0,0,0,0,0,0,0,0,0,0,0,0,0,0,0,0,0,0,0,0,0,0,0,0,0,0,0,0,0,0,0,0,0,0,0,0,0,0,0,0,0,0,0,0,0,0,0,0,0,0,0,0,0,0,0,0,0,0,0,0,0,0,0,0,0,0,0,0,0,0,0,0,0,0,0,0,0,0,0,0,0,0,0,0,0,0,0,0,0,0,0,0,0,0,0,0,0,0,0,0,0,0,0,0,0,0,0,0,0,0,0,0,0,0,0,0,0,0,0,0,0,0,0,0,0,0,0,0,0,0,0,0,0,0,0,0,0,0,0,0,0,0,0,0,0,0,0,0,0,0,0,0,0,0,0,0,0,0,0,0,0,0,0,0,0,0,0,0,0,0,0,0,0,0,0,0,0,0,0,0,0,0,0,0,0,0,0,0,0,0,0,0,0,0,0,0,0,0,0,0,0,0,0,0,0,0,0,0,0,0,0,0,0,0,0,0,0,0,0,0,0,0,0,0,0,0,0,0,0,0,0,0,0,0,0,0,0,0,0,0,0,0,0,0,0,0,0,0,0,0,0,0,0,0,0,0,0,0,0,0,0,0,0,0,0,0,0,0,0,0,0,0,0,0,0,0,0,0,0,0,0,0,0,0,0,0,0,0,0,0,0,0,0,0,0,0,0,0,0,0,0,0,0,0,0,0,0,0,0,0,0,0,0,0,0,0,0,0,0,0,0,0,0,0,0,0,0,0,0,0,0,0,0,0,0,0,0,0,0,0,0,0,0,0,0,0,0,0,0,0,0,0,0,0,0,0,0,0,0,0,0,0,0,0,0,0,0,0,0,0,0,0,0,0,0,0,0,0,0,0,0,0,0,0,0,0,0,0,0,0,0,0,0,0,0,0,0,0,0,0,0,0,0,0,0,0,0,0,0,0,0,0,0,0,0,0,0,0,0,0,0,0,0,0,0,0,0,0,0,0,0,0,0,0,0,0,0,0,0,0,0,0,0,0,0,0,0,0,0,0,0,0,0,0,0,0,0,0,0,0,0,0,0,0,0,0,0,0,0,0,0,0,0,0,0,0,0,0,0,0,0,0,0,0,0,0,0,0,0,0,0,0,0,0,0,0,0,0,0,0,0,0,0,0,0,0,0,0,0,0,0,0,0,0,0,0,0,0,0,0],"trees":[{"base_weights":[4.7496497E-3,-4.249569E-1,5.566475E-1,-6.9825363E-1,-3.656617E-2,1.5215914E-1,8.040486E-1,-4.2964125E-1,-1.0477157E0,3.11758E-1,-2.2264746E-1,3.5001796E-1,-2.5983557E-1,1.0703356E0,4.6520278E-1,-3.1942124E-3,-9.375884E-4,-6.4117275E-3,-4.6758456E-3,3.4825264E-3,3.6004148E-4,-1.782963E-3,9.7557646E-4,-8.115728E-4,2.980642E-3,-6.5861896E-5,-2.981934E-3,6.891806E-3,4.0813345E-3,4.352663E-3,1.1818656E-3],"categories":[],"categories_nodes":[],"categories_segments":[],"categories_sizes":[],"default_left":[0,0,0,0,0,0,0,0,0,0,0,0,0,0,0,0,0,0,0,0,0,0,0,0,0,0,0,0,0,0,0],"id":0,"left_children":[1,3,5,7,9,11,13,15,17,19,21,23,25,27,29,-1,-1,-1,-1,-1,-1,-1,-1,-1,-1,-1,-1,-1,-1,-1,-1],"loss_changes":[7.596416E2,1.9026184E2,1.3931921E2,9.708234E1,4.832464E1,4.3810486E1,7.635541E1,2.9429016E1,8.626862E0,2.3003725E1,2.7572163E1,4.6382126E1,1.370919E1,3.4561462E1,3.446331E1,0E0,0E0,0E0,0E0,0E0,0E0,0E0,0E0,0E0,0E0,0E0,0E0,0E0,0E0,0E0,0E0],"parents":[2147483647,0,0,1,1,2,2,3,3,4,4,5,5,6,6,7,7,8,8,9,9,10,10,11,11,12,12,13,13,14,14],"right_children":[2,4,6,8,10,12,14,16,18,20,22,24,26,28,30,-1,-1,-1,-1,-1,-1,-1,-1,-1,-1,-1,-1,-1,-1,-1,-1],"split_conditions":[6.9629306E-1,1.4871244E3,1.5189686E3,1.5532616E3,1.5303582E3,1.4836666E3,1.4899325E3,1.410203E3,2E0,2E0,1.6150505E3,1.4259845E3,3E0,2E0,2E0,-3.1942124E-3,-9.375884E-4,-6.4117275E-3,-4.6758456E-3,3.4825264E-3,3.6004148E-4,-1.782963E-3,9.7557646E-4,-8.115728E-4,2.980642E-3,-6.5861896E-5,-2.981934E-3,6.891806E-3,4.0813345E-3,4.352663E-3,1.1818656E-3],"split_indices":[67,3,3,1,4,1,1,3,33,57,3,3,57,33,57,0,0,0,0,0,0,0,0,0,0,0,0,0,0,0,0],"split_type":[0,0,0,0,0,0,0,0,0,0,0,0,0,0,0,0,0,0,0,0,0,0,0,0,0,0,0,0,0,0,0],"sum_hessian":[3.2006033E3,1.7986196E3,1.4019836E3,1.0537563E3,7.4486334E2,5.3421924E2,8.677644E2,5.98677E2,4.5507928E2,2.572568E2,4.876065E2,3.6264032E2,1.7157893E2,4.830457E2,3.8471872E2,3.1807928E2,2.8059772E2,1.412763E2,3.1380298E2,9.64304E1,1.6082642E2,3.7114746E2,1.1645902E2,1.1646672E2,2.461736E2,1.0132606E2,7.025287E1,2.1455925E2,2.6848642E2,1.3623283E2,2.4848587E2],"tree_param":{"num_deleted":"0","num_feature":"81","num_nodes":"31","size_leaf_vector":"1"}},{"base_weights":[-2.8463998E-3,-5.2531445E-1,6.2212986E-1,-9.449943E-1,-2.6787123E-1,4.0497807E-1,1.0584879E0,-1.2043515E0,-7.423029E-1,-4.660663E-1,-8.5493475E-2,2.7512538E-1,6.437681E-1,4.995083E-1,1.1367116E0,-2.1741774E-4,-6.0726935E-3,-3.927091E-3,-3.833932E-4,-3.103215E-3,-1.2979496E-3,1.0145544E-3,-9.057321E-4,1.7108491E-3,-4.1127692E-5,6.0779047E-3,2.5167027E-3,5.732073E-3,1.2128529E-3,7.926465E-3,4.9773185E-3],"categories":[],"categories_nodes":[],"categories_segments":[],"categories_sizes":[],"default_left":[0,0,0,0,0,0,0,0,0,0,0,0,0,0,0,0,0,0,0,0,0,0,0,0,0,0,0,0,0,0,0],"id":1,"left_children":[1,3,5,7,9,11,13,15,17,19,21,23,25,27,29,-1,-1,-1,-1,-1,-1,-1,-1,-1,-1,-1,-1,-1,-1,-1,-1],"loss_changes":[1.050837E3,1.8802939E2,1.3688855E2,3.21156E1,3.880536E1,2.9325241E1,1.8981873E1,2.0942688E0,9.926407E0,1.5537964E1,1.5779794E1,1.2494263E1,2.5141373E1,8.776756E0,2.2623047E1,0E0,0E0,0E0,0E0,0E0,0E0,0E0,0E0,0E0,0E0,0E0,0E0,0E0,0E0,0E0,0E0],"parents":[2147483647,0,0,1,1,2,2,3,3,4,4,5,5,6,6,7,7,8,8,9,9,10,10,11,11,12,12,13,13,14,14],"right_children":[2,4,6,8,10,12,14,16,18,20,22,24,26,28,30,-1,-1,-1,-1,-1,-1,-1,-1,-1,-1,-1,-1,-1,-1,-1,-1],"split_conditions":[6.509185E-1,4.6220964E-1,8.00529E-1,3.5219276E-1,5.632308E-1,5.05694E0,9E0,9.213731E1,1.6697631E0,4.9158883E-1,0E0,2.0804348E1,1E0,9.839093E1,1E0,-2.1741774E-4,-6.0726935E-3,-3.927091E-3,-3.833932E-4,-3.103215E-3,-1.2979496E-3,1.0145544E-3,-9.057321E-4,1.7108491E-3,-4.1127692E-5,6.0779047E-3,2.5167027E-3,5.732073E-3,1.2128529E-3,7.926465E-3,4.9773185E-3],"split_indices":[5,5,5,5,5,67,17,30,67,31,74,36,32,26,32,0,0,0,0,0,0,0,0,0,0,0,0,0,0,0,0],"split_type":[0,0,0,0,0,0,0,0,0,0,0,0,0,0,0,0,0,0,0,0,0,0,0,0,0,0,0,0,0,0,0],"sum_hessian":[3.2164893E3,1.7528772E3,1.4636119E3,6.6395435E2,1.0889229E3,9.8009265E2,4.835193E2,2.8693115E2,3.770232E2,5.184596E2,5.7046326E2,6.389664E2,3.4112634E2,6.183337E1,4.216859E2,3.3958259E0,2.835353E2,3.5250748E2,2.4515728E1,2.9257608E2,2.2588353E2,1.39196E2,4.3126727E2,5.19393E2,1.1957336E2,6.434398E1,2.7678235E2,1.5487017E1,4.634635E1,9.683855E1,3.2484735E2],"tree_param":{"num_deleted":"0","num_feature":"81","num_nodes":"31","size_leaf_vector":"1"}},{"base_weights":[-7.894183E-3,-4.649001E-1,4.014479E-1,-7.569654E-2,-8.4089625E-1,8.098634E-1,-9.481521E-4,-4.3792075E-1,2.3117545E-1,-1.0548333E0,-5.890838E-1,1.1630859E0,5.4761916E-1,-2.4004216E-1,2.7069706E-1,-3.1403394E-3,-1.3308608E-4,3.2160953E-3,5.188159E-4,-1.8863669E-3,-5.4542255E-3,-2.1853663E-3,-4.325132E-3,-9.579481E-4,6.063868E-3,5.1856623E-3,2.1027748E-3,-3.2892355E-3,-7.224708E-4,2.8766673E-3,2.2387141E-4],"categories":[],"categories_nodes":[],"categories_segments":[],"categories_sizes":[],"default_left":[0,0,0,0,0,0,0,0,0,0,0,0,0,0,0,0,0,0,0,0,0,0,0,0,0,0,0,0,0,0,0],"id":2,"left_children":[1,3,5,7,9,11,13,15,17,19,21,23,25,27,29,-1,-1,-1,-1,-1,-1,-1,-1,-1,-1,-1,-1,-1,-1,-1,-1],"loss_changes":[6.038019E2,2.2233646E2,2.8040765E2,8.3925156E1,3.947345E1,7.597748E1,5.567755E1,2.6454971E1,2.0521988E1,8.258057E0,1.3432892E1,2.5335388E1,2.850882E1,1.739221E1,2.6854507E1,0E0,0E0,0E0,0E0,0E0,0E0,0E0,0E0,0E0,0E0,0E0,0E0,0E0,0E0,0E0,0E0],"parents":[2147483647,0,0,1,1,2,2,3,3,4,4,5,5,6,6,7,7,8,8,9,9,10,10,11,11,12,12,13,13,14,14],"right_children":[2,4,6,8,10,12,14,16,18,20,22,24,26,28,30,-1,-1,-1,-1,-1,-1,-1,-1,-1,-1,-1,-1,-1,-1,-1,-1],"split_conditions":[1.4965782E3,1.5080579E3,1.5150801E3,1.416216E3,1.4313331E3,2E0,1.5851642E3,8.5568416E-1,1.3766152E3,3E0,5.375444E-1,4.16E-1,2.857143E-1,-6.9064193E0,5.217391E-1,-3.1403394E-3,-1.3308608E-4,3.2160953E-3,5.188159E-4,-1.8863669E-3,-5.4542255E-3,-2.1853663E-3,-4.325132E-3,-9.579481E-4,6.063868E-3,5.1856623E-3,2.1027748E-3,-3.2892355E-3,-7.224708E-4,2.8766673E-3,2.2387141E-4],"split_indices":[3,1,1,0,0,33,3,68,1,17,55,20,48,68,16,0,0,0,0,0,0,0,0,0,0,0,0,0,0,0,0],"split_type":[0,0,0,0,0,0,0,0,0,0,0,0,0,0,0,0,0,0,0,0,0,0,0,0,0,0,0,0,0,0,0],"sum_hessian":[3.225312E3,1.5250227E3,1.7002893E3,7.5124744E2,7.737752E2,8.44564E2,8.557253E2,3.4584824E2,4.0539917E2,4.1447867E2,3.5929654E2,3.567718E2,4.877922E2,4.5715164E2,3.9857364E2,2.3448611E2,1.1136214E2,9.2939995E1,3.124592E2,2.2898087E1,3.915806E2,2.356759E2,1.2362063E2,1.1809792E1,3.44962E2,9.742628E1,3.9036594E2,8.204418E1,3.7510745E2,1.6717729E2,2.3139633E2],"tree_param":{"num_deleted":"0","num_feature":"81","num_nodes":"31","size_leaf_vector":"1"}},{"base_weights":[-3.9591305E-3,-6.473899E-1,4.6907112E-1,-1.108766E0,-4.7785473E-1,1.7807835E-1,8.567948E-1,-1.131112E0,-0E0,-6.676199E-1,-3.3040905E-1,6.1811304E-1,9.1945074E-2,1.1633172E0,6.2156254E-1,-5.7416824E-3,-0E0,1.5094721E-3,-1.0931616E-3,-9.908109E-4,-3.604517E-3,-3.3093484E-3,-1.0622604E-3,-4.2625383E-4,3.7237178E-3,-4.3697568E-4,9.914011E-4,4.217246E-3,7.112665E-3,3.5639033E-3,6.295838E-4],"categories":[],"categories_nodes":[],"categories_segments":[],"categories_sizes":[],"default_left":[0,0,0,0,0,0,0,0,0,0,0,0,0,0,0,0,0,0,0,0,0,0,0,0,0,0,0,0,0,0,0],"id":3,"left_children":[1,3,5,7,9,11,13,15,17,19,21,23,25,27,29,-1,-1,-1,-1,-1,-1,-1,-1,-1,-1,-1,-1,-1,-1,-1,-1],"loss_changes":[9.814159E2,1.0479584E2,2.083386E2,9.643677E0,2.6842056E1,3.9545982E1,5.4776733E1,7.3163147E0,6.21129E-1,9.808441E0,2.124422E1,1.6045975E1,1.7149876E1,2.4888641E1,1.9575272E1,0E0,0E0,0E0,0E0,0E0,0E0,0E0,0E0,0E0,0E0,0E0,0E0,0E0,0E0,0E0,0E0],"parents":[2147483647,0,0,1,1,2,2,3,3,4,4,5,5,6,6,7,7,8,8,9,9,10,10,11,11,12,12,13,13,14,14],"right_children":[2,4,6,8,10,12,14,16,18,20,22,24,26,28,30,-1,-1,-1,-1,-1,-1,-1,-1,-1,-1,-1,-1,-1,-1,-1,-1],"split_conditions":[-3.6476917E1,-1.8397867E2,8.9919205E1,1.8346472E0,-3.4596996E0,1E0,2E0,4.473248E0,5E-1,-2.125926E1,-1.2384642E2,-6.110805E0,6.7741604E0,1.6120296E2,1.085E2,-5.7416824E-3,-0E0,1.5094721E-3,-1.0931616E-3,-9.908109E-4,-3.604517E-3,-3.3093484E-3,-1.0622604E-3,-4.2625383E-4,3.7237178E-3,-4.3697568E-4,9.914011E-4,4.217246E-3,7.112665E-3,3.5639033E-3,6.295838E-4],"split_indices":[66,66,66,67,27,56,33,27,75,79,66,68,66,66,42,0,0,0,0,0,0,0,0,0,0,0,0,0,0,0,0],"split_type":[0,0,0,0,0,0,0,0,0,0,0,0,0,0,0,0,0,0,0,0,0,0,0,0,0,0,0,0,0,0,0],"sum_hessian":[3.2219165E3,1.3658243E3,1.8560922E3,3.6394342E2,1.00188086E3,1.0626185E3,7.9347363E2,3.5720395E2,6.7394943E0,4.335651E2,5.6831573E2,1.7103822E2,8.915803E2,3.409708E2,4.5250284E2,3.520869E2,5.1170254E0,3.6926544E0,3.0468402E0,4.658779E1,3.8697733E2,1.4572832E2,4.2258743E2,2.4939981E1,1.4609824E2,3.2843323E2,5.631471E2,1.5626012E2,1.8471066E2,3.800949E2,7.240793E1],"tree_param":{"num_deleted":"0","num_feature":"81","num_nodes":"31","size_leaf_vector":"1"}},{"base_weights":[6.7636035E-3,-4.284876E-1,5.288544E-1,-7.945187E-1,-1.9199926E-1,2.875727E-1,8.971197E-1,-9.446752E-1,-5.0416285E-1,-7.9625065E-4,-3.3322114E-1,4.4089124E-1,3.741164E-2,1.2496628E0,6.340524E-1,-2.6135477E-3,-5.28163E-3,-2.8253284E-3,1.2837648E-3,2.4992384E-3,-4.8825145E-4,-2.4708859E-3,1.10712186E-4,3.5079052E-3,1.453037E-3,-2.0877195E-3,8.7610853E-4,7.084858E-3,3.8750581E-3,2.5569897E-3,5.2209888E-3],"categories":[],"categories_nodes":[],"categories_segments":[],"categories_sizes":[],"default_left":[0,0,0,0,0,0,0,0,0,0,0,0,0,0,0,0,0,0,0,0,0,0,0,0,0,0,0,0,0,0,0],"id":4,"left_children":[1,3,5,7,9,11,13,15,17,19,21,23,25,27,29,-1,-1,-1,-1,-1,-1,-1,-1,-1,-1,-1,-1,-1,-1,-1,-1],"loss_changes":[7.327877E2,1.5097995E2,1.2890347E2,2.8061096E1,2.857312E1,3.3616905E1,5.0981018E1,1.9065796E1,1.1522411E1,2.1894077E1,3.5531143E1,2.0306679E1,2.1243826E1,1.6132751E1,1.4761902E1,0E0,0E0,0E0,0E0,0E0,0E0,0E0,0E0,0E0,0E0,0E0,0E0,0E0,0E0,0E0,0E0],"parents":[2147483647,0,0,1,1,2,2,3,3,4,4,5,5,6,6,7,7,8,8,9,9,10,10,11,11,12,12,13,13,14,14],"right_children":[2,4,6,8,10,12,14,16,18,20,22,24,26,28,30,-1,-1,-1,-1,-1,-1,-1,-1,-1,-1,-1,-1,-1,-1,-1,-1],"split_conditions":[4.1508472E-1,-7.4313073E0,7.340306E0,3.6842105E-1,1.5128455E3,1.5150801E3,2E0,1.4988502E3,1.1139402E2,1E0,5.121951E-1,2E0,3.8709676E-1,1.4889021E3,1.0127669E-1,-2.6135477E-3,-5.28163E-3,-2.8253284E-3,1.2837648E-3,2.4992384E-3,-4.8825145E-4,-2.4708859E-3,1.10712186E-4,3.5079052E-3,1.453037E-3,-2.0877195E-3,8.7610853E-4,7.084858E-3,3.8750581E-3,2.5569897E-3,5.2209888E-3],"split_indices":[67,67,67,13,1,1,33,1,25,56,13,33,13,1,76,0,0,0,0,0,0,0,0,0,0,0,0,0,0,0,0],"split_type":[0,0,0,0,0,0,0,0,0,0,0,0,0,0,0,0,0,0,0,0,0,0,0,0,0,0,0,0,0,0,0],"sum_hessian":[3.222282E3,1.7563394E3,1.4659426E3,6.8677576E2,1.0695635E3,8.8838367E2,5.77559E2,4.4892056E2,2.3785522E2,4.5781104E2,6.117525E2,5.478549E2,3.405288E2,2.4357986E2,3.3397913E2,9.699232E1,3.5192825E2,2.2168352E2,1.6171703E1,7.186276E1,3.8594827E2,4.227144E2,1.8903809E2,1.9656352E2,3.5129135E2,7.700947E1,2.6351932E2,1.7707195E2,6.650791E1,2.6070117E2,7.327796E1],"tree_param":{"num_deleted":"0","num_feature":"81","num_nodes":"31","size_leaf_vector":"1"}},{"base_weights":[2.604375E-2,-4.9513203E-1,6.473708E-1,-9.0774E-1,-2.3210104E-1,4.6377462E-1,1.1416105E0,-1.1749978E0,-7.4343586E-1,-5.930728E-1,-1.1990325E-1,3.2538125E-1,6.819621E-1,7.680048E-1,1.2704486E0,-5.9606805E-3,-1.3049564E-3,-3.992647E-3,1.0958129E-4,-3.8240012E-3,-1.6514334E-3,-1.4665276E-3,2.2103153E-4,1.9831846E-3,-9.023259E-5,-8.8784896E-4,3.5888024E-3,6.1045133E-4,4.6543456E-3,5.122592E-4,6.534172E-3],"categories":[],"categories_nodes":[],"categories_segments":[],"categories_sizes":[],"default_left":[0,0,0,0,0,0,0,0,0,0,0,0,0,0,0,0,0,0,0,0,0,0,0,0,0,0,0,0,0,0,0],"id":5,"left_children":[1,3,5,7,9,11,13,15,17,19,21,23,25,27,29,-1,-1,-1,-1,-1,-1,-1,-1,-1,-1,-1,-1,-1,-1,-1,-1],"loss_changes":[1.0375172E3,1.8763278E2,1.3054657E2,2.6895996E1,4.2398716E1,3.1059555E1,1.5945496E1,2.2044983E0,1.8660934E1,9.954918E0,2.3505077E1,1.6512749E1,1.3323242E1,9.933804E0,1.0754547E1,0E0,0E0,0E0,0E0,0E0,0E0,0E0,0E0,0E0,0E0,0E0,0E0,0E0,0E0,0E0,0E0],"parents":[2147483647,0,0,1,1,2,2,3,3,4,4,5,5,6,6,7,7,8,8,9,9,10,10,11,11,12,12,13,13,14,14],"right_children":[2,4,6,8,10,12,14,16,18,20,22,24,26,28,30,-1,-1,-1,-1,-1,-1,-1,-1,-1,-1,-1,-1,-1,-1,-1,-1],"split_conditions":[6.5531178E0,-1.2341769E2,1.6044733E2,-2.1335315E2,-5.2573934E0,8.7858696E1,6.2823E0,6.666667E-1,2.090557E0,-2.5168955E0,-5.0954487E1,1.5041051E0,-7.4226217E0,8E0,9.2E1,-5.9606805E-3,-1.3049564E-3,-3.992647E-3,1.0958129E-4,-3.8240012E-3,-1.6514334E-3,-1.4665276E-3,2.2103153E-4,1.9831846E-3,-9.023259E-5,-8.8784896E-4,3.5888024E-3,6.1045133E-4,4.6543456E-3,5.122592E-4,6.534172E-3],"split_indices":[2,2,2,2,27,2,67,23,67,68,66,79,27,17,18,0,0,0,0,0,0,0,0,0,0,0,0,0,0,0,0],"split_type":[0,0,0,0,0,0,0,0,0,0,0,0,0,0,0,0,0,0,0,0,0,0,0,0,0,0,0,0,0,0,0],"sum_hessian":[3.2015276E3,1.7403213E3,1.4612064E3,6.75085E2,1.0652362E3,1.0683179E3,3.9288855E2,2.5235907E2,4.2272595E2,2.4945874E2,8.157775E2,6.580195E2,4.1029834E2,1.0452085E2,2.883677E2,2.4634158E2,6.017484E0,3.9551797E2,2.7207985E1,1.4741144E2,1.02047295E2,3.992384E2,4.165391E2,5.4723413E2,1.1078533E2,1.5129905E1,3.9516843E2,2.263619E1,8.188466E1,9.657501E0,2.787102E2],"tree_param":{"num_deleted":"0","num_feature":"81","num_nodes":"31","size_leaf_vector":"1"}},{"base_weights":[1.4179832E-3,-5.039504E-1,6.0951823E-1,-8.164281E-1,-2.1889429E-1,3.7905237E-1,1.075928E0,-1.1312984E0,-6.78245E-1,-3.5701442E-1,-9.299585E-3,5.918269E-1,2.5686404E-1,1.3396808E0,8.4782636E-1,-5.765426E-3,-1.0597511E-3,-3.6338388E-3,-1.2311826E-3,-2.494947E-3,-9.1195107E-4,-5.239526E-4,1.1352883E-3,4.2542283E-4,3.529885E-3,1.39807E-3,-2.3576054E-3,-0E0,6.9561643E-3,3.01105E-3,5.2621746E-3],"categories":[],"categories_nodes":[],"categories_segments":[],"categories_sizes":[],"default_left":[0,0,0,0,0,0,0,0,0,0,0,0,0,0,0,0,0,0,0,0,0,0,0,0,0,0,0,0,0,0,0],"id":6,"left_children":[1,3,5,7,9,11,13,15,17,19,21,23,25,27,29,-1,-1,-1,-1,-1,-1,-1,-1,-1,-1,-1,-1,-1,-1,-1,-1],"loss_changes":[9.783197E2,1.5355115E2,1.5352771E2,3.3398743E1,2.6022121E1,2.4231018E1,2.532019E1,3.3676453E0,1.0992615E1,1.2779648E1,8.162879E0,1.9410141E1,1.0234245E1,1.4710388E1,1.0781082E1,0E0,0E0,0E0,0E0,0E0,0E0,0E0,0E0,0E0,0E0,0E0,0E0,0E0,0E0,0E0,0E0],"parents":[2147483647,0,0,1,1,2,2,3,3,4,4,5,5,6,6,7,7,8,8,9,9,10,10,11,11,12,12,13,13,14,14],"right_children":[2,4,6,8,10,12,14,16,18,20,22,24,26,28,30,-1,-1,-1,-1,-1,-1,-1,-1,-1,-1,-1,-1,-1,-1,-1,-1],"split_conditions":[6.509185E-1,4.9889672E-1,8.00529E-1,3.4066907E-1,-7.167478E-1,2E0,2E0,3E0,8.045755E-1,5.064443E-1,2.085082E-2,6.7773324E-1,1.6420605E3,-2.11944E0,4E1,-5.765426E-3,-1.0597511E-3,-3.6338388E-3,-1.2311826E-3,-2.494947E-3,-9.1195107E-4,-5.239526E-4,1.1352883E-3,4.2542283E-4,3.529885E-3,1.39807E-3,-2.3576054E-3,-0E0,6.9561643E-3,3.01105E-3,5.2621746E-3],"split_indices":[5,5,5,5,67,33,33,73,67,9,11,5,4,67,14,0,0,0,0,0,0,0,0,0,0,0,0,0,0,0,0],"split_type":[0,0,0,0,0,0,0,0,0,0,0,0,0,0,0,0,0,0,0,0,0,0,0,0,0,0,0,0,0,0,0],"sum_hessian":[3.1811035E3,1.7364962E3,1.4446074E3,8.258402E2,9.10656E2,9.69505E2,4.7510236E2,2.474853E2,5.783549E2,5.456231E2,3.6503287E2,3.492702E2,6.202348E2,2.1603955E2,2.590628E2,2.4044524E2,7.040059E0,5.1725977E2,6.109516E1,2.9676205E2,2.4886105E2,2.6340277E2,1.016301E2,6.614425E1,2.8312595E2,6.033783E2,1.685654E1,8.18656E0,2.07853E2,1.2174647E2,1.3731635E2],"tree_param":{"num_deleted":"0","num_feature":"81","num_nodes":"31","size_leaf_vector":"1"}},{"base_weights":[3.4597963E-3,-5.2625084E-1,6.199945E-1,-9.573807E-1,-2.565875E-1,4.347158E-1,1.0765666E0,-1.1852403E0,-7.3913574E-1,5.252032E-2,-4.0904537E-1,7.706293E-1,2.5029615E-1,1.367887E0,8.0430514E-1,-6.40841E-3,-3.4345475E-3,-3.2698363E-3,-5.7636243E-3,-1.8386982E-3,1.1746231E-3,-2.8033932E-3,-1.494864E-3,2.1663422E-3,4.584245E-3,5.5998133E-4,2.157068E-3,3.7610286E-3,7.3107197E-3,1.6959679E-3,4.749581E-3],"categories":[],"categories_nodes":[],"categories_segments":[],"categories_sizes":[],"default_left":[0,0,0,0,0,0,0,0,0,0,0,0,0,0,0,0,0,0,0,0,0,0,0,0,0,0,0,0,0,0,0],"id":7,"left_children":[1,3,5,7,9,11,13,15,17,19,21,23,25,27,29,-1,-1,-1,-1,-1,-1,-1,-1,-1,-1,-1,-1,-1,-1,-1,-1],"loss_changes":[1.0502731E3,1.9952322E2,1.2380243E2,3.0190918E1,5.062918E1,6.45094E1,3.0593536E1,1.2561981E1,9.548248E0,2.6854929E1,1.092968E1,1.6682678E1,1.6649372E1,8.470337E0,1.3620834E1,0E0,0E0,0E0,0E0,0E0,0E0,0E0,0E0,0E0,0E0,0E0,0E0,0E0,0E0,0E0,0E0],"parents":[2147483647,0,0,1,1,2,2,3,3,4,4,5,5,6,6,7,7,8,8,9,9,10,10,11,11,12,12,13,13,14,14],"right_children":[2,4,6,8,10,12,14,16,18,20,22,24,26,28,30,-1,-1,-1,-1,-1,-1,-1,-1,-1,-1,-1,-1,-1,-1,-1,-1],"split_conditions":[6.4899886E-1,4.6573603E-1,8.11665E-1,3.6647922E-1,2E0,2E0,2E0,2.022388E1,2.177381E1,-6.3024445E0,5.529633E-1,6.9497573E-1,7.3575443E-1,3.0734854E0,1.04259636E2,-6.40841E-3,-3.4345475E-3,-3.2698363E-3,-5.7636243E-3,-1.8386982E-3,1.1746231E-3,-2.8033932E-3,-1.494864E-3,2.1663422E-3,4.584245E-3,5.5998133E-4,2.157068E-3,3.7610286E-3,7.3107197E-3,1.6959679E-3,4.749581E-3],"split_indices":[5,5,5,5,57,57,33,60,36,67,5,5,5,67,53,0,0,0,0,0,0,0,0,0,0,0,0,0,0,0,0],"split_type":[0,0,0,0,0,0,0,0,0,0,0,0,0,0,0,0,0,0,0,0,0,0,0,0,0,0,0,0,0,0,0],"sum_hessian":[3.2136394E3,1.727737E3,1.4859025E3,6.624203E2,1.0653168E3,1.0599237E3,4.2597873E2,3.196625E2,3.427578E2,3.4993042E2,7.1538635E2,3.7261618E2,6.873075E2,2.0206822E2,2.2391052E2,2.648312E2,5.4831306E1,2.8837347E2,5.4384346E1,1.0394424E2,2.4598618E2,2.9534613E2,4.2004022E2,1.15933815E2,2.5668237E2,3.9376855E2,2.935389E2,2.9429056E1,1.7263916E2,5.5816925E1,1.680936E2],"tree_param":{"num_deleted":"0","num_feature":"81","num_nodes":"31","size_leaf_vector":"1"}},{"base_weights":[2.2275984E-2,-4.9969766E-1,6.3088405E-1,-9.788605E-1,-2.735422E-1,4.1538265E-1,1.0685831E0,-1.1998643E0,-7.461435E-1,-4.5911193E-1,-6.768552E-2,7.7536035E-1,2.1887077E-1,1.3923115E0,7.921761E-1,-6.074374E-3,-0E0,-3.8183895E-3,-0E0,-3.1476961E-3,-8.4260735E-4,1.2252283E-3,-1.0943129E-3,4.0953904E-3,-3.7592049E-3,-4.2486383E-4,1.3386428E-3,1.513775E-4,7.2048744E-3,4.216205E-3,-3.1366828E-4],"categories":[],"categories_nodes":[],"categories_segments":[],"categories_sizes":[],"default_left":[0,0,0,0,0,0,0,0,0,0,0,0,0,0,0,0,0,0,0,0,0,0,0,0,0,0,0,0,0,0,0],"id":8,"left_children":[1,3,5,7,9,11,13,15,17,19,21,23,25,27,29,-1,-1,-1,-1,-1,-1,-1,-1,-1,-1,-1,-1,-1,-1,-1,-1],"loss_changes":[1.00911426E3,1.836644E2,1.3646924E2,2.5247375E1,4.389839E1,6.8609726E1,3.9833252E1,4.4881287E0,4.0852356E0,2.9271484E1,2.6287733E1,2.3791641E1,9.724596E0,1.2998352E1,1.2355728E1,0E0,0E0,0E0,0E0,0E0,0E0,0E0,0E0,0E0,0E0,0E0,0E0,0E0,0E0,0E0,0E0],"parents":[2147483647,0,0,1,1,2,2,3,3,4,4,5,5,6,6,7,7,8,8,9,9,10,10,11,11,12,12,13,13,14,14],"right_children":[2,4,6,8,10,12,14,16,18,20,22,24,26,28,30,-1,-1,-1,-1,-1,-1,-1,-1,-1,-1,-1,-1,-1,-1,-1,-1],"split_conditions":[6.4899886E-1,4.3756038E-1,8.00529E-1,3.5219276E-1,5.6112397E-1,2E0,2E0,5.353213E-1,4.0165573E-2,4.9583694E-1,2E0,9E0,1E0,9.830933E1,5E0,-6.074374E-3,-0E0,-3.8183895E-3,-0E0,-3.1476961E-3,-8.4260735E-4,1.2252283E-3,-1.0943129E-3,4.0953904E-3,-3.7592049E-3,-4.2486383E-4,1.3386428E-3,1.513775E-4,7.2048744E-3,4.216205E-3,-3.1366828E-4],"split_indices":[5,5,5,5,5,57,33,31,11,31,57,61,34,25,57,0,0,0,0,0,0,0,0,0,0,0,0,0,0,0,0],"split_type":[0,0,0,0,0,0,0,0,0,0,0,0,0,0,0,0,0,0,0,0,0,0,0,0,0,0,0,0,0,0,0],"sum_hessian":[3.1741326E3,1.7078921E3,1.4662404E3,5.451388E2,1.1627533E3,9.8534094E2,4.8089948E2,2.7527045E2,2.6986838E2,6.0830664E2,5.5444666E2,3.45114E2,6.402269E2,2.179643E2,2.629352E2,2.715265E2,3.743962E0,2.6457748E2,5.290893E0,3.805258E2,2.2778084E2,1.7832352E2,3.7612317E2,3.3659705E2,8.516984E0,8.574948E1,5.544774E2,8.283708E0,2.0968059E2,2.4923161E2,1.370358E1],"tree_param":{"num_deleted":"0","num_feature":"81","num_nodes":"31","size_leaf_vector":"1"}},{"base_weights":[-1.3365672E-3,-5.273393E-1,6.216919E-1,-8.525308E-1,-2.2381532E-1,3.9769018E-1,1.0749063E0,-1.2483691E0,-7.224582E-1,-4.484286E-1,-6.510423E-2,2.5559166E-1,5.6671536E-1,8.827625E-1,1.3475773E0,-0E0,-6.438924E-3,-3.2042116E-3,-5.070636E-3,-3.5611393E-3,-1.4282562E-3,-1.4794082E-3,2.3245135E-4,1.686986E-3,-3.36334E-4,3.0372457E-3,-1.1623517E-3,1.617312E-3,5.0597745E-3,7.038234E-3,2.0087373E-3],"categories":[],"categories_nodes":[],"categories_segments":[],"categories_sizes":[],"default_left":[0,0,0,0,0,0,0,0,0,0,0,0,0,0,0,0,0,0,0,0,0,0,0,0,0,0,0,0,0,0,0],"id":9,"left_children":[1,3,5,7,9,11,13,15,17,19,21,23,25,27,29,-1,-1,-1,-1,-1,-1,-1,-1,-1,-1,-1,-1,-1,-1,-1,-1],"loss_changes":[1.054147E3,1.7098657E2,1.4751654E2,4.0406067E1,3.1740707E1,2.2763504E1,2.1977417E1,1.0980591E1,1.2857483E1,1.4780075E1,1.402648E1,1.4602764E1,1.5075058E1,1.9249924E1,8.780029E0,0E0,0E0,0E0,0E0,0E0,0E0,0E0,0E0,0E0,0E0,0E0,0E0,0E0,0E0,0E0,0E0],"parents":[2147483647,0,0,1,1,2,2,3,3,4,4,5,5,6,6,7,7,8,8,9,9,10,10,11,11,12,12,13,13,14,14],"right_children":[2,4,6,8,10,12,14,16,18,20,22,24,26,28,30,-1,-1,-1,-1,-1,-1,-1,-1,-1,-1,-1,-1,-1,-1,-1,-1],"split_conditions":[6.5531178E0,-1.0034011E2,1.413989E2,-2.3105414E2,-5.234219E1,6.9601524E1,2.1981474E2,3.4615386E-1,2.09E1,-3.4596996E0,0E0,2.0044945E1,2.6652174E1,1.2E1,2.6E1,-0E0,-6.438924E-3,-3.2042116E-3,-5.070636E-3,-3.5611393E-3,-1.4282562E-3,-1.4794082E-3,2.3245135E-4,1.686986E-3,-3.36334E-4,3.0372457E-3,-1.1623517E-3,1.617312E-3,5.0597745E-3,7.038234E-3,2.0087373E-3],"split_indices":[2,2,66,2,66,66,66,16,36,27,77,36,36,17,36,0,0,0,0,0,0,0,0,0,0,0,0,0,0,0,0],"split_type":[0,0,0,0,0,0,0,0,0,0,0,0,0,0,0,0,0,0,0,0,0,0,0,0,0,0,0,0,0,0,0],"sum_hessian":[3.2149487E3,1.7441652E3,1.4707834E3,8.395641E2,9.046011E2,9.8702783E2,4.837556E2,2.0362004E2,6.3594403E2,3.7117523E2,5.3342584E2,5.408048E2,4.4622305E2,2.8841928E2,1.953363E2,5.7128386E0,1.9790721E2,5.020768E2,1.338672E2,1.3800446E2,2.3317078E2,1.7625015E2,3.571757E2,4.3391275E2,1.0689203E2,4.260013E2,2.0221743E1,5.6230427E1,2.3218887E2,1.8221811E2,1.3118192E1],"tree_param":{"num_deleted":"0","num_feature":"81","num_nodes":"31","size_leaf_vector":"1"}},{"base_weights":[6.688434E-3,-7.0497686E-1,4.4667155E-1,-9.619345E-1,-4.221268E-1,1.5110281E-1,8.867385E-1,-1.1299114E0,-7.806325E-1,-5.5896103E-1,-1.8462726E-1,5.2955806E-2,3.6761662E-1,1.2694826E0,7.6299673E-1,-5.764223E-3,-9.1999857E-4,-3.000765E-3,-4.4671474E-3,7.8005047E-4,-2.9306673E-3,-1.8567273E-3,5.1413936E-4,1.4703642E-3,-1.3141026E-4,3.7587946E-3,1.4291919E-3,4.741559E-3,7.5712125E-3,-1.231447E-3,3.963839E-3],"categories":[],"categories_nodes":[],"categories_segments":[],"categories_sizes":[],"default_left":[0,0,0,0,0,0,0,0,0,0,0,0,0,0,0,0,0,0,0,0,0,0,0,0,0,0,0,0,0,0,0],"id":10,"left_children":[1,3,5,7,9,11,13,15,17,19,21,23,25,27,29,-1,-1,-1,-1,-1,-1,-1,-1,-1,-1,-1,-1,-1,-1,-1,-1],"loss_changes":[9.986786E2,8.6731995E1,2.5536435E2,1.656305E1,1.811277E1,2.4686518E1,3.445587E1,5.4969788E0,4.316742E0,7.6511154E0,1.1976479E1,1.5902955E1,1.0228424E1,1.1017029E1,1.8834381E1,0E0,0E0,0E0,0E0,0E0,0E0,0E0,0E0,0E0,0E0,0E0,0E0,0E0,0E0,0E0,0E0],"parents":[2147483647,0,0,1,1,2,2,3,3,4,4,5,5,6,6,7,7,8,8,9,9,10,10,11,11,12,12,13,13,14,14],"right_children":[2,4,6,8,10,12,14,16,18,20,22,24,26,28,30,-1,-1,-1,-1,-1,-1,-1,-1,-1,-1,-1,-1,-1,-1,-1,-1],"split_conditions":[-5.0776394E1,-1.2995888E2,8.942517E1,-1.9362924E2,4.9750668E-1,4.1310074E1,1E0,5.287693E-1,7.00111E-2,1.3890778E3,1E0,0E0,1E0,2.2E0,-7.4226217E0,-5.764223E-3,-9.1999857E-4,-3.000765E-3,-4.4671474E-3,7.8005047E-4,-2.9306673E-3,-1.8567273E-3,5.1413936E-4,1.4703642E-3,-1.3141026E-4,3.7587946E-3,1.4291919E-3,4.741559E-3,7.5712125E-3,-1.231447E-3,3.963839E-3],"split_indices":[2,2,2,2,31,2,32,31,40,4,77,74,32,72,27,0,0,0,0,0,0,0,0,0,0,0,0,0,0,0,0],"split_type":[0,0,0,0,0,0,0,0,0,0,0,0,0,0,0,0,0,0,0,0,0,0,0,0,0,0,0,0,0,0,0],"sum_hessian":[3.1882559E3,1.2169633E3,1.9712926E3,6.345575E2,5.8240576E2,1.1814161E3,7.8987646E2,3.238041E2,3.1075336E2,3.6598257E2,2.1642319E2,8.169507E2,3.6446545E2,1.8874161E2,6.011349E2,3.1489368E2,8.910446E0,1.2535951E2,1.8539386E2,1.1878837E1,3.5410376E2,1.3313289E2,8.329029E1,2.0451877E2,6.1243195E2,6.0386593E1,3.0407886E2,8.55042E1,1.032374E2,1.605292E1,5.85082E2],"tree_param":{"num_deleted":"0","num_feature":"81","num_nodes":"31","size_leaf_vector":"1"}},{"base_weights":[-0E0,-5.1314414E-1,6.049177E-1,-9.567816E-1,-2.8938827E-1,4.2214602E-1,1.0971755E0,-1.1700794E0,-7.8117484E-1,-2.3461912E-2,-4.2402327E-1,6.223115E-1,1.1840106E-1,1.2768965E0,7.568026E-1,-6.5967934E-3,-4.935478E-3,-5.2976276E-4,-4.166955E-3,-2.0247835E-3,7.319453E-4,-2.950498E-3,-1.18774E-3,3.4882196E-3,1.0691348E-3,1.0303324E-3,-1.2396593E-3,-0E0,6.533564E-3,-2.671905E-4,4.5328895E-3],"categories":[],"categories_nodes":[],"categories_segments":[],"categories_sizes":[],"default_left":[0,0,0,0,0,0,0,0,0,0,0,0,0,0,0,0,0,0,0,0,0,0,0,0,0,0,0,0,0,0,0],"id":11,"left_children":[1,3,5,7,9,11,13,15,17,19,21,23,25,27,29,-1,-1,-1,-1,-1,-1,-1,-1,-1,-1,-1,-1,-1,-1,-1,-1],"loss_changes":[9.9124066E2,1.7004327E2,1.2983911E2,1.8766785E1,4.078099E1,6.4335556E1,2.113855E1,3.3894348E0,1.0336868E1,2.5634026E1,2.2634247E1,1.8747116E1,1.3782227E1,1.0770569E1,1.7980278E1,0E0,0E0,0E0,0E0,0E0,0E0,0E0,0E0,0E0,0E0,0E0,0E0,0E0,0E0,0E0,0E0],"parents":[2147483647,0,0,1,1,2,2,3,3,4,4,5,5,6,6,7,7,8,8,9,9,10,10,11,11,12,12,13,13,14,14],"right_children":[2,4,6,8,10,12,14,16,18,20,22,24,26,28,30,-1,-1,-1,-1,-1,-1,-1,-1,-1,-1,-1,-1,-1,-1,-1,-1],"split_conditions":[6.5531178E0,-1.3915564E2,1.6044733E2,-2.1335315E2,2E0,3E0,3E0,-6.17157E0,-2.2892857E1,-4.2025213E0,-5.3872772E1,3.8762238E0,1.096E2,-6.092528E0,1.0294182E2,-6.5967934E-3,-4.935478E-3,-5.2976276E-4,-4.166955E-3,-2.0247835E-3,7.319453E-4,-2.950498E-3,-1.18774E-3,3.4882196E-3,1.0691348E-3,1.0303324E-3,-1.2396593E-3,-0E0,6.533564E-3,-2.671905E-4,4.5328895E-3],"split_indices":[2,2,2,2,57,57,57,27,79,27,2,79,42,27,25,0,0,0,0,0,0,0,0,0,0,0,0,0,0,0,0],"split_type":[0,0,0,0,0,0,0,0,0,0,0,0,0,0,0,0,0,0,0,0,0,0,0,0,0,0,0,0,0,0,0],"sum_hessian":[3.191501E3,1.7273407E3,1.4641604E3,5.765259E2,1.1508148E3,1.0705588E3,3.9360153E2,2.5519734E2,3.2132852E2,3.8969827E2,7.611165E2,6.4269025E2,4.2786862E2,2.5386714E2,1.3973439E2,1.3411235E2,1.2108499E2,2.4657389E1,2.9667114E2,1.2144017E2,2.682581E2,3.985964E2,3.6252014E2,5.3995593E2,1.0273433E2,3.478044E2,8.006422E1,5.190532E0,2.486766E2,2.0859123E1,1.1887527E2],"tree_param":{"num_deleted":"0","num_feature":"81","num_nodes":"31","size_leaf_vector":"1"}},{"base_weights":[-7.640251E-3,-5.245163E-1,5.9559876E-1,-9.697405E-1,-3.1332347E-1,3.8216034E-1,1.0327332E0,-1.0874982E0,-7.402938E-1,-4.9621716E-1,-1.1139806E-1,4.4962484E-1,-8.525652E-2,1.113258E0,5.224816E-1,-5.557936E-3,-7.97986E-4,-4.0437235E-3,-0E0,-2.8168315E-3,-5.2673457E-4,1.8455636E-3,-8.226072E-4,4.271789E-3,1.8485751E-3,5.3561793E-4,-1.3810978E-3,4.529082E-3,6.574782E-3,-2.2532684E-3,3.0181822E-3],"categories":[],"categories_nodes":[],"categories_segments":[],"categories_sizes":[],"default_left":[0,0,0,0,0,0,0,0,0,0,0,0,0,0,0,0,0,0,0,0,0,0,0,0,0,0,0,0,0,0,0],"id":12,"left_children":[1,3,5,7,9,11,13,15,17,19,21,23,25,27,29,-1,-1,-1,-1,-1,-1,-1,-1,-1,-1,-1,-1,-1,-1,-1,-1],"loss_changes":[1.00008075E3,1.6092953E2,1.362102E2,1.2337952E1,4.2741966E1,3.1845062E1,1.763623E1,6.6239014E0,9.481056E0,1.5382751E1,1.4214073E1,2.670636E1,4.7811093E0,1.3941895E1,5.908901E0,0E0,0E0,0E0,0E0,0E0,0E0,0E0,0E0,0E0,0E0,0E0,0E0,0E0,0E0,0E0,0E0],"parents":[2147483647,0,0,1,1,2,2,3,3,4,4,5,5,6,6,7,7,8,8,9,9,10,10,11,11,12,12,13,13,14,14],"right_children":[2,4,6,8,10,12,14,16,18,20,22,24,26,28,30,-1,-1,-1,-1,-1,-1,-1,-1,-1,-1,-1,-1,-1,-1,-1,-1],"split_conditions":[6.4899886E-1,4.3756038E-1,8.00529E-1,3.8144484E-1,-5.7112907E1,2.2181818E1,9.447591E0,5.273562E-1,2.44E1,2E0,-2.2160494E1,1E0,-2.0892466E-3,8.5175616E-1,9.4E1,-5.557936E-3,-7.97986E-4,-4.0437235E-3,-0E0,-2.8168315E-3,-5.2673457E-4,1.8455636E-3,-8.226072E-4,4.271789E-3,1.8485751E-3,5.3561793E-4,-1.3810978E-3,4.529082E-3,6.574782E-3,-2.2532684E-3,3.0181822E-3],"split_indices":[5,5,5,5,2,36,79,31,60,77,79,56,78,5,43,0,0,0,0,0,0,0,0,0,0,0,0,0,0,0,0],"split_type":[0,0,0,0,0,0,0,0,0,0,0,0,0,0,0,0,0,0,0,0,0,0,0,0,0,0,0,0,0,0,0],"sum_hessian":[3.2056716E3,1.7273805E3,1.478291E3,5.53081E2,1.1742996E3,9.9609314E2,4.821979E2,3.601469E2,1.9293407E2,6.128246E2,5.614749E2,8.723589E2,1.2373425E2,4.137593E2,6.84386E1,3.4979037E2,1.035655E1,1.7599028E2,1.6943783E1,5.204199E2,9.240469E1,5.3428844E1,5.0804608E2,1.4017662E2,7.3218225E2,5.924851E1,6.448574E1,2.0912682E2,2.0463248E2,3.9691393E0,6.446946E1],"tree_param":{"num_deleted":"0","num_feature":"81","num_nodes":"31","size_leaf_vector":"1"}},{"base_weights":[4.6124635E-3,-5.0187325E-1,5.9207654E-1,-7.2429186E-1,-9.0631954E-2,2.680406E-1,8.6991775E-1,-1.0431261E0,-5.587421E-1,-3.486218E-1,2.7438495E-2,6.572179E-1,1.9341113E-1,1.1710161E0,6.330743E-1,-5.395177E-3,-5.680564E-4,-3.2741714E-3,-1.3905924E-3,-2.0660115E-3,1.9246145E-3,-1.3731298E-3,5.6023814E-4,1.278095E-3,4.945948E-3,1.1446042E-3,-1.7288558E-3,4.4075623E-3,7.0449393E-3,8.4782776E-4,3.6329527E-3],"categories":[],"categories_nodes":[],"categories_segments":[],"categories_sizes":[],"default_left":[0,0,0,0,0,0,0,0,0,0,0,0,0,0,0,0,0,0,0,0,0,0,0,0,0,0,0,0,0,0,0],"id":13,"left_children":[1,3,5,7,9,11,13,15,17,19,21,23,25,27,29,-1,-1,-1,-1,-1,-1,-1,-1,-1,-1,-1,-1,-1,-1,-1,-1],"loss_changes":[9.4779224E2,1.5548611E2,1.3147571E2,5.6285706E1,1.8691904E1,1.8896206E1,5.3956482E1,1.1214325E1,1.8660767E1,9.282125E0,1.0392544E1,1.2838192E1,1.1023798E1,2.0290802E1,1.8378159E1,0E0,0E0,0E0,0E0,0E0,0E0,0E0,0E0,0E0,0E0,0E0,0E0,0E0,0E0,0E0,0E0],"parents":[2147483647,0,0,1,1,2,2,3,3,4,4,5,5,6,6,7,7,8,8,9,9,10,10,11,11,12,12,13,13,14,14],"right_children":[2,4,6,8,10,12,14,16,18,20,22,24,26,28,30,-1,-1,-1,-1,-1,-1,-1,-1,-1,-1,-1,-1,-1,-1,-1,-1],"split_conditions":[6.4899886E-1,5.529633E-1,7.4899566E-1,3.864625E-1,0E0,1E0,2E0,5.35159E-1,5.179262E-1,1.1261261E2,-4.7685275E0,2.2E1,3.1666667E0,8.1811154E-1,8.045755E-1,-5.395177E-3,-5.680564E-4,-3.2741714E-3,-1.3905924E-3,-2.0660115E-3,1.9246145E-3,-1.3731298E-3,5.6023814E-4,1.278095E-3,4.945948E-3,1.1446042E-3,-1.7288558E-3,4.4075623E-3,7.0449393E-3,8.4782776E-4,3.6329527E-3],"split_indices":[5,5,5,5,77,56,33,9,9,53,27,14,75,5,67,0,0,0,0,0,0,0,0,0,0,0,0,0,0,0,0],"split_type":[0,0,0,0,0,0,0,0,0,0,0,0,0,0,0,0,0,0,0,0,0,0,0,0,0,0,0,0,0,0,0],"sum_hessian":[3.1831033E3,1.7085286E3,1.4745748E3,1.1067522E3,6.0177637E2,6.832682E2,7.913066E2,3.7438257E2,7.3236957E2,1.9098389E2,4.1079248E2,1.0653007E2,5.7673816E2,3.4479865E2,4.4650793E2,3.592666E2,1.5115971E1,5.4190985E2,1.9045972E2,1.7718468E2,1.3799209E1,8.680908E1,3.239834E2,5.0373554E1,5.6156513E1,5.4338196E2,3.3356205E1,1.5957492E2,1.8522374E2,7.722963E1,3.692783E2],"tree_param":{"num_deleted":"0","num_feature":"81","num_nodes":"31","size_leaf_vector":"1"}},{"base_weights":[-2.7658438E-2,-5.191524E-1,5.6446767E-1,-9.089397E-1,-2.7003542E-1,3.4936392E-1,1.0142868E0,-1.1291916E0,-7.5412714E-1,-4.0401736E-1,-3.6413167E-2,7.619317E-1,2.6764655E-1,1.3278737E0,7.4078393E-1,-6.3226037E-3,-4.557176E-3,-3.9549908E-3,-2.4048261E-4,-2.8504436E-3,-1.0631293E-3,2.2254859E-3,-6.2848924E-4,-5.6734297E-4,4.2294962E-3,6.5155805E-4,2.2499687E-3,2.6963092E-4,6.7589306E-3,-9.595349E-4,3.996768E-3],"categories":[],"categories_nodes":[],"categories_segments":[],"categories_sizes":[],"default_left":[0,0,0,0,0,0,0,0,0,0,0,0,0,0,0,0,0,0,0,0,0,0,0,0,0,0,0,0,0,0,0],"id":14,"left_children":[1,3,5,7,9,11,13,15,17,19,21,23,25,27,29,-1,-1,-1,-1,-1,-1,-1,-1,-1,-1,-1,-1,-1,-1,-1,-1],"loss_changes":[9.358594E2,1.6929706E2,1.3932709E2,2.0572327E1,3.3212883E1,3.2115334E1,3.7218994E1,4.8479614E0,9.719864E0,2.0733887E1,1.6754848E1,1.2660484E1,2.012643E1,5.094696E0,1.4678055E1,0E0,0E0,0E0,0E0,0E0,0E0,0E0,0E0,0E0,0E0,0E0,0E0,0E0,0E0,0E0,0E0],"parents":[2147483647,0,0,1,1,2,2,3,3,4,4,5,5,6,6,7,7,8,8,9,9,10,10,11,11,12,12,13,13,14,14],"right_children":[2,4,6,8,10,12,14,16,18,20,22,24,26,28,30,-1,-1,-1,-1,-1,-1,-1,-1,-1,-1,-1,-1,-1,-1,-1,-1],"split_conditions":[6.5531178E0,4.6573603E-1,8.00529E-1,3.5219276E-1,-4.0067206E-3,1E0,2E0,3E0,2.6174247E0,5.590371E-1,1E0,9.7225494E1,7.416821E1,-6.2662153E0,-1.2685762E-2,-6.3226037E-3,-4.557176E-3,-3.9549908E-3,-2.4048261E-4,-2.8504436E-3,-1.0631293E-3,2.2254859E-3,-6.2848924E-4,-5.6734297E-4,4.2294962E-3,6.5155805E-4,2.2499687E-3,2.6963092E-4,6.7589306E-3,-9.595349E-4,3.996768E-3],"split_indices":[2,5,5,5,76,56,33,33,67,5,56,25,2,27,76,0,0,0,0,0,0,0,0,0,0,0,0,0,0,0,0],"split_type":[0,0,0,0,0,0,0,0,0,0,0,0,0,0,0,0,0,0,0,0,0,0,0,0,0,0,0,0,0,0,0],"sum_hessian":[3.2138684E3,1.7571549E3,1.4567135E3,6.8253937E2,1.0746156E3,9.8816986E2,4.6854364E2,2.7646255E2,4.0607678E2,6.7976294E2,3.9485263E2,1.5996927E2,8.2820056E2,2.1477742E2,2.537662E2,1.647044E2,1.1175816E2,3.8446234E2,2.1614466E1,3.6009933E2,3.196636E2,5.9388184E1,3.3546445E2,1.2928014E1,1.4704126E2,4.7651303E2,3.5168753E2,4.787645E0,2.0998978E2,1.3850729E1,2.3991548E2],"tree_param":{"num_deleted":"0","num_feature":"81","num_nodes":"31","size_leaf_vector":"1"}},{"base_weights":[1.6018774E-2,-4.9146757E-1,6.251407E-1,-7.3233414E-1,-1.4510044E-1,3.709836E-1,9.885469E-1,-1.089458E0,-6.1092615E-1,2.3452075E-1,-3.3383626E-1,7.0136267E-1,1.9024123E-1,1.1925772E0,6.337397E-1,-5.566823E-3,-0E0,-3.4146204E-3,-9.819092E-4,4.7235377E-4,3.4847567E-3,-1.9976022E-3,-1.17345364E-4,8.719453E-4,4.0388526E-3,-2.375433E-4,1.3776278E-3,6.6713654E-3,3.5515886E-3,1.2445803E-3,4.3876623E-3],"categories":[],"categories_nodes":[],"categories_segments":[],"categories_sizes":[],"default_left":[0,0,0,0,0,0,0,0,0,0,0,0,0,0,0,0,0,0,0,0,0,0,0,0,0,0,0,0,0,0,0],"id":15,"left_children":[1,3,5,7,9,11,13,15,17,19,21,23,25,27,29,-1,-1,-1,-1,-1,-1,-1,-1,-1,-1,-1,-1,-1,-1,-1,-1],"loss_changes":[9.9800146E2,1.4585626E2,1.3386267E2,4.2560974E1,5.21141E1,5.075099E1,4.0993042E1,6.1865234E0,2.2197083E1,1.4656271E1,9.482288E0,1.5939484E1,1.1672676E1,2.2923218E1,1.964106E1,0E0,0E0,0E0,0E0,0E0,0E0,0E0,0E0,0E0,0E0,0E0,0E0,0E0,0E0,0E0,0E0],"parents":[2147483647,0,0,1,1,2,2,3,3,4,4,5,5,6,6,7,7,8,8,9,9,10,10,11,11,12,12,13,13,14,14],"right_children":[2,4,6,8,10,12,14,16,18,20,22,24,26,28,30,-1,-1,-1,-1,-1,-1,-1,-1,-1,-1,-1,-1,-1,-1,-1,-1],"split_conditions":[8.123309E0,-7.3632744E1,1.1928095E2,-2.1335315E2,2E0,2E0,3E0,1.4925034E3,5.171911E-1,5.243362E-1,3.8140094E0,-3.8990643E0,3.2640163E1,3E0,4.1316137E-2,-5.566823E-3,-0E0,-3.4146204E-3,-9.819092E-4,4.7235377E-4,3.4847567E-3,-1.9976022E-3,-1.17345364E-4,8.719453E-4,4.0388526E-3,-2.375433E-4,1.3776278E-3,6.6713654E-3,3.5515886E-3,1.2445803E-3,4.3876623E-3],"split_indices":[2,2,2,2,57,57,57,0,31,31,67,27,2,33,76,0,0,0,0,0,0,0,0,0,0,0,0,0,0,0,0],"split_type":[0,0,0,0,0,0,0,0,0,0,0,0,0,0,0,0,0,0,0,0,0,0,0,0,0,0,0,0,0,0,0],"sum_hessian":[3.226087E3,1.7590752E3,1.4670116E3,1.0351924E3,7.238828E2,8.660739E2,6.009377E2,2.5852527E2,7.766672E2,2.3854167E2,4.8534116E2,3.032853E2,5.627886E2,3.7824814E2,2.2268954E2,2.524905E2,6.0347757E0,6.5912994E2,1.1753721E2,1.8567548E2,5.28662E1,3.9767123E2,8.766992E1,5.297398E1,2.5031134E2,1.4560323E2,4.1718536E2,2.8938248E2,8.886568E1,8.873903E1,1.3395052E2],"tree_param":{"num_deleted":"0","num_feature":"81","num_nodes":"31","size_leaf_vector":"1"}},{"base_weights":[-1.4919473E-2,-5.344161E-1,5.201188E-1,-7.9084325E-1,-1.4999557E-1,2.0795824E-1,8.157286E-1,-1.0918816E0,-6.124052E-1,1.6359231E-1,-3.0240574E-1,4.05989E-1,-7.7464394E-2,1.1189455E0,5.8512163E-1,-5.8299177E-3,-3.66527E-3,-3.3930659E-3,-1.3131858E-3,1.8791948E-4,3.6086019E-3,-2.7379617E-3,-9.723516E-4,2.3592943E-3,-4.1786183E-4,-6.917077E-4,2.1502227E-3,2.4547304E-3,6.2942933E-3,1.7461382E-4,3.2953229E-3],"categories":[],"categories_nodes":[],"categories_segments":[],"categories_sizes":[],"default_left":[0,0,0,0,0,0,0,0,0,0,0,0,0,0,0,0,0,0,0,0,0,0,0,0,0,0,0,0,0,0,0],"id":16,"left_children":[1,3,5,7,9,11,13,15,17,19,21,23,25,27,29,-1,-1,-1,-1,-1,-1,-1,-1,-1,-1,-1,-1,-1,-1,-1,-1],"loss_changes":[8.897899E2,1.5913861E2,1.4424347E2,4.9896484E1,3.1400993E1,4.385775E1,5.410547E1,6.785675E0,1.312915E1,1.4130074E1,1.0847908E1,1.5150818E1,9.469003E0,2.8021973E1,1.8104843E1,0E0,0E0,0E0,0E0,0E0,0E0,0E0,0E0,0E0,0E0,0E0,0E0,0E0,0E0,0E0,0E0],"parents":[2147483647,0,0,1,1,2,2,3,3,4,4,5,5,6,6,7,7,8,8,9,9,10,10,11,11,12,12,13,13,14,14],"right_children":[2,4,6,8,10,12,14,16,18,20,22,24,26,28,30,-1,-1,-1,-1,-1,-1,-1,-1,-1,-1,-1,-1,-1,-1,-1,-1],"split_conditions":[6.346918E-1,-8.060909E1,7.471868E-1,3.8144484E-1,2E0,3E0,2E0,2.022388E1,5.1571953E-1,1.5733846E3,4.726266E-1,2.2534246E1,2.3328358E1,9E0,-8.031588E-3,-5.8299177E-3,-3.66527E-3,-3.3930659E-3,-1.3131858E-3,1.8791948E-4,3.6086019E-3,-2.7379617E-3,-9.723516E-4,2.3592943E-3,-4.1786183E-4,-6.917077E-4,2.1502227E-3,2.4547304E-3,6.2942933E-3,1.7461382E-4,3.2953229E-3],"split_indices":[5,2,5,5,57,57,33,60,31,0,31,36,60,17,76,0,0,0,0,0,0,0,0,0,0,0,0,0,0,0,0],"split_type":[0,0,0,0,0,0,0,0,0,0,0,0,0,0,0,0,0,0,0,0,0,0,0,0,0,0,0,0,0,0,0],"sum_hessian":[3.1992014E3,1.6241244E3,1.575077E3,9.7205664E2,6.5206775E2,7.6856635E2,8.065107E2,3.57762E2,6.142946E2,2.1109653E2,4.409712E2,4.5556754E2,3.129988E2,3.448678E2,4.6164288E2,2.9235187E2,6.541013E1,5.1332715E2,1.0096747E2,1.7454794E2,3.654859E1,1.3071048E2,3.102607E2,4.03373E2,5.219454E1,2.8188385E2,3.111496E1,6.4958466E1,2.7990933E2,5.6468105E1,4.051748E2],"tree_param":{"num_deleted":"0","num_feature":"81","num_nodes":"31","size_leaf_vector":"1"}},{"base_weights":[-1.7649068E-2,-5.074415E-1,5.501905E-1,-8.8901794E-1,-2.684374E-1,3.4963703E-1,9.6655816E-1,-1.0621787E0,-6.704006E-1,-4.5502767E-1,-1.0663428E-1,4.279392E-1,-2.1644788E-2,1.2994599E0,6.763345E-1,-5.443159E-3,-9.0208364E-4,-4.551562E-3,-2.773379E-3,-2.627271E-3,2.5566202E-4,-1.2509031E-3,4.1011383E-4,1.5872451E-3,3.2801037E-3,4.449684E-4,-2.6966291E-3,3.2012814E-3,7.027863E-3,1.780917E-5,3.7073977E-3],"categories":[],"categories_nodes":[],"categories_segments":[],"categories_sizes":[],"default_left":[0,0,0,0,0,0,0,0,0,0,0,0,0,0,0,0,0,0,0,0,0,0,0,0,0,0,0,0,0,0,0],"id":17,"left_children":[1,3,5,7,9,11,13,15,17,19,21,23,25,27,29,-1,-1,-1,-1,-1,-1,-1,-1,-1,-1,-1,-1,-1,-1,-1,-1],"loss_changes":[8.870599E2,1.5486435E2,1.21612915E2,2.2458557E1,3.1288612E1,2.9472656E1,4.329889E1,6.9974976E0,6.248764E0,1.7879967E1,1.5626152E1,1.9676392E1,1.0395699E1,1.2429321E1,1.0599335E1,0E0,0E0,0E0,0E0,0E0,0E0,0E0,0E0,0E0,0E0,0E0,0E0,0E0,0E0,0E0,0E0],"parents":[2147483647,0,0,1,1,2,2,3,3,4,4,5,5,6,6,7,7,8,8,9,9,10,10,11,11,12,12,13,13,14,14],"right_children":[2,4,6,8,10,12,14,16,18,20,22,24,26,28,30,-1,-1,-1,-1,-1,-1,-1,-1,-1,-1,-1,-1,-1,-1,-1,-1],"split_conditions":[6.5531178E0,-1.263096E2,1.413989E2,-1.8247534E2,-5.8518948E1,2.0804348E1,2E0,5.379E-1,2E0,4.76E-1,1E0,8.7858696E1,2.8140844E1,9E0,4.9014917E-1,-5.443159E-3,-9.0208364E-4,-4.551562E-3,-2.773379E-3,-2.627271E-3,2.5566202E-4,-1.2509031E-3,4.1011383E-4,1.5872451E-3,3.2801037E-3,4.449684E-4,-2.6966291E-3,3.2012814E-3,7.027863E-3,1.780917E-5,3.7073977E-3],"split_indices":[2,66,66,2,2,36,33,9,33,20,35,2,36,17,9,0,0,0,0,0,0,0,0,0,0,0,0,0,0,0,0],"split_type":[0,0,0,0,0,0,0,0,0,0,0,0,0,0,0,0,0,0,0,0,0,0,0,0,0,0,0,0,0,0,0],"sum_hessian":[3.1875952E3,1.7124132E3,1.4751819E3,6.568428E2,1.0555704E3,9.9848096E2,4.76701E2,3.6182123E2,2.9502155E2,4.8652286E2,5.6904755E2,8.266779E2,1.7180302E2,2.188013E2,2.578997E2,3.499538E2,1.1867445E1,9.095441E1,2.0406714E2,4.2879794E2,5.7724922E1,3.2598495E2,2.4306258E2,5.614631E2,2.652148E2,1.406416E2,3.1161436E1,3.2619144E1,1.8618216E2,2.421624E1,2.3368344E2],"tree_param":{"num_deleted":"0","num_feature":"81","num_nodes":"31","size_leaf_vector":"1"}},{"base_weights":[-5.9251585E-3,-5.038135E-1,5.832589E-1,-9.117554E-1,-2.5499544E-1,3.7931442E-1,1.0040485E0,-1.1539176E0,-7.531114E-1,2.8535185E-2,-3.930363E-1,7.1700525E-1,1.9625045E-1,1.3106487E0,7.4323803E-1,-5.9637893E-3,-2.8124994E-3,-5.1347227E-3,-3.0751366E-3,-1.1584669E-3,1.2726826E-3,-2.757183E-3,-1.2045838E-3,1.6882842E-3,4.1421996E-3,1.8907506E-3,3.9239015E-4,2.6888773E-3,7.139528E-3,2.657317E-3,4.869861E-3],"categories":[],"categories_nodes":[],"categories_segments":[],"categories_sizes":[],"default_left":[0,0,0,0,0,0,0,0,0,0,0,0,0,0,0,0,0,0,0,0,0,0,0,0,0,0,0,0,0,0,0],"id":18,"left_children":[1,3,5,7,9,11,13,15,17,19,21,23,25,27,29,-1,-1,-1,-1,-1,-1,-1,-1,-1,-1,-1,-1,-1,-1,-1,-1],"loss_changes":[9.397963E2,1.7495615E2,1.2408975E2,2.2438477E1,4.2728073E1,6.020787E1,3.5078247E1,3.440796E0,1.2923828E1,2.0835926E1,1.666996E1,1.3183456E1,1.3351019E1,1.6838623E1,1.075824E1,0E0,0E0,0E0,0E0,0E0,0E0,0E0,0E0,0E0,0E0,0E0,0E0,0E0,0E0,0E0,0E0],"parents":[2147483647,0,0,1,1,2,2,3,3,4,4,5,5,6,6,7,7,8,8,9,9,10,10,11,11,12,12,13,13,14,14],"right_children":[2,4,6,8,10,12,14,16,18,20,22,24,26,28,30,-1,-1,-1,-1,-1,-1,-1,-1,-1,-1,-1,-1,-1,-1,-1,-1],"split_conditions":[6.7741604E0,-1.263096E2,1.413989E2,-2.147083E2,2E0,2E0,2E0,1.4544591E3,2E0,-5.8784557E1,-5.4105812E1,9E0,3E0,8E0,2.0373541E2,-5.9637893E-3,-2.8124994E-3,-5.1347227E-3,-3.0751366E-3,-1.1584669E-3,1.2726826E-3,-2.757183E-3,-1.2045838E-3,1.6882842E-3,4.1421996E-3,1.8907506E-3,3.9239015E-4,2.6888773E-3,7.139528E-3,2.657317E-3,4.869861E-3],"split_indices":[66,66,66,66,57,57,33,3,33,66,66,17,57,14,66,0,0,0,0,0,0,0,0,0,0,0,0,0,0,0,0],"split_type":[0,0,0,0,0,0,0,0,0,0,0,0,0,0,0,0,0,0,0,0,0,0,0,0,0,0,0,0,0,0,0],"sum_hessian":[3.2019614E3,1.7364346E3,1.4655269E3,6.553281E2,1.0811063E3,9.899869E2,4.7554E2,2.5440878E2,4.0091937E2,3.51889E2,7.2921735E2,3.4507025E2,6.449166E2,2.1496944E2,2.605706E2,2.361898E2,1.8218977E1,1.2981184E2,2.711075E2,1.6149086E2,1.9039813E2,3.527275E2,3.7648987E2,8.1302505E1,2.6376776E2,2.4924913E2,3.9566748E2,3.0177263E1,1.8479218E2,1.3984976E2,1.2072082E2],"tree_param":{"num_deleted":"0","num_feature":"81","num_nodes":"31","size_leaf_vector":"1"}},{"base_weights":[-2.9874232E-3,-4.9217963E-1,5.6705314E-1,-8.6619383E-1,-2.5133425E-1,3.4819382E-1,1.0225608E0,-1.0900418E0,-6.4308393E-1,-5.4083616E-1,-1.6466431E-1,7.1717757E-1,2.7010617E-1,4.8829213E-1,1.0971515E0,-2.800036E-3,-5.802413E-3,3.914659E-4,-3.4469538E-3,-3.211098E-3,-1.3982042E-3,9.1737334E-4,-1.1601858E-3,9.896589E-4,5.1190895E-3,6.2065205E-4,1.9373815E-3,7.55715E-5,3.4402157E-3,5.9959386E-3,3.5549768E-3],"categories":[],"categories_nodes":[],"categories_segments":[],"categories_sizes":[],"default_left":[0,0,0,0,0,0,0,0,0,0,0,0,0,0,0,0,0,0,0,0,0,0,0,0,0,0,0,0,0,0,0],"id":19,"left_children":[1,3,5,7,9,11,13,15,17,19,21,23,25,27,29,-1,-1,-1,-1,-1,-1,-1,-1,-1,-1,-1,-1,-1,-1,-1,-1],"loss_changes":[8.9098663E2,1.5365375E2,1.4529913E2,3.112384E1,2.5542305E1,2.7608093E1,1.6873322E1,1.0015259E1,1.2062592E1,5.220665E0,1.913449E1,2.5910538E1,1.3634956E1,5.1310616E0,1.3620422E1,0E0,0E0,0E0,0E0,0E0,0E0,0E0,0E0,0E0,0E0,0E0,0E0,0E0,0E0,0E0,0E0],"parents":[2147483647,0,0,1,1,2,2,3,3,4,4,5,5,6,6,7,7,8,8,9,9,10,10,11,11,12,12,13,13,14,14],"right_children":[2,4,6,8,10,12,14,16,18,20,22,24,26,28,30,-1,-1,-1,-1,-1,-1,-1,-1,-1,-1,-1,-1,-1,-1,-1,-1],"split_conditions":[6.4899886E-1,4.6573603E-1,8.00529E-1,3.6647922E-1,-5.4282503E0,1E0,8E0,1E0,3E0,-2.4754097E-4,1E0,9E0,7.131121E-1,1.4833333E1,1.06E2,-2.800036E-3,-5.802413E-3,3.914659E-4,-3.4469538E-3,-3.211098E-3,-1.3982042E-3,9.1737334E-4,-1.1601858E-3,9.896589E-4,5.1190895E-3,6.2065205E-4,1.9373815E-3,7.55715E-5,3.4402157E-3,5.9959386E-3,3.5549768E-3],"split_indices":[5,5,5,5,27,56,17,58,17,11,56,17,5,52,19,0,0,0,0,0,0,0,0,0,0,0,0,0,0,0,0],"split_type":[0,0,0,0,0,0,0,0,0,0,0,0,0,0,0,0,0,0,0,0,0,0,0,0,0,0,0,0,0,0,0],"sum_hessian":[3.1933784E3,1.7195778E3,1.4738007E3,6.7092883E2,1.0486489E3,9.9816754E2,4.7563312E2,3.3073352E2,3.4019528E2,2.3774284E2,8.1090607E2,1.7067851E2,8.27489E2,6.083617E1,4.1479697E2,4.151315E1,2.8922037E2,1.9176361E1,3.2101892E2,1.6745683E2,7.0285995E1,1.2879768E2,6.821084E2,6.519239E1,1.0548613E2,3.7351633E2,4.5397272E2,1.9863846E1,4.097232E1,3.2438712E2,9.0409836E1],"tree_param":{"num_deleted":"0","num_feature":"81","num_nodes":"31","size_leaf_vector":"1"}},{"base_weights":[3.1143627E-3,-6.1151695E-1,4.4741026E-1,-9.282368E-1,-3.7883285E-1,1.7280826E-1,8.1959265E-1,-1.1701698E0,-8.137927E-1,-1.1809917E-1,-5.0597644E-1,5.3189725E-1,-1.561399E-2,1.103831E0,6.0664374E-1,1.7915714E-5,-6.011144E-3,-4.650223E-3,-2.8496992E-3,-1.0415635E-3,2.391887E-3,-2.7179706E-3,-0E0,1.7208257E-3,4.3378184E-3,-7.6601154E-4,7.0473744E-4,2.1442822E-3,6.2450883E-3,3.1642937E-3,-1.7481229E-3],"categories":[],"categories_nodes":[],"categories_segments":[],"categories_sizes":[],"default_left":[0,0,0,0,0,0,0,0,0,0,0,0,0,0,0,0,0,0,0,0,0,0,0,0,0,0,0,0,0,0,0],"id":20,"left_children":[1,3,5,7,9,11,13,15,17,19,21,23,25,27,29,-1,-1,-1,-1,-1,-1,-1,-1,-1,-1,-1,-1,-1,-1,-1,-1],"loss_changes":[8.6899036E2,9.668616E1,1.8776913E2,1.2642822E1,2.4935135E1,7.2678085E1,4.500885E1,7.810669E0,8.971008E0,1.3669743E1,1.0249771E1,2.1733025E1,1.5081456E1,3.033136E1,1.1831055E1,0E0,0E0,0E0,0E0,0E0,0E0,0E0,0E0,0E0,0E0,0E0,0E0,0E0,0E0,0E0,0E0],"parents":[2147483647,0,0,1,1,2,2,3,3,4,4,5,5,6,6,7,7,8,8,9,9,10,10,11,11,12,12,13,13,14,14],"right_children":[2,4,6,8,10,12,14,16,18,20,22,24,26,28,30,-1,-1,-1,-1,-1,-1,-1,-1,-1,-1,-1,-1,-1,-1,-1,-1],"split_conditions":[5.9041184E-1,4.3756038E-1,7.4899566E-1,2E0,2E0,2E0,2E0,1E0,3.8144484E-1,5.287693E-1,4.831E-1,5.161893E-1,6.756651E-1,8E0,7.379679E0,1.7915714E-5,-6.011144E-3,-4.650223E-3,-2.8496992E-3,-1.0415635E-3,2.391887E-3,-2.7179706E-3,-0E0,1.7208257E-3,4.3378184E-3,-7.6601154E-4,7.0473744E-4,2.1442822E-3,6.2450883E-3,3.1642937E-3,-1.7481229E-3],"split_indices":[5,5,5,33,57,57,33,14,5,31,20,31,5,14,51,0,0,0,0,0,0,0,0,0,0,0,0,0,0,0,0],"split_type":[0,0,0,0,0,0,0,0,0,0,0,0,0,0,0,0,0,0,0,0,0,0,0,0,0,0,0,0,0,0,0],"sum_hessian":[3.180803E3,1.3334727E3,1.8473304E3,5.6166754E2,7.718051E2,1.0654073E3,7.8192303E2,1.7460098E2,3.8706656E2,2.5620297E2,5.156021E2,3.6785178E2,6.975556E2,3.311001E2,4.5082294E2,3.8364089E0,1.7076457E2,2.574281E2,1.2963846E2,2.2456598E2,3.1636992E1,4.8126337E2,3.4338768E1,2.391205E2,1.2873126E2,3.746856E2,3.2287E2,6.0531216E1,2.7056888E2,4.401409E2,1.0682043E1],"tree_param":{"num_deleted":"0","num_feature":"81","num_nodes":"31","size_leaf_vector":"1"}},{"base_weights":[3.7884833E-3,-5.186473E-1,5.409968E-1,-9.177574E-1,-2.8411245E-1,3.2403323E-1,1.0406439E0,-1.033419E0,-6.6810983E-1,-4.4578686E-1,-9.214937E-2,7.281603E-1,2.4403825E-1,5.24092E-1,1.1136186E0,-4.2201485E-3,-5.6916014E-3,-4.556346E-4,-3.737491E-3,-2.9945245E-3,-1.4771734E-3,-8.071207E-4,6.9111696E-4,1.4179405E-3,5.0889426E-3,6.597416E-4,2.2546868E-3,-1.8160929E-3,4.2441264E-3,1.8250939E-3,5.765905E-3],"categories":[],"categories_nodes":[],"categories_segments":[],"categories_sizes":[],"default_left":[0,0,0,0,0,0,0,0,0,0,0,0,0,0,0,0,0,0,0,0,0,0,0,0,0,0,0,0,0,0,0],"id":21,"left_children":[1,3,5,7,9,11,13,15,17,19,21,23,25,27,29,-1,-1,-1,-1,-1,-1,-1,-1,-1,-1,-1,-1,-1,-1,-1,-1],"loss_changes":[9.0058936E2,1.507225E2,1.6989975E2,1.4925568E1,3.1296661E1,3.4622757E1,1.5774963E1,5.1088867E0,8.046188E0,1.1692619E1,7.6043444E0,2.1622086E1,2.0862335E1,1.8855171E1,1.0373413E1,0E0,0E0,0E0,0E0,0E0,0E0,0E0,0E0,0E0,0E0,0E0,0E0,0E0,0E0,0E0,0E0],"parents":[2147483647,0,0,1,1,2,2,3,3,4,4,5,5,6,6,7,7,8,8,9,9,10,10,11,11,12,12,13,13,14,14],"right_children":[2,4,6,8,10,12,14,16,18,20,22,24,26,28,30,-1,-1,-1,-1,-1,-1,-1,-1,-1,-1,-1,-1,-1,-1,-1,-1],"split_conditions":[6.346918E-1,4.5005548E-1,8.00529E-1,-6.7559175E0,5.6112397E-1,1E0,1E0,7.00111E-2,6.113822E-2,4.8467782E-1,2.7936714E0,1.4E1,7.3729587E-1,9.62E1,-1.035881E-2,-4.2201485E-3,-5.6916014E-3,-4.556346E-4,-3.737491E-3,-2.9945245E-3,-1.4771734E-3,-8.071207E-4,6.9111696E-4,1.4179405E-3,5.0889426E-3,6.597416E-4,2.2546868E-3,-1.8160929E-3,4.2441264E-3,1.8250939E-3,5.765905E-3],"split_indices":[5,5,5,67,5,56,34,40,40,31,67,17,5,19,76,0,0,0,0,0,0,0,0,0,0,0,0,0,0,0,0],"split_type":[0,0,0,0,0,0,0,0,0,0,0,0,0,0,0,0,0,0,0,0,0,0,0,0,0,0,0,0,0,0,0],"sum_hessian":[3.2067834E3,1.6248185E3,1.581965E3,5.9874756E2,1.0260709E3,1.1055486E3,4.764164E2,4.0429337E2,1.944542E2,5.5343085E2,4.7264E2,1.792733E2,9.2627527E2,6.1682377E1,4.1473404E2,1.507348E2,2.5355856E2,2.530263E1,1.6915157E2,2.694201E2,2.8401077E2,3.669389E2,1.05701126E2,7.2862686E1,1.0641062E2,6.049875E2,3.212878E2,1.5669266E1,4.601311E1,2.2600016E1,3.9213403E2],"tree_param":{"num_deleted":"0","num_feature":"81","num_nodes":"31","size_leaf_vector":"1"}},{"base_weights":[1.631698E-2,-3.7141436E-1,5.2094007E-1,-5.616318E-1,1.13784984E-1,7.441677E-1,2.1377708E-1,-2.8689593E-1,-8.340148E-1,2.3851696E-1,-1.8650784E-1,3.447342E-1,9.916521E-1,-2.3907234E-1,4.0335566E-1,-2.659835E-3,-2.7559177E-4,-4.909863E-3,-3.0198756E-3,3.8359466E-4,2.6253664E-3,1.4765089E-3,-1.6201056E-3,-4.1637488E-4,2.4554518E-3,6.822893E-3,4.323744E-3,2.3711282E-3,-1.7887792E-3,2.3626105E-3,-1.1269427E-3],"categories":[],"categories_nodes":[],"categories_segments":[],"categories_sizes":[],"default_left":[0,0,0,0,0,0,0,0,0,0,0,0,0,0,0,0,0,0,0,0,0,0,0,0,0,0,0,0,0,0,0],"id":22,"left_children":[1,3,5,7,9,11,13,15,17,19,21,23,25,27,29,-1,-1,-1,-1,-1,-1,-1,-1,-1,-1,-1,-1,-1,-1,-1,-1],"loss_changes":[6.2393665E2,1.6680501E2,9.39426E1,9.562387E1,1.907882E1,7.746326E1,5.0635696E1,3.622342E1,1.9891235E1,1.6088598E1,9.85965E0,1.9827148E1,1.98862E1,1.4633347E1,1.8425003E1,0E0,0E0,0E0,0E0,0E0,0E0,0E0,0E0,0E0,0E0,0E0,0E0,0E0,0E0,0E0,0E0],"parents":[2147483647,0,0,1,1,2,2,3,3,4,4,5,5,6,6,7,7,8,8,9,9,10,10,11,11,12,12,13,13,14,14],"right_children":[2,4,6,8,10,12,14,16,18,20,22,24,26,28,30,-1,-1,-1,-1,-1,-1,-1,-1,-1,-1,-1,-1,-1,-1,-1,-1],"split_conditions":[4.779299E-3,1.5298917E3,1.4836666E3,1.5372423E3,6.296296E-1,1.5073456E3,1.519356E3,1.416216E3,1.4531144E3,1.6004327E3,3.463E-1,1.4063685E3,1E0,1E0,2.2534246E1,-2.659835E-3,-2.7559177E-4,-4.909863E-3,-3.0198756E-3,3.8359466E-4,2.6253664E-3,1.4765089E-3,-1.6201056E-3,-4.1637488E-4,2.4554518E-3,6.822893E-3,4.323744E-3,2.3711282E-3,-1.7887792E-3,2.3626105E-3,-1.1269427E-3],"split_indices":[76,0,1,1,16,0,0,0,0,0,46,0,32,58,36,0,0,0,0,0,0,0,0,0,0,0,0,0,0,0,0],"split_type":[0,0,0,0,0,0,0,0,0,0,0,0,0,0,0,0,0,0,0,0,0,0,0,0,0,0,0,0,0,0,0],"sum_hessian":[3.1861587E3,1.8007894E3,1.3853693E3,1.295001E3,5.0578842E2,7.9959393E2,5.8577527E2,6.475659E2,6.474351E2,3.598529E2,1.4593552E2,3.0835324E2,4.9124072E2,1.7122688E2,4.1454837E2,3.1202997E2,3.3553595E2,3.893777E2,2.5805743E2,2.330331E2,1.268198E2,3.0533806E1,1.1540171E2,7.694141E1,2.3141182E2,1.20245605E2,3.7099512E2,2.2796495E1,1.4843039E2,3.7512122E2,3.9427155E1],"tree_param":{"num_deleted":"0","num_feature":"81","num_nodes":"31","size_leaf_vector":"1"}},{"base_weights":[1.9211074E-3,-5.133017E-1,5.2920157E-1,-8.7377596E-1,-2.7283865E-1,2.3627116E-1,8.5241294E-1,-1.1152743E0,-7.202719E-1,-4.3735144E-1,-1.0687142E-1,6.655115E-1,1.5244544E-1,1.1532576E0,6.194461E-1,-2.7465702E-3,-5.811224E-3,-3.8102972E-3,-0E0,-2.373147E-3,1.6131422E-3,-2.3105633E-3,-1.2234245E-4,9.885286E-4,4.5553925E-3,3.4008254E-4,1.8576082E-3,1.6785144E-3,6.2364703E-3,1.9509588E-4,3.4238014E-3],"categories":[],"categories_nodes":[],"categories_segments":[],"categories_sizes":[],"default_left":[0,0,0,0,0,0,0,0,0,0,0,0,0,0,0,0,0,0,0,0,0,0,0,0,0,0,0,0,0,0,0],"id":23,"left_children":[1,3,5,7,9,11,13,15,17,19,21,23,25,27,29,-1,-1,-1,-1,-1,-1,-1,-1,-1,-1,-1,-1,-1,-1,-1,-1],"loss_changes":[8.72631E2,1.3935477E2,1.4909906E2,2.1367706E1,2.6086807E1,2.916998E1,5.0300293E1,4.224243E0,1.1514587E1,1.4111656E1,1.38673935E1,1.4148567E1,1.2535688E1,2.3035492E1,1.5494171E1,0E0,0E0,0E0,0E0,0E0,0E0,0E0,0E0,0E0,0E0,0E0,0E0,0E0,0E0,0E0,0E0],"parents":[2147483647,0,0,1,1,2,2,3,3,4,4,5,5,6,6,7,7,8,8,9,9,10,10,11,11,12,12,13,13,14,14],"right_children":[2,4,6,8,10,12,14,16,18,20,22,24,26,28,30,-1,-1,-1,-1,-1,-1,-1,-1,-1,-1,-1,-1,-1,-1,-1,-1],"split_conditions":[6.346918E-1,-1.2552389E2,9.686113E1,3.4066907E-1,-5.9956215E1,1E0,2E0,-2.2160494E1,2.0024266E0,2E0,-7.3236294E0,1E1,3.687078E-2,5E0,-9.874404E-3,-2.7465702E-3,-5.811224E-3,-3.8102972E-3,-0E0,-2.373147E-3,1.6131422E-3,-2.3105633E-3,-1.2234245E-4,9.885286E-4,4.5553925E-3,3.4008254E-4,1.8576082E-3,1.6785144E-3,6.2364703E-3,1.9509588E-4,3.4238014E-3],"split_indices":[5,2,2,5,2,56,33,79,67,35,67,14,76,14,76,0,0,0,0,0,0,0,0,0,0,0,0,0,0,0,0],"split_type":[0,0,0,0,0,0,0,0,0,0,0,0,0,0,0,0,0,0,0,0,0,0,0,0,0,0,0,0,0,0,0],"sum_hessian":[3.2100774E3,1.6226569E3,1.5874205E3,6.465827E2,9.7607416E2,8.352491E2,7.5217145E2,2.4630562E2,4.0027707E2,4.8633792E2,4.8973627E2,1.3338179E2,7.018673E2,3.246665E2,4.2750497E2,2.1479445E1,2.2482617E2,3.7730316E2,2.2973896E1,4.6521008E2,2.112784E1,8.905863E1,4.006776E2,4.7937702E1,8.544409E1,5.1086288E2,1.910044E2,3.5059845E1,2.8960666E2,4.4950623E1,3.8255435E2],"tree_param":{"num_deleted":"0","num_feature":"81","num_nodes":"31","size_leaf_vector":"1"}},{"base_weights":[-3.7333053E-3,-5.135042E-1,5.250676E-1,-8.60582E-1,-2.8190976E-1,3.2368973E-1,9.8791903E-1,-1.1034468E0,-7.048578E-1,-4.7982997E-1,-1.331613E-1,2.281037E-1,6.67527E-1,8.347589E-1,1.2073977E0,-5.703362E-3,-2.0747818E-3,-3.6929455E-3,1.703255E-3,-3.134767E-3,-9.214636E-4,-1.8616527E-3,-1.2500788E-4,1.4365962E-3,-5.9580413E-4,3.687757E-3,9.6436765E-5,4.3059937E-3,-1.6946779E-3,-0E0,6.1405795E-3],"categories":[],"categories_nodes":[],"categories_segments":[],"categories_sizes":[],"default_left":[0,0,0,0,0,0,0,0,0,0,0,0,0,0,0,0,0,0,0,0,0,0,0,0,0,0,0,0,0,0,0],"id":24,"left_children":[1,3,5,7,9,11,13,15,17,19,21,23,25,27,29,-1,-1,-1,-1,-1,-1,-1,-1,-1,-1,-1,-1,-1,-1,-1,-1],"loss_changes":[8.619756E2,1.2956326E2,1.4457281E2,2.1988342E1,2.8183914E1,3.497386E1,1.2868927E1,4.3677063E0,1.47981415E1,1.7220436E1,1.4181911E1,1.791576E1,9.9242325E0,9.653534E0,4.954956E0,0E0,0E0,0E0,0E0,0E0,0E0,0E0,0E0,0E0,0E0,0E0,0E0,0E0,0E0,0E0,0E0],"parents":[2147483647,0,0,1,1,2,2,3,3,4,4,5,5,6,6,7,7,8,8,9,9,10,10,11,11,12,12,13,13,14,14],"right_children":[2,4,6,8,10,12,14,16,18,20,22,24,26,28,30,-1,-1,-1,-1,-1,-1,-1,-1,-1,-1,-1,-1,-1,-1,-1,-1],"split_conditions":[6.346918E-1,4.6220964E-1,8.00529E-1,3.4066907E-1,-4.328731E0,7.4471626E0,8.6306715E-1,1.112E2,4.0118484E0,5.6815815E-1,0E0,2.2025316E1,1.111E2,1.07976E2,4.5949832E-1,-5.703362E-3,-2.0747818E-3,-3.6929455E-3,1.703255E-3,-3.134767E-3,-9.214636E-4,-1.8616527E-3,-1.2500788E-4,1.4365962E-3,-5.9580413E-4,3.687757E-3,9.6436765E-5,4.3059937E-3,-1.6946779E-3,-0E0,6.1405795E-3],"split_indices":[5,5,5,5,67,67,5,18,67,5,77,36,42,7,31,0,0,0,0,0,0,0,0,0,0,0,0,0,0,0,0],"split_type":[0,0,0,0,0,0,0,0,0,0,0,0,0,0,0,0,0,0,0,0,0,0,0,0,0,0,0,0,0,0,0],"sum_hessian":[3.195669E3,1.6280896E3,1.5675793E3,6.487741E2,9.793155E2,1.0950177E3,4.7256168E2,2.4858205E2,4.0019208E2,4.1636465E2,5.629508E2,8.604001E2,2.346176E2,2.8384442E2,1.8871724E2,2.3383E2,1.4752055E1,3.8889514E2,1.1296913E1,2.749732E2,1.4139143E2,1.716656E2,3.9128522E2,7.3766565E2,1.22734474E2,2.1022786E2,2.4389729E1,2.7868475E2,5.159671E0,3.061842E0,1.856554E2],"tree_param":{"num_deleted":"0","num_feature":"81","num_nodes":"31","size_leaf_vector":"1"}},{"base_weights":[-8.352576E-3,-4.8284113E-1,5.568858E-1,-8.3824617E-1,-2.698995E-1,3.5980934E-1,9.7373444E-1,-8.707982E-1,1.1793228E-1,-2.5709383E-2,-3.8535988E-1,5.636132E-1,5.693283E-2,1.1320146E0,6.854727E-1,-5.904386E-3,-3.9506108E-3,-4.151783E-4,5.6558405E-3,-1.7383373E-3,7.785971E-4,3.6271242E-4,-2.164441E-3,2.0529605E-3,4.205849E-3,2.5624037E-3,-2.9093353E-5,5.803408E-3,-1.8876398E-4,9.7605283E-4,4.481109E-3],"categories":[],"categories_nodes":[],"categories_segments":[],"categories_sizes":[],"default_left":[0,0,0,0,0,0,0,0,0,0,0,0,0,0,0,0,0,0,0,0,0,0,0,0,0,0,0,0,0,0,0],"id":25,"left_children":[1,3,5,7,9,11,13,15,17,19,21,23,25,27,29,-1,-1,-1,-1,-1,-1,-1,-1,-1,-1,-1,-1,-1,-1,-1,-1],"loss_changes":[8.524246E2,1.295151E2,1.1740463E2,2.0948883E1,3.015332E1,6.0303017E1,1.8537415E1,1.2741791E1,5.4432917E0,2.0806517E1,1.6353569E1,2.3385208E1,1.1952479E1,1.1065796E1,1.6188347E1,0E0,0E0,0E0,0E0,0E0,0E0,0E0,0E0,0E0,0E0,0E0,0E0,0E0,0E0,0E0,0E0],"parents":[2147483647,0,0,1,1,2,2,3,3,4,4,5,5,6,6,7,7,8,8,9,9,10,10,11,11,12,12,13,13,14,14],"right_children":[2,4,6,8,10,12,14,16,18,20,22,24,26,28,30,-1,-1,-1,-1,-1,-1,-1,-1,-1,-1,-1,-1,-1,-1,-1,-1],"split_conditions":[6.4899886E-1,4.6220964E-1,8.00529E-1,2.6174247E0,2E0,3E0,3E0,1E0,2.1758064E1,-3.1999068E0,-2.2534246E1,4.933345E0,-2.1320513E1,2.8222221E1,6.2823E0,-5.904386E-3,-3.9506108E-3,-4.151783E-4,5.6558405E-3,-1.7383373E-3,7.785971E-4,3.6271242E-4,-2.164441E-3,2.0529605E-3,4.205849E-3,2.5624037E-3,-2.9093353E-5,5.803408E-3,-1.8876398E-4,9.7605283E-4,4.481109E-3],"split_indices":[5,5,5,67,57,57,57,56,60,27,79,67,79,36,67,0,0,0,0,0,0,0,0,0,0,0,0,0,0,0,0],"split_type":[0,0,0,0,0,0,0,0,0,0,0,0,0,0,0,0,0,0,0,0,0,0,0,0,0,0,0,0,0,0,0],"sum_hessian":[3.1766008E3,1.7279719E3,1.4486288E3,6.4455707E2,1.0834148E3,9.864976E2,4.6213116E2,6.244341E2,2.0122995E1,3.5098703E2,7.324278E2,5.87207E2,3.9929065E2,2.9419632E2,1.6793484E2,1.235471E2,5.00887E2,1.6734869E1,3.388127E0,1.2815771E2,2.2282932E2,6.684606E1,6.655818E2,3.824428E2,2.0476414E2,4.9404568E1,3.498861E2,2.8800104E2,6.195285E0,5.249285E1,1.15442E2],"tree_param":{"num_deleted":"0","num_feature":"81","num_nodes":"31","size_leaf_vector":"1"}},{"base_weights":[6.269488E-3,-6.0125095E-1,4.246601E-1,-9.208983E-1,-3.5693827E-1,1.938335E-1,8.410002E-1,-1.1448396E0,-7.8956896E-1,-6.1589307E-1,-2.3157084E-1,5.961471E-1,1.1827752E-1,1.1056483E0,6.3145715E-1,-5.789528E-3,-1.129359E-3,-0E0,-4.102888E-3,-3.4921065E-3,-1.0844242E-3,-8.1139046E-4,-3.4650357E-3,1.0613096E-3,4.0449915E-3,-2.163069E-5,1.6194637E-3,2.1269561E-3,6.407308E-3,-4.2099386E-4,3.334482E-3],"categories":[],"categories_nodes":[],"categories_segments":[],"categories_sizes":[],"default_left":[0,0,0,0,0,0,0,0,0,0,0,0,0,0,0,0,0,0,0,0,0,0,0,0,0,0,0,0,0,0,0],"id":26,"left_children":[1,3,5,7,9,11,13,15,17,19,21,23,25,27,29,-1,-1,-1,-1,-1,-1,-1,-1,-1,-1,-1,-1,-1,-1,-1,-1],"loss_changes":[8.042369E2,9.910968E1,1.7899838E2,1.3522308E1,2.2851357E1,3.596869E1,3.454953E1,7.633972E-1,9.510315E0,6.716255E0,1.4988342E1,1.423661E1,2.6066586E1,3.2583862E1,1.0191788E1,0E0,0E0,0E0,0E0,0E0,0E0,0E0,0E0,0E0,0E0,0E0,0E0,0E0,0E0,0E0,0E0],"parents":[2147483647,0,0,1,1,2,2,3,3,4,4,5,5,6,6,7,7,8,8,9,9,10,10,11,11,12,12,13,13,14,14],"right_children":[2,4,6,8,10,12,14,16,18,20,22,24,26,28,30,-1,-1,-1,-1,-1,-1,-1,-1,-1,-1,-1,-1,-1,-1,-1,-1],"split_conditions":[-4.0615105E1,-1.4361516E2,1.0681752E2,-2.3267961E2,0E0,1E0,2E0,8.3333336E-2,2.921E-1,2.085484E1,2.2467533E1,1E1,4.3054104E1,1.2E1,2.1875E-1,-5.789528E-3,-1.129359E-3,-0E0,-4.102888E-3,-3.4921065E-3,-1.0844242E-3,-8.1139046E-4,-3.4650357E-3,1.0613096E-3,4.0449915E-3,-2.163069E-5,1.6194637E-3,2.1269561E-3,6.407308E-3,-4.2099386E-4,3.334482E-3],"split_indices":[66,66,66,66,77,56,33,70,46,60,36,14,66,14,13,0,0,0,0,0,0,0,0,0,0,0,0,0,0,0,0],"split_type":[0,0,0,0,0,0,0,0,0,0,0,0,0,0,0,0,0,0,0,0,0,0,0,0,0,0,0,0,0,0,0],"sum_hessian":[3.1627246E3,1.2886804E3,1.8740443E3,5.552952E2,7.3338513E2,1.2081122E3,6.6593207E2,1.9960294E2,3.5569232E2,2.353548E2,4.9803036E2,1.8783263E2,1.0202796E3,2.9027393E2,3.7565814E2,1.9547543E2,4.1275024E0,1.2324659E1,3.4336768E2,1.9231999E2,4.3034805E1,4.3606622E2,6.1964146E1,6.93866E1,1.1844603E2,6.3672845E2,3.8355115E2,6.148468E1,2.2878925E2,1.6328545E1,3.593296E2],"tree_param":{"num_deleted":"0","num_feature":"81","num_nodes":"31","size_leaf_vector":"1"}},{"base_weights":[-2.7132265E-3,-5.268968E-1,5.0422657E-1,-8.9694774E-1,-3.2649708E-1,2.1504514E-1,8.0773246E-1,-1.0863967E0,-7.336266E-1,-5.1603186E-1,-1.9762902E-1,5.5776554E-1,3.8323455E-2,1.1158793E0,5.822736E-1,-3.0342448E-3,-5.6960457E-3,-4.725883E-3,-2.7596604E-3,-1.964613E-3,-4.6898895E-3,5.833721E-4,-1.7319787E-3,2.9826027E-3,-3.3127049E-3,4.7774182E-4,-1.1157995E-3,1.4089661E-3,6.1863735E-3,2.3018993E-3,4.5130765E-3],"categories":[],"categories_nodes":[],"categories_segments":[],"categories_sizes":[],"default_left":[0,0,0,0,0,0,0,0,0,0,0,0,0,0,0,0,0,0,0,0,0,0,0,0,0,0,0,0,0,0,0],"id":27,"left_children":[1,3,5,7,9,11,13,15,17,19,21,23,25,27,29,-1,-1,-1,-1,-1,-1,-1,-1,-1,-1,-1,-1,-1,-1,-1,-1],"loss_changes":[8.477211E2,1.1486249E2,1.4105377E2,1.4369049E1,2.4130829E1,4.9834694E1,5.2449158E1,3.8750916E0,9.540726E0,1.9578064E1,2.8920471E1,1.36375885E1,8.162564E0,3.1575775E1,1.6161758E1,0E0,0E0,0E0,0E0,0E0,0E0,0E0,0E0,0E0,0E0,0E0,0E0,0E0,0E0,0E0,0E0],"parents":[2147483647,0,0,1,1,2,2,3,3,4,4,5,5,6,6,7,7,8,8,9,9,10,10,11,11,12,12,13,13,14,14],"right_children":[2,4,6,8,10,12,14,16,18,20,22,24,26,28,30,-1,-1,-1,-1,-1,-1,-1,-1,-1,-1,-1,-1,-1,-1,-1,-1],"split_conditions":[-1.2375492E1,-1.4361516E2,8.825175E1,-2.147083E2,-5.2622976E0,2E0,2E0,1E0,-5.1981683E0,1.5041051E0,2E0,2.8140844E1,4.8292212E0,6E0,2.0373541E2,-3.0342448E-3,-5.6960457E-3,-4.725883E-3,-2.7596604E-3,-1.964613E-3,-4.6898895E-3,5.833721E-4,-1.7319787E-3,2.9826027E-3,-3.3127049E-3,4.7774182E-4,-1.1157995E-3,1.4089661E-3,6.1863735E-3,2.3018993E-3,4.5130765E-3],"split_indices":[66,66,66,66,67,57,33,58,68,79,57,79,51,17,66,0,0,0,0,0,0,0,0,0,0,0,0,0,0,0,0],"split_type":[0,0,0,0,0,0,0,0,0,0,0,0,0,0,0,0,0,0,0,0,0,0,0,0,0,0,0,0,0,0,0],"sum_hessian":[3.1880808E3,1.5683331E3,1.6197476E3,5.479825E2,1.0203507E3,8.320096E2,7.87738E2,2.482468E2,2.997357E2,4.086128E2,6.117379E2,2.8040292E2,5.516066E2,3.29292E2,4.5844598E2,2.7744722E1,2.2050206E2,1.3400533E2,1.6573036E2,3.1965094E2,8.8961845E1,1.9443779E2,4.1730014E2,2.7306155E2,7.341372E0,4.562225E2,9.538412E1,4.3305637E1,2.8598636E2,3.3611075E2,1.2233524E2],"tree_param":{"num_deleted":"0","num_feature":"81","num_nodes":"31","size_leaf_vector":"1"}},{"base_weights":[-1.0509023E-2,-4.869126E-1,4.9018475E-1,-8.613331E-1,-2.9469535E-1,2.892018E-1,9.3464404E-1,-1.0904936E0,-7.583051E-1,-5.189579E-1,-1.5393873E-1,1.14842266E-1,4.295389E-1,1.2300545E0,6.7423517E-1,-0E0,-5.620305E-3,-4.946089E-3,-3.106808E-3,4.793006E-4,-2.710619E-3,-1.6969496E-3,1.4281116E-4,1.1363472E-3,-3.4523747E-4,2.5551335E-3,1.2454061E-5,2.307549E-3,6.7858356E-3,2.0208034E-4,3.8377196E-3],"categories":[],"categories_nodes":[],"categories_segments":[],"categories_sizes":[],"default_left":[0,0,0,0,0,0,0,0,0,0,0,0,0,0,0,0,0,0,0,0,0,0,0,0,0,0,0,0,0,0,0],"id":28,"left_children":[1,3,5,7,9,11,13,15,17,19,21,23,25,27,29,-1,-1,-1,-1,-1,-1,-1,-1,-1,-1,-1,-1,-1,-1,-1,-1],"loss_changes":[7.63318E2,1.1668054E2,1.3779156E2,1.0411804E1,3.3575813E1,2.575254E1,3.446341E1,6.6956177E0,1.0066025E1,6.42601E0,2.3074787E1,1.0194641E1,2.012175E1,1.9391968E1,1.4597023E1,0E0,0E0,0E0,0E0,0E0,0E0,0E0,0E0,0E0,0E0,0E0,0E0,0E0,0E0,0E0,0E0],"parents":[2147483647,0,0,1,1,2,2,3,3,4,4,5,5,6,6,7,7,8,8,9,9,10,10,11,11,12,12,13,13,14,14],"right_children":[2,4,6,8,10,12,14,16,18,20,22,24,26,28,30,-1,-1,-1,-1,-1,-1,-1,-1,-1,-1,-1,-1,-1,-1,-1,-1],"split_conditions":[6.346918E-1,4.3756038E-1,8.00529E-1,2E0,-3.3314297E0,7.055657E-1,2E0,1E0,3.1782934E-1,-2.7186441E1,5.5716157E-1,5E-1,3.8762238E0,8E0,1E0,-0E0,-5.620305E-3,-4.946089E-3,-3.106808E-3,4.793006E-4,-2.710619E-3,-1.6969496E-3,1.4281116E-4,1.1363472E-3,-3.4523747E-4,2.5551335E-3,1.2454061E-5,2.307549E-3,6.7858356E-3,2.0208034E-4,3.8377196E-3],"split_indices":[5,5,5,33,27,5,33,14,5,79,5,16,79,14,34,0,0,0,0,0,0,0,0,0,0,0,0,0,0,0,0],"split_type":[0,0,0,0,0,0,0,0,0,0,0,0,0,0,0,0,0,0,0,0,0,0,0,0,0,0,0,0,0,0,0],"sum_hessian":[3.1980745E3,1.639826E3,1.5582483E3,5.533231E2,1.0865029E3,1.0757145E3,4.825338E2,1.6562987E2,3.8769327E2,4.1519537E2,6.713076E2,4.8369702E2,5.9201746E2,2.2252994E2,2.6000388E2,4.5042186E0,1.6112564E2,1.3929301E2,2.4840025E2,1.3394808E1,4.0180057E2,3.352539E2,3.360537E2,3.0340335E2,1.8029367E2,4.95021E2,9.6996475E1,3.3355385E1,1.8917456E2,3.4924206E1,2.2507968E2],"tree_param":{"num_deleted":"0","num_feature":"81","num_nodes":"31","size_leaf_vector":"1"}},{"base_weights":[1.4569218E-3,-4.6736076E-1,5.426911E-1,-8.3811975E-1,-2.3695044E-1,3.447342E-1,9.3602604E-1,-8.7734705E-1,-1.9540395E-1,-5.210248E-1,-1.5211235E-1,7.0156586E-1,1.4682509E-1,1.0272444E0,4.28877E-1,-5.243976E-3,-3.7974722E-3,2.8887296E-3,-2.1309603E-3,-3.7105903E-3,-1.33174E-3,4.441127E-4,-1.3529031E-3,2.4301189E-3,4.8785377E-3,1.2296789E-3,-3.1665887E-4,4.099741E-3,6.1610113E-3,-2.0738752E-3,2.5776722E-3],"categories":[],"categories_nodes":[],"categories_segments":[],"categories_sizes":[],"default_left":[0,0,0,0,0,0,0,0,0,0,0,0,0,0,0,0,0,0,0,0,0,0,0,0,0,0,0,0,0,0,0],"id":29,"left_children":[1,3,5,7,9,11,13,15,17,19,21,23,25,27,29,-1,-1,-1,-1,-1,-1,-1,-1,-1,-1,-1,-1,-1,-1,-1,-1],"loss_changes":[8.124014E2,1.4518869E2,1.1417392E2,1.5270996E1,2.4804276E1,6.913205E1,2.1027191E1,9.834137E0,7.309365E0,1.2349396E1,2.3630766E1,1.8862259E1,1.3558146E1,1.4680145E1,6.0850143E0,0E0,0E0,0E0,0E0,0E0,0E0,0E0,0E0,0E0,0E0,0E0,0E0,0E0,0E0,0E0,0E0],"parents":[2147483647,0,0,1,1,2,2,3,3,4,4,5,5,6,6,7,7,8,8,9,9,10,10,11,11,12,12,13,13,14,14],"right_children":[2,4,6,8,10,12,14,16,18,20,22,24,26,28,30,-1,-1,-1,-1,-1,-1,-1,-1,-1,-1,-1,-1,-1,-1,-1,-1],"split_conditions":[5.6119924E0,-1.263096E2,1.3905864E2,5.2080953E-1,-5.4282503E0,2E0,5.2298427E0,-2.147083E2,-5.057029E0,-6.305874E1,2E0,3.6244836E0,4.7058824E-1,2.0373541E2,4.054054E-1,-5.243976E-3,-3.7974722E-3,2.8887296E-3,-2.1309603E-3,-3.7105903E-3,-1.33174E-3,4.441127E-4,-1.3529031E-3,2.4301189E-3,4.8785377E-3,1.2296789E-3,-3.1665887E-4,4.099741E-3,6.1610113E-3,-2.0738752E-3,2.5776722E-3],"split_indices":[66,66,66,67,27,57,79,66,79,66,57,67,16,66,12,0,0,0,0,0,0,0,0,0,0,0,0,0,0,0,0],"split_type":[0,0,0,0,0,0,0,0,0,0,0,0,0,0,0,0,0,0,0,0,0,0,0,0,0,0,0,0,0,0,0],"sum_hessian":[3.1994094E3,1.71348E3,1.4859296E3,6.540517E2,1.0594283E3,9.913988E2,4.945307E2,6.146183E2,3.943341E1,2.3974167E2,8.1968665E2,3.509805E2,6.404183E2,4.1660138E2,7.7929344E1,2.4370285E2,3.7091544E2,7.723391E0,3.171002E1,1.2520585E2,1.1453582E2,2.6748932E2,5.521973E2,2.0008537E2,1.5089513E2,4.383018E2,2.0211653E2,2.1203102E2,2.0457034E2,5.8314347E0,7.209791E1],"tree_param":{"num_deleted":"0","num_feature":"81","num_nodes":"31","size_leaf_vector":"1"}},{"base_weights":[-5.4687117E-3,-4.4974127E-1,5.2706426E-1,-7.9471844E-1,-2.4244885E-1,3.466435E-1,9.855013E-1,-1.0060985E0,-6.333531E-1,5.3519182E-2,-3.9175203E-1,6.961549E-1,1.5558405E-1,1.29329E0,7.063516E-1,-5.18501E-3,-0E0,-3.2591214E-3,4.378825E-3,-1.6386379E-3,1.4437592E-3,-2.6355162E-3,-1.2982812E-3,1.2749316E-4,3.943413E-3,1.5708631E-4,1.7603729E-3,2.7678271E-3,6.9178645E-3,3.8624916E-3,8.451743E-5],"categories":[],"categories_nodes":[],"categories_segments":[],"categories_sizes":[],"default_left":[0,0,0,0,0,0,0,0,0,0,0,0,0,0,0,0,0,0,0,0,0,0,0,0,0,0,0,0,0,0,0],"id":30,"left_children":[1,3,5,7,9,11,13,15,17,19,21,23,25,27,29,-1,-1,-1,-1,-1,-1,-1,-1,-1,-1,-1,-1,-1,-1,-1,-1],"loss_changes":[7.527476E2,1.2289676E2,1.1794507E2,1.9869293E1,4.841477E1,6.854837E1,3.1997528E1,8.556183E0,1.076033E1,3.263544E1,1.2042816E1,2.1862488E1,1.6101631E1,1.0008759E1,9.092873E0,0E0,0E0,0E0,0E0,0E0,0E0,0E0,0E0,0E0,0E0,0E0,0E0,0E0,0E0,0E0,0E0],"parents":[2147483647,0,0,1,1,2,2,3,3,4,4,5,5,6,6,7,7,8,8,9,9,10,10,11,11,12,12,13,13,14,14],"right_children":[2,4,6,8,10,12,14,16,18,20,22,24,26,28,30,-1,-1,-1,-1,-1,-1,-1,-1,-1,-1,-1,-1,-1,-1,-1,-1],"split_conditions":[8.239889E0,-1.263096E2,1.5641924E2,-2.0586615E2,2E0,2E0,2E0,1.11402916E2,4.6965767E-2,-3.1999068E0,-5.4105812E1,4E0,8.6553894E1,1.0250341E-2,4.96E0,-5.18501E-3,-0E0,-3.2591214E-3,4.378825E-3,-1.6386379E-3,1.4437592E-3,-2.6355162E-3,-1.2982812E-3,1.2749316E-4,3.943413E-3,1.5708631E-4,1.7603729E-3,2.7678271E-3,6.9178645E-3,3.8624916E-3,8.451743E-5],"split_indices":[66,66,66,66,57,57,33,30,76,27,66,17,66,76,8,0,0,0,0,0,0,0,0,0,0,0,0,0,0,0,0],"split_type":[0,0,0,0,0,0,0,0,0,0,0,0,0,0,0,0,0,0,0,0,0,0,0,0,0,0,0,0,0,0,0],"sum_hessian":[3.179982E3,1.734765E3,1.4452169E3,6.482635E2,1.0865016E3,1.0398966E3,4.0532037E2,2.7569098E2,3.725725E2,3.622824E2,7.242192E2,3.64757E2,6.751396E2,1.8934001E2,2.1598036E2,2.6740198E2,8.288992E0,3.692833E2,3.2892127E0,1.3646548E2,2.2581693E2,3.5248587E2,3.7173328E2,4.5687737E1,3.1906924E2,4.1753748E2,2.5760214E2,2.2575731E1,1.6676428E2,1.9563951E2,2.0340855E1],"tree_param":{"num_deleted":"0","num_feature":"81","num_nodes":"31","size_leaf_vector":"1"}},{"base_weights":[5.0840587E-3,-4.6041566E-1,5.7580346E-1,-7.0523745E-1,-1.5510629E-1,3.8077983E-1,9.7313815E-1,-1.0142828E0,-5.9548163E-1,1.166561E-1,-2.8793475E-1,6.8993706E-1,2.0659903E-1,1.2456499E0,8.096521E-1,-0E0,-5.2341563E-3,-9.764362E-4,-3.2905196E-3,-9.2964806E-4,1.6175639E-3,-1.6118826E-3,1.9545353E-3,2.6459622E-3,5.323964E-3,1.8110427E-3,5.365511E-4,2.5583166E-3,6.688917E-3,4.4177906E-3,1.3694376E-3],"categories":[],"categories_nodes":[],"categories_segments":[],"categories_sizes":[],"default_left":[0,0,0,0,0,0,0,0,0,0,0,0,0,0,0,0,0,0,0,0,0,0,0,0,0,0,0,0,0,0,0],"id":31,"left_children":[1,3,5,7,9,11,13,15,17,19,21,23,25,27,29,-1,-1,-1,-1,-1,-1,-1,-1,-1,-1,-1,-1,-1,-1,-1,-1],"loss_changes":[8.4506244E2,1.2989145E2,1.0906308E2,3.0671814E1,2.8441265E1,5.0781815E1,1.7803162E1,7.90271E0,1.7068192E1,1.6161499E1,1.24064865E1,1.8588669E1,9.055841E0,9.062103E0,1.039624E1,0E0,0E0,0E0,0E0,0E0,0E0,0E0,0E0,0E0,0E0,0E0,0E0,0E0,0E0,0E0,0E0],"parents":[2147483647,0,0,1,1,2,2,3,3,4,4,5,5,6,6,7,7,8,8,9,9,10,10,11,11,12,12,13,13,14,14],"right_children":[2,4,6,8,10,12,14,16,18,20,22,24,26,28,30,-1,-1,-1,-1,-1,-1,-1,-1,-1,-1,-1,-1,-1,-1,-1,-1],"split_conditions":[6.509185E-1,-8.060909E1,8.00529E-1,-2.1335315E2,2E0,2E0,2E0,-6.456E0,-1.156338E1,4.8277622E-1,1.6344153E3,5.303077E-1,3E0,1.0099506E2,1.087E2,-0E0,-5.2341563E-3,-9.764362E-4,-3.2905196E-3,-9.2964806E-4,1.6175639E-3,-1.6118826E-3,1.9545353E-3,2.6459622E-3,5.323964E-3,1.8110427E-3,5.365511E-4,2.5583166E-3,6.688917E-3,4.4177906E-3,1.3694376E-3],"split_indices":[5,2,5,2,57,57,57,8,79,31,3,31,57,53,19,0,0,0,0,0,0,0,0,0,0,0,0,0,0,0,0],"split_type":[0,0,0,0,0,0,0,0,0,0,0,0,0,0,0,0,0,0,0,0,0,0,0,0,0,0,0,0,0,0,0],"sum_hessian":[3.1784438E3,1.749736E3,1.428708E3,9.685161E2,7.8121985E2,9.6133264E2,4.6737534E2,2.4927283E2,7.192433E2,2.5404529E2,5.2717456E2,3.4329996E2,6.1803265E2,1.7047598E2,2.9689935E2,8.109731E0,2.4116309E2,1.0003658E2,6.1920667E2,1.0123205E2,1.5281325E2,5.03621E2,2.3553556E1,2.4382361E2,9.947635E1,2.3578343E2,3.8224924E2,2.095379E1,1.495222E2,2.5869766E2,3.820169E1],"tree_param":{"num_deleted":"0","num_feature":"81","num_nodes":"31","size_leaf_vector":"1"}},{"base_weights":[-2.5059556E-4,-4.516616E-1,5.3637946E-1,-1.0208634E0,-3.0495396E-1,2.972102E-1,8.932944E-1,-1.0584645E0,-1.5738131E-1,-4.6153608E-1,-5.6980997E-2,2.2205558E-1,5.454885E-1,1.1749597E0,6.6467E-1,-6.4198724E-3,-4.7312155E-3,1.0918003E-3,-2.8582772E-3,-2.6673207E-3,-2.9962105E-4,-1.4322357E-3,2.4440556E-4,8.327879E-4,2.9683274E-3,-2.7825432E-3,3.0265749E-3,2.8080428E-3,6.3558198E-3,3.6451481E-3,4.8355898E-4],"categories":[],"categories_nodes":[],"categories_segments":[],"categories_sizes":[],"default_left":[0,0,0,0,0,0,0,0,0,0,0,0,0,0,0,0,0,0,0,0,0,0,0,0,0,0,0,0,0,0,0],"id":32,"left_children":[1,3,5,7,9,11,13,15,17,19,21,23,25,27,29,-1,-1,-1,-1,-1,-1,-1,-1,-1,-1,-1,-1,-1,-1,-1,-1],"loss_changes":[7.742177E2,1.4341885E2,1.2311862E2,1.0115906E1,5.3190277E1,1.5475227E1,3.4945496E1,5.110718E0,3.134071E0,2.3803467E1,1.3351061E1,1.3123352E1,1.3571579E1,1.2683197E1,1.1029846E1,0E0,0E0,0E0,0E0,0E0,0E0,0E0,0E0,0E0,0E0,0E0,0E0,0E0,0E0,0E0,0E0],"parents":[2147483647,0,0,1,1,2,2,3,3,4,4,5,5,6,6,7,7,8,8,9,9,10,10,11,11,12,12,13,13,14,14],"right_children":[2,4,6,8,10,12,14,16,18,20,22,24,26,28,30,-1,-1,-1,-1,-1,-1,-1,-1,-1,-1,-1,-1,-1,-1,-1,-1],"split_conditions":[6.7741604E0,-1.8397867E2,1.2172854E2,2.4440005E0,-5.234219E1,8.9919205E1,2E0,2E0,3.6363637E-1,2E0,0E0,1E0,-7.4226217E0,5.5E-1,1.099E2,-6.4198724E-3,-4.7312155E-3,1.0918003E-3,-2.8582772E-3,-2.6673207E-3,-2.9962105E-4,-1.4322357E-3,2.4440556E-4,8.327879E-4,2.9683274E-3,-2.7825432E-3,3.0265749E-3,2.8080428E-3,6.3558198E-3,3.6451481E-3,4.8355898E-4],"split_indices":[66,66,66,27,66,66,33,33,13,77,77,65,27,12,42,0,0,0,0,0,0,0,0,0,0,0,0,0,0,0,0],"split_type":[0,0,0,0,0,0,0,0,0,0,0,0,0,0,0,0,0,0,0,0,0,0,0,0,0,0,0,0,0,0,0],"sum_hessian":[3.1944172E3,1.7360668E3,1.4583505E3,3.531454E2,1.3829214E3,8.7598566E2,5.8236487E2,3.370829E2,1.6062508E1,8.4466504E2,5.382564E2,6.76983E2,1.990027E2,2.5710196E2,3.2526288E2,1.0557555E2,2.3150734E2,7.405166E0,8.657342E0,7.1397504E2,1.3069003E2,1.7236952E2,3.6588687E2,5.926178E2,8.43652E1,8.959156E0,1.9004355E2,3.719531E1,2.1990666E2,2.903202E2,3.4942688E1],"tree_param":{"num_deleted":"0","num_feature":"81","num_nodes":"31","size_leaf_vector":"1"}},{"base_weights":[-0E0,-4.6799275E-1,5.520521E-1,-7.244864E-1,-1.9393319E-1,3.6632735E-1,9.336472E-1,-1.0767592E0,-6.214396E-1,-3.763041E-1,-2.5347762E-2,7.999954E-1,2.822562E-1,4.959405E-1,1.0216436E0,-5.4883785E-3,-0E0,-3.411682E-3,-1.2176392E-3,-2.93092E-3,-1.2049715E-3,2.000678E-3,-5.410737E-4,9.078942E-5,4.834148E-3,3.8549826E-3,1.1001666E-3,3.0218598E-3,-1.9172828E-4,6.8496293E-3,4.488037E-3],"categories":[],"categories_nodes":[],"categories_segments":[],"categories_sizes":[],"default_left":[0,0,0,0,0,0,0,0,0,0,0,0,0,0,0,0,0,0,0,0,0,0,0,0,0,0,0,0,0,0,0],"id":33,"left_children":[1,3,5,7,9,11,13,15,17,19,21,23,25,27,29,-1,-1,-1,-1,-1,-1,-1,-1,-1,-1,-1,-1,-1,-1,-1,-1],"loss_changes":[8.226601E2,1.20003845E2,1.0194977E2,2.9844727E1,2.5287104E1,3.46615E1,1.631366E1,4.484253E0,1.4812775E1,1.0350975E1,1.5203882E1,1.957064E1,2.4075775E1,5.428955E0,1.35047E1,0E0,0E0,0E0,0E0,0E0,0E0,0E0,0E0,0E0,0E0,0E0,0E0,0E0,0E0,0E0,0E0],"parents":[2147483647,0,0,1,1,2,2,3,3,4,4,5,5,6,6,7,7,8,8,9,9,10,10,11,11,12,12,13,13,14,14],"right_children":[2,4,6,8,10,12,14,16,18,20,22,24,26,28,30,-1,-1,-1,-1,-1,-1,-1,-1,-1,-1,-1,-1,-1,-1,-1,-1],"split_conditions":[6.5531178E0,5.119724E-1,8.00529E-1,-2.3105414E2,4.9158883E-1,1E0,5.882353E-1,5.2527237E-1,5.1518595E-1,5.632308E-1,1E0,4E0,1E0,1.422524E3,1E0,-5.4883785E-3,-0E0,-3.411682E-3,-1.2176392E-3,-2.93092E-3,-1.2049715E-3,2.000678E-3,-5.410737E-4,9.078942E-5,4.834148E-3,3.8549826E-3,1.1001666E-3,3.0218598E-3,-1.9172828E-4,6.8496293E-3,4.488037E-3],"split_indices":[2,5,5,2,31,56,12,31,31,5,56,17,32,4,32,0,0,0,0,0,0,0,0,0,0,0,0,0,0,0,0],"split_type":[0,0,0,0,0,0,0,0,0,0,0,0,0,0,0,0,0,0,0,0,0,0,0,0,0,0,0,0,0,0,0],"sum_hessian":[3.181902E3,1.7212211E3,1.4606809E3,8.863703E2,8.3485077E2,9.8557574E2,4.751052E2,1.9626642E2,6.901039E2,3.975878E2,4.3726297E2,1.567248E2,8.2885095E2,8.2539894E1,3.925653E2,1.9254185E2,3.7245724E0,5.9136017E2,9.874371E1,1.5164606E2,2.4594174E2,6.8687645E1,3.6857532E2,2.8810856E1,1.2791394E2,9.0504585E1,7.383463E2,7.006162E1,1.24782715E1,9.833709E1,2.942282E2],"tree_param":{"num_deleted":"0","num_feature":"81","num_nodes":"31","size_leaf_vector":"1"}},{"base_weights":[1.952722E-2,-4.4024584E-1,5.664573E-1,-8.239951E-1,-2.4210316E-1,3.721587E-1,9.683003E-1,-9.70705E-1,-5.7756984E-1,-3.8939482E-1,-5.9887532E-2,7.171329E-1,1.849203E-1,1.2468164E0,7.261921E-1,-6.4469413E-3,-4.1072746E-3,-1.6356105E-3,-3.6778157E-3,-2.4464151E-3,-5.007881E-4,3.6921038E-4,-1.2543112E-3,2.1366312E-3,4.4486662E-3,-4.8520673E-5,1.7414966E-3,3.3186404E-3,6.694475E-3,-2.739328E-4,3.9179027E-3],"categories":[],"categories_nodes":[],"categories_segments":[],"categories_sizes":[],"default_left":[0,0,0,0,0,0,0,0,0,0,0,0,0,0,0,0,0,0,0,0,0,0,0,0,0,0,0,0,0,0,0],"id":34,"left_children":[1,3,5,7,9,11,13,15,17,19,21,23,25,27,29,-1,-1,-1,-1,-1,-1,-1,-1,-1,-1,-1,-1,-1,-1,-1,-1],"loss_changes":[7.970853E2,1.2958392E2,1.1138858E2,1.899881E1,3.007051E1,6.2243073E1,2.8799225E1,1.4045746E1,7.516304E0,1.7450508E1,1.3294937E1,1.543103E1,2.0635876E1,8.660004E0,1.2228897E1,0E0,0E0,0E0,0E0,0E0,0E0,0E0,0E0,0E0,0E0,0E0,0E0,0E0,0E0,0E0,0E0],"parents":[2147483647,0,0,1,1,2,2,3,3,4,4,5,5,6,6,7,7,8,8,9,9,10,10,11,11,12,12,13,13,14,14],"right_children":[2,4,6,8,10,12,14,16,18,20,22,24,26,28,30,-1,-1,-1,-1,-1,-1,-1,-1,-1,-1,-1,-1,-1,-1,-1,-1],"split_conditions":[6.7741604E0,-1.375563E2,1.413989E2,-1.8397867E2,-5.0954487E1,2E0,2E0,2E0,-1.6235529E2,5.1766557E-1,3E0,2.9501007E-3,5.817825E1,5.7575756E-1,-1.2685762E-2,-6.4469413E-3,-4.1072746E-3,-1.6356105E-3,-3.6778157E-3,-2.4464151E-3,-5.007881E-4,3.6921038E-4,-1.2543112E-3,2.1366312E-3,4.4486662E-3,-4.8520673E-5,1.7414966E-3,3.3186404E-3,6.694475E-3,-2.739328E-4,3.9179027E-3],"split_indices":[66,66,66,66,66,57,33,33,66,9,57,76,66,12,76,0,0,0,0,0,0,0,0,0,0,0,0,0,0,0,0],"split_type":[0,0,0,0,0,0,0,0,0,0,0,0,0,0,0,0,0,0,0,0,0,0,0,0,0,0,0,0,0,0,0],"sum_hessian":[3.1672893E3,1.7198639E3,1.4474253E3,5.828446E2,1.1370193E3,9.7864636E2,4.68779E2,3.6095312E2,2.2189151E2,6.251015E2,5.1191776E2,3.4142422E2,6.372221E2,2.1414772E2,2.5463127E2,1.1055444E2,2.5039867E2,8.946821E1,1.3242331E2,4.615544E2,1.6354707E2,2.9836523E2,2.1355252E2,1.3090167E2,2.1052255E2,2.884397E2,3.487824E2,3.1805822E1,1.8234189E2,1.6240492E1,2.3839078E2],"tree_param":{"num_deleted":"0","num_feature":"81","num_nodes":"31","size_leaf_vector":"1"}},{"base_weights":[-1.095716E-2,-4.954004E-1,4.9583966E-1,-8.8131684E-1,-2.9752013E-1,3.0620039E-1,9.291213E-1,-1.0317745E0,-7.2573555E-1,-4.2025235E-1,-7.746985E-2,7.3360455E-1,2.2406214E-1,1.1919776E0,6.977385E-1,-5.231972E-3,-0E0,-3.909289E-3,-9.785496E-4,-2.7015703E-3,-1.2221142E-3,-1.1101101E-3,3.469889E-4,9.529698E-4,5.032512E-3,7.950314E-4,2.7793085E-3,2.561872E-3,6.484839E-3,2.243639E-3,4.5357556E-3],"categories":[],"categories_nodes":[],"categories_segments":[],"categories_sizes":[],"default_left":[0,0,0,0,0,0,0,0,0,0,0,0,0,0,0,0,0,0,0,0,0,0,0,0,0,0,0,0,0,0,0],"id":35,"left_children":[1,3,5,7,9,11,13,15,17,19,21,23,25,27,29,-1,-1,-1,-1,-1,-1,-1,-1,-1,-1,-1,-1,-1,-1,-1,-1],"loss_changes":[7.876827E2,1.23898926E2,1.2723422E2,1.0464539E1,2.8859337E1,3.72501E1,2.616504E1,4.3186646E0,7.170273E0,1.376416E1,8.527872E0,2.436499E1,1.9060497E1,1.3146149E1,1.1640167E1,0E0,0E0,0E0,0E0,0E0,0E0,0E0,0E0,0E0,0E0,0E0,0E0,0E0,0E0,0E0,0E0],"parents":[2147483647,0,0,1,1,2,2,3,3,4,4,5,5,6,6,7,7,8,8,9,9,10,10,11,11,12,12,13,13,14,14],"right_children":[2,4,6,8,10,12,14,16,18,20,22,24,26,28,30,-1,-1,-1,-1,-1,-1,-1,-1,-1,-1,-1,-1,-1,-1,-1,-1],"split_conditions":[6.346918E-1,4.3756038E-1,8.00529E-1,3.5219276E-1,-9.7048384E-1,1E0,2E0,2.9508196E1,2.3E1,-6.2827232E1,-4.9357708E1,8E0,8.659817E0,2.5303981E0,4.6083684E0,-5.231972E-3,-0E0,-3.909289E-3,-9.785496E-4,-2.7015703E-3,-1.2221142E-3,-1.1101101E-3,3.469889E-4,9.529698E-4,5.032512E-3,7.950314E-4,2.7793085E-3,2.561872E-3,6.484839E-3,2.243639E-3,4.5357556E-3],"split_indices":[5,5,5,5,67,56,33,60,60,2,2,17,67,67,68,0,0,0,0,0,0,0,0,0,0,0,0,0,0,0,0],"split_type":[0,0,0,0,0,0,0,0,0,0,0,0,0,0,0,0,0,0,0,0,0,0,0,0,0,0,0,0,0,0,0],"sum_hessian":[3.206298E3,1.6403221E3,1.565976E3,5.531103E2,1.0872119E3,1.0920297E3,4.7394623E2,2.7505466E2,2.7805563E2,6.944377E2,3.927742E2,1.7279413E2,9.192356E2,2.179156E2,2.560306E2,2.7133884E2,3.7158206E0,2.4929675E2,2.8758865E1,4.0804913E2,2.8638855E2,2.0112106E2,1.9165312E2,5.9588345E1,1.1320578E2,7.7230334E2,1.4693222E2,3.1221752E1,1.8669386E2,1.20574524E2,1.3545609E2],"tree_param":{"num_deleted":"0","num_feature":"81","num_nodes":"31","size_leaf_vector":"1"}},{"base_weights":[2.0859897E-2,-3.925376E-1,4.2362344E-1,-5.471179E-1,-5.9994843E-2,1.8167305E-1,6.808686E-1,-2.2506818E-1,-6.927516E-1,4.2030446E-2,-3.109133E-1,-2.21378E-1,2.922283E-1,1.0050039E0,4.4876868E-1,-2.09224E-3,6.624188E-5,-4.373144E-3,-2.6502335E-3,-1.6360443E-4,2.2862214E-3,-3.1174228E-3,-7.38542E-4,-6.0330407E-4,-3.5733336E-3,3.4091508E-3,1.0655073E-3,5.7821046E-3,2.508017E-3,3.2858523E-3,1.349125E-3],"categories":[],"categories_nodes":[],"categories_segments":[],"categories_sizes":[],"default_left":[0,0,0,0,0,0,0,0,0,0,0,0,0,0,0,0,0,0,0,0,0,0,0,0,0,0,0,0,0,0,0],"id":36,"left_children":[1,3,5,7,9,11,13,15,17,19,21,23,25,27,29,-1,-1,-1,-1,-1,-1,-1,-1,-1,-1,-1,-1,-1,-1,-1,-1],"loss_changes":[5.2866736E2,7.9839005E1,9.918167E1,4.8951477E1,1.30817795E1,3.7240402E1,5.6600098E1,1.5884182E1,1.978897E1,1.1411583E1,6.6603928E0,7.915204E0,1.9178005E1,2.2297424E1,1.59296875E1,0E0,0E0,0E0,0E0,0E0,0E0,0E0,0E0,0E0,0E0,0E0,0E0,0E0,0E0,0E0,0E0],"parents":[2147483647,0,0,1,1,2,2,3,3,4,4,5,5,6,6,7,7,8,8,9,9,10,10,11,11,12,12,13,13,14,14],"right_children":[2,4,6,8,10,12,14,16,18,20,22,24,26,28,30,-1,-1,-1,-1,-1,-1,-1,-1,-1,-1,-1,-1,-1,-1,-1,-1],"split_conditions":[-5.74894E-3,6.25E-1,3.7566017E-2,5.652174E-1,6.363636E-1,4.8E-1,2E0,4.5454547E-1,-6.0680542E-2,2.15E1,-6.4813294E0,5.151515E-1,4.25E-1,4.7058824E-1,5E-1,-2.09224E-3,6.624188E-5,-4.373144E-3,-2.6502335E-3,-1.6360443E-4,2.2862214E-3,-3.1174228E-3,-7.38542E-4,-6.0330407E-4,-3.5733336E-3,3.4091508E-3,1.0655073E-3,5.7821046E-3,2.508017E-3,3.2858523E-3,1.349125E-3],"split_indices":[76,12,76,15,16,12,33,12,76,60,68,16,15,16,15,0,0,0,0,0,0,0,0,0,0,0,0,0,0,0,0],"split_type":[0,0,0,0,0,0,0,0,0,0,0,0,0,0,0,0,0,0,0,0,0,0,0,0,0,0,0,0,0,0,0],"sum_hessian":[3.1729663E3,1.5645997E3,1.6083665E3,1.0656069E3,4.989928E2,8.31705E2,7.766615E2,3.347542E2,7.308528E2,3.525077E2,1.4648509E2,1.7686417E2,6.548408E2,3.2088977E2,4.557717E2,1.8669913E2,1.4805507E2,3.4012622E2,3.9072656E2,2.974672E2,5.5040497E1,4.717934E1,9.930575E1,1.4959286E2,2.7271297E1,1.071255E2,5.4771533E2,2.4416429E2,7.672548E1,2.0673854E2,2.4903317E2],"tree_param":{"num_deleted":"0","num_feature":"81","num_nodes":"31","size_leaf_vector":"1"}},{"base_weights":[8.317825E-3,-4.3041888E-1,5.225112E-1,-8.383361E-1,-2.382906E-1,3.2248178E-1,9.153787E-1,-1.039585E0,-6.534995E-1,-4.1790572E-1,-7.469819E-2,5.3034884E-1,2.0621E-1,1.2442306E0,6.345287E-1,-5.265617E-3,-0E0,-3.5386048E-3,-8.292821E-4,-2.5874258E-3,-5.707439E-4,8.9247565E-4,-8.25563E-4,7.6886086E-4,3.3041094E-3,4.5853E-4,1.6977614E-3,2.5715588E-3,6.582009E-3,2.060822E-3,4.349405E-3],"categories":[],"categories_nodes":[],"categories_segments":[],"categories_sizes":[],"default_left":[0,0,0,0,0,0,0,0,0,0,0,0,0,0,0,0,0,0,0,0,0,0,0,0,0,0,0,0,0,0,0],"id":37,"left_children":[1,3,5,7,9,11,13,15,17,19,21,23,25,27,29,-1,-1,-1,-1,-1,-1,-1,-1,-1,-1,-1,-1,-1,-1,-1,-1],"loss_changes":[7.278737E2,1.3506888E2,1.1527103E2,1.8271545E1,3.4317467E1,2.3035889E1,4.343924E1,2.72229E0,6.7975693E0,1.6310417E1,1.4316416E1,1.631601E1,9.284676E0,9.465118E0,1.2643738E1,0E0,0E0,0E0,0E0,0E0,0E0,0E0,0E0,0E0,0E0,0E0,0E0,0E0,0E0,0E0,0E0],"parents":[2147483647,0,0,1,1,2,2,3,3,4,4,5,5,6,6,7,7,8,8,9,9,10,10,11,11,12,12,13,13,14,14],"right_children":[2,4,6,8,10,12,14,16,18,20,22,24,26,28,30,-1,-1,-1,-1,-1,-1,-1,-1,-1,-1,-1,-1,-1,-1,-1,-1],"split_conditions":[6.4899886E-1,4.3756038E-1,1.3783687E2,-2.1335315E2,5.529633E-1,2E0,2E0,4.4031973E0,2.2892857E1,4.635E-1,0E0,-1E0,1E0,2E0,4.4E1,-5.265617E-3,-0E0,-3.5386048E-3,-8.292821E-4,-2.5874258E-3,-5.707439E-4,8.9247565E-4,-8.25563E-4,7.6886086E-4,3.3041094E-3,4.5853E-4,1.6977614E-3,2.5715588E-3,6.582009E-3,2.060822E-3,4.349405E-3],"split_indices":[5,5,2,2,5,33,33,27,60,20,74,77,77,63,14,0,0,0,0,0,0,0,0,0,0,0,0,0,0,0,0],"split_type":[0,0,0,0,0,0,0,0,0,0,0,0,0,0,0,0,0,0,0,0,0,0,0,0,0,0,0,0,0,0,0],"sum_hessian":[3.2240496E3,1.7387096E3,1.48534E3,5.5397314E2,1.1847365E3,9.8711456E2,4.9822546E2,2.6040808E2,2.935651E2,5.610587E2,6.2367773E2,3.4972513E2,6.3738947E2,2.2627982E2,2.7194562E2,2.5618478E2,4.2232795E0,2.6193796E2,3.1627136E1,4.195301E2,1.4152864E2,1.6094333E2,4.627344E2,9.25234E1,2.5720172E2,3.478608E2,2.8952863E2,2.2338358E1,2.0394147E2,1.4343056E2,1.2851508E2],"tree_param":{"num_deleted":"0","num_feature":"81","num_nodes":"31","size_leaf_vector":"1"}},{"base_weights":[1.5006083E-2,-3.4990996E-1,6.5253127E-1,-8.038777E-1,-1.2729403E-1,4.707241E-1,1.0183163E0,-1.0662032E0,-6.8390745E-1,-4.1372356E-1,-1.0468551E-2,-1.657999E-1,5.036855E-1,1.2597601E0,7.8651285E-1,-5.42622E-3,-0E0,-4.527807E-3,-2.8887796E-3,-8.911736E-5,-2.4745653E-3,-7.179917E-4,1.1649337E-3,2.4376304E-3,-1.7484726E-3,3.5090777E-3,1.9459614E-3,3.0312275E-3,6.781777E-3,2.7886173E-3,5.1206145E-3],"categories":[],"categories_nodes":[],"categories_segments":[],"categories_sizes":[],"default_left":[0,0,0,0,0,0,0,0,0,0,0,0,0,0,0,0,0,0,0,0,0,0,0,0,0,0,0,0,0,0,0],"id":38,"left_children":[1,3,5,7,9,11,13,15,17,19,21,23,25,27,29,-1,-1,-1,-1,-1,-1,-1,-1,-1,-1,-1,-1,-1,-1,-1,-1],"loss_changes":[7.453732E2,2.0470699E2,7.5628876E1,1.8549103E1,4.536924E1,1.685173E1,1.8494568E1,3.4613342E0,8.908478E0,1.2142662E1,3.1565733E1,4.575816E0,1.5565414E1,8.8723755E0,8.776726E0,0E0,0E0,0E0,0E0,0E0,0E0,0E0,0E0,0E0,0E0,0E0,0E0,0E0,0E0,0E0,0E0],"parents":[2147483647,0,0,1,1,2,2,3,3,4,4,5,5,6,6,7,7,8,8,9,9,10,10,11,11,12,12,13,13,14,14],"right_children":[2,4,6,8,10,12,14,16,18,20,22,24,26,28,30,-1,-1,-1,-1,-1,-1,-1,-1,-1,-1,-1,-1,-1,-1,-1,-1],"split_conditions":[3.957537E1,4.6573603E-1,1.6044733E2,-2.3105414E2,4.726266E-1,-7.4226217E0,2E0,5.5E0,2E0,9.93059E1,1E0,7.15E-1,2E0,5.882353E-1,8.6306715E-1,-5.42622E-3,-0E0,-4.527807E-3,-2.8887796E-3,-8.911736E-5,-2.4745653E-3,-7.179917E-4,1.1649337E-3,2.4376304E-3,-1.7484726E-3,3.5090777E-3,1.9459614E-3,3.0312275E-3,6.781777E-3,2.7886173E-3,5.1206145E-3],"split_indices":[2,5,2,2,31,27,33,75,33,49,77,21,33,12,5,0,0,0,0,0,0,0,0,0,0,0,0,0,0,0,0],"split_type":[0,0,0,0,0,0,0,0,0,0,0,0,0,0,0,0,0,0,0,0,0,0,0,0,0,0,0,0,0,0,0],"sum_hessian":[3.2006511E3,2.034816E3,1.1658352E3,6.671771E2,1.3676389E3,7.8211774E2,3.8371753E2,2.0427953E2,4.6289758E2,3.9299738E2,9.746415E2,3.681458E1,7.4530316E2,1.8366525E2,2.0005228E2,2.000783E2,4.201234E0,1.4440845E2,3.1848914E2,6.918254E1,3.2381485E2,6.330083E2,3.4163318E2,6.529189E0,3.028539E1,2.6787775E2,4.774254E2,2.5921585E1,1.5774367E2,1.0576721E2,9.4285065E1],"tree_param":{"num_deleted":"0","num_feature":"81","num_nodes":"31","size_leaf_vector":"1"}},{"base_weights":[-5.267186E-3,-4.7848675E-1,4.8095015E-1,-9.436451E-1,-3.37196E-1,3.135388E-1,8.59931E-1,-9.638335E-1,-0E0,-4.7318923E-1,-9.727416E-2,6.234211E-1,1.4610197E-1,1.1542412E0,6.0803217E-1,-5.995063E-3,-4.251305E-3,2.2608498E-3,-1.1337239E-3,-2.8149264E-3,-1.1855012E-3,1.1387675E-3,-1.2869899E-3,2.4530548E-3,5.184357E-3,1.6983935E-3,2.5595145E-4,2.3224407E-3,6.3643996E-3,3.5291724E-3,8.9860376E-4],"categories":[],"categories_nodes":[],"categories_segments":[],"categories_sizes":[],"default_left":[0,0,0,0,0,0,0,0,0,0,0,0,0,0,0,0,0,0,0,0,0,0,0,0,0,0,0,0,0,0,0],"id":39,"left_children":[1,3,5,7,9,11,13,15,17,19,21,23,25,27,29,-1,-1,-1,-1,-1,-1,-1,-1,-1,-1,-1,-1,-1,-1,-1,-1],"loss_changes":[7.34173E2,1.0474512E2,9.834274E1,7.9665527E0,3.998227E1,5.5917427E1,3.308322E1,6.755554E0,1.1120256E0,1.584053E1,2.3719913E1,1.8909943E1,1.2706719E1,1.5525635E1,9.975365E0,0E0,0E0,0E0,0E0,0E0,0E0,0E0,0E0,0E0,0E0,0E0,0E0,0E0,0E0,0E0,0E0],"parents":[2147483647,0,0,1,1,2,2,3,3,4,4,5,5,6,6,7,7,8,8,9,9,10,10,11,11,12,12,13,13,14,14],"right_children":[2,4,6,8,10,12,14,16,18,20,22,24,26,28,30,-1,-1,-1,-1,-1,-1,-1,-1,-1,-1,-1,-1,-1,-1,-1,-1],"split_conditions":[-4.0386105E0,-1.7926517E2,1.413989E2,2.090557E0,-5.5826237E1,2E0,2E0,2E0,2.5359867E-3,-9.204627E-3,2E0,5.234232E0,9.78E1,1E1,1.064E2,-5.995063E-3,-4.251305E-3,2.2608498E-3,-1.1337239E-3,-2.8149264E-3,-1.1855012E-3,1.1387675E-3,-1.2869899E-3,2.4530548E-3,5.184357E-3,1.6983935E-3,2.5595145E-4,2.3224407E-3,6.3643996E-3,3.5291724E-3,8.9860376E-4],"split_indices":[66,2,66,67,66,57,33,33,78,76,57,27,42,17,42,0,0,0,0,0,0,0,0,0,0,0,0,0,0,0,0],"split_type":[0,0,0,0,0,0,0,0,0,0,0,0,0,0,0,0,0,0,0,0,0,0,0,0,0,0,0,0,0,0,0],"sum_hessian":[3.188852E3,1.6170764E3,1.5717755E3,3.7377515E2,1.2433013E3,1.0932904E3,4.784851E2,3.6681522E2,6.9599557E0,7.902366E2,4.530647E2,3.8046057E2,7.1282983E2,2.1718332E2,2.613018E2,1.1347524E2,2.5333997E2,3.256054E0,3.703902E0,5.68419E2,2.2181757E2,1.4733298E2,3.0573172E2,2.9144635E2,8.9014206E1,2.302037E2,4.8262616E2,3.3831944E1,1.8335138E2,2.1029869E2,5.1003113E1],"tree_param":{"num_deleted":"0","num_feature":"81","num_nodes":"31","size_leaf_vector":"1"}},{"base_weights":[1.4568259E-2,-4.2113847E-1,5.314121E-1,-7.0404875E-1,-1.2374931E-1,2.583045E-1,7.608002E-1,-9.6194017E-1,-5.295445E-1,1.583519E-1,-2.657968E-1,4.2986372E-1,8.868077E-3,1.1026027E0,5.6241643E-1,-5.646354E-3,-4.07057E-3,-3.1661997E-3,-1.2197039E-3,-4.7416342E-4,2.2860798E-3,-1.7144198E-3,6.20561E-5,2.4150577E-3,-3.9519204E-4,-2.9874325E-4,2.2994722E-3,5.6809774E-3,-1.4275085E-3,2.087911E-3,4.7244285E-3],"categories":[],"categories_nodes":[],"categories_segments":[],"categories_sizes":[],"default_left":[0,0,0,0,0,0,0,0,0,0,0,0,0,0,0,0,0,0,0,0,0,0,0,0,0,0,0,0,0,0,0],"id":40,"left_children":[1,3,5,7,9,11,13,15,17,19,21,23,25,27,29,-1,-1,-1,-1,-1,-1,-1,-1,-1,-1,-1,-1,-1,-1,-1,-1],"loss_changes":[7.2030255E2,1.4499402E2,9.049371E1,3.790866E1,3.4147194E1,2.830447E1,5.1495148E1,5.902649E0,1.4767105E1,2.1774681E1,1.2495068E1,1.1142509E1,9.00476E0,1.4622498E1,2.6258331E1,0E0,0E0,0E0,0E0,0E0,0E0,0E0,0E0,0E0,0E0,0E0,0E0,0E0,0E0,0E0,0E0],"parents":[2147483647,0,0,1,1,2,2,3,3,4,4,5,5,6,6,7,7,8,8,9,9,10,10,11,11,12,12,13,13,14,14],"right_children":[2,4,6,8,10,12,14,16,18,20,22,24,26,28,30,-1,-1,-1,-1,-1,-1,-1,-1,-1,-1,-1,-1,-1,-1,-1,-1],"split_conditions":[6.509185E-1,5.119724E-1,7.4899566E-1,3.8144484E-1,2E0,3E0,2E0,-6.4586444E0,-1.0468135E-1,-1.5047837E0,7.921E-1,2.2313953E1,2.177381E1,9E0,8.573846E-1,-5.646354E-3,-4.07057E-3,-3.1661997E-3,-1.2197039E-3,-4.7416342E-4,2.2860798E-3,-1.7144198E-3,6.20561E-5,2.4150577E-3,-3.9519204E-4,-2.9874325E-4,2.2994722E-3,5.6809774E-3,-1.4275085E-3,2.087911E-3,4.7244285E-3],"split_indices":[5,5,5,5,57,57,57,27,27,67,21,79,60,61,5,0,0,0,0,0,0,0,0,0,0,0,0,0,0,0,0],"split_type":[0,0,0,0,0,0,0,0,0,0,0,0,0,0,0,0,0,0,0,0,0,0,0,0,0,0,0,0,0,0,0],"sum_hessian":[3.1961272E3,1.7332355E3,1.4628917E3,8.858164E2,8.47419E2,6.707672E2,7.921246E2,3.5335983E2,5.3245654E2,2.8140472E2,5.660143E2,3.9462012E2,2.761471E2,2.873831E2,5.047415E2,1.594583E2,1.9390154E2,3.8716736E2,1.4528918E2,1.50903E2,1.3050174E2,4.4584067E2,1.2017362E2,3.5912982E2,3.5490303E1,2.3851158E2,3.7635506E1,2.8147318E2,5.9099092E0,3.6951807E2,1.3522343E2],"tree_param":{"num_deleted":"0","num_feature":"81","num_nodes":"31","size_leaf_vector":"1"}},{"base_weights":[5.53813E-3,-5.982819E-1,3.7659767E-1,-9.51886E-1,-4.7059208E-1,1.5856023E-1,7.959163E-1,-3.3802438E-1,-1.0072131E0,-5.473675E-1,-2.5391772E-1,4.5688695E-1,1.82761E-3,1.1312962E0,6.0033876E-1,-3.2428147E-3,1.9558151E-3,-6.570212E-3,-4.5691268E-3,-2.3175662E-3,-3.9522615E-3,1.0654998E-3,-1.7270041E-3,8.317646E-4,3.1176656E-3,-2.6373524E-4,2.5189763E-3,2.854326E-3,6.279542E-3,2.1332665E-3,4.6979603E-3],"categories":[],"categories_nodes":[],"categories_segments":[],"categories_sizes":[],"default_left":[0,0,0,0,0,0,0,0,0,0,0,0,0,0,0,0,0,0,0,0,0,0,0,0,0,0,0,0,0,0,0],"id":41,"left_children":[1,3,5,7,9,11,13,15,17,19,21,23,25,27,29,-1,-1,-1,-1,-1,-1,-1,-1,-1,-1,-1,-1,-1,-1,-1,-1],"loss_changes":[7.1922284E2,5.3267303E1,1.8084744E2,9.21402E0,1.40520935E1,6.0884434E1,4.212085E1,7.1985826E0,4.949585E0,1.1856857E1,1.0505227E1,2.0877625E1,2.4127285E1,1.4710205E1,2.3737778E1,0E0,0E0,0E0,0E0,0E0,0E0,0E0,0E0,0E0,0E0,0E0,0E0,0E0,0E0,0E0,0E0],"parents":[2147483647,0,0,1,1,2,2,3,3,4,4,5,5,6,6,7,7,8,8,9,9,10,10,11,11,12,12,13,13,14,14],"right_children":[2,4,6,8,10,12,14,16,18,20,22,24,26,28,30,-1,-1,-1,-1,-1,-1,-1,-1,-1,-1,-1,-1,-1,-1,-1,-1],"split_conditions":[-5.0776394E1,-1.9362924E2,1.0610941E2,-2.2160494E1,-8.060909E1,2E0,2E0,-5.4633427E0,1E0,1.10098785E2,1E0,-1.5047837E0,8.659817E0,9E0,2.0578882E2,-3.2428147E-3,1.9558151E-3,-6.570212E-3,-4.5691268E-3,-2.3175662E-3,-3.9522615E-3,1.0654998E-3,-1.7270041E-3,8.317646E-4,3.1176656E-3,-2.6373524E-4,2.5189763E-3,2.854326E-3,6.279542E-3,2.1332665E-3,4.6979603E-3],"split_indices":[2,2,2,79,2,57,57,67,57,26,57,67,67,14,2,0,0,0,0,0,0,0,0,0,0,0,0,0,0,0,0],"split_type":[0,0,0,0,0,0,0,0,0,0,0,0,0,0,0,0,0,0,0,0,0,0,0,0,0,0,0,0,0,0,0],"sum_hessian":[3.2090376E3,1.220168E3,1.9888698E3,3.1992688E2,9.00241E2,1.3109596E3,6.7791016E2,2.853305E1,2.9139383E2,6.601759E2,2.4006517E2,4.4866675E2,8.622929E2,2.4606175E2,4.3184842E2,2.105032E1,7.48273E0,6.244602E1,2.289478E2,4.9607208E2,1.641038E2,3.7314697E1,2.0275047E2,1.6645863E2,2.822081E2,7.7674664E2,8.5546265E1,4.723468E1,1.9882707E2,2.8906357E2,1.4278482E2],"tree_param":{"num_deleted":"0","num_feature":"81","num_nodes":"31","size_leaf_vector":"1"}},{"base_weights":[-7.551889E-3,-4.4191125E-1,5.1276463E-1,-8.0069965E-1,-2.2642326E-1,3.208885E-1,8.8483703E-1,-8.793937E-1,-4.501753E-1,7.276083E-2,-3.7498447E-1,6.358461E-1,1.4673443E-1,1.0606729E0,5.657424E-1,-4.9886964E-3,-3.533334E-3,7.4801117E-4,-2.6739584E-3,-1.6900424E-3,1.1268939E-3,-2.8086507E-3,-1.169022E-3,1.1823374E-3,3.9700177E-3,2.330364E-4,1.800086E-3,6.021435E-3,4.044091E-3,-5.662784E-4,3.3929362E-3],"categories":[],"categories_nodes":[],"categories_segments":[],"categories_sizes":[],"default_left":[0,0,0,0,0,0,0,0,0,0,0,0,0,0,0,0,0,0,0,0,0,0,0,0,0,0,0,0,0,0,0],"id":42,"left_children":[1,3,5,7,9,11,13,15,17,19,21,23,25,27,29,-1,-1,-1,-1,-1,-1,-1,-1,