{"learner":{"attributes":{"best_iteration":"370","best_score":"0.6035274847854571","scikit_learn":"{\"_estimator_type\": \"classifier\"}"},"feature_names":["elo_home","elo_away","elo_difference","elo_rolling_five_home","elo_rolling_five_away","implied_prob_home","pace_home","pace_away","pace_difference","shooting_pct_home","shooting_pct_away","shooting_pct_diff","home_win_pct_home","road_win_pct_home","games_played_home","home_win_pct_away","road_win_pct_away","games_played_away","home_implied_prob_close","away_implied_prob_close","home_spread_close","market_elo_diff","has_market_odds","sharp_signal_home","spread_movement_pts","open_implied_prob_home","line_movement","h2h_home_win_rate_10","h2h_home_pts_diff_10","home_court_strength_home","home_court_strength_away","ppg_10_home","opp_ppg_10_home","fg_pct_roll_10_home","ft_pct_roll_10_home","fg3_pct_roll_10_home","last_5_win_rate_home","last_10_win_rate_home","win_streak_home","ewm_win_rate_5_home","offensive_rating_home","defensive_rating_home","net_rating_home","turnovers_per_game_home","opponent_off_rating_10_home","opponent_def_rating_10_home","player_impact_estimate_home","player_injury_flag_home","injured_count_home","star_available_home","star_count_home","star_points_lost_home","star_points_lost_missing_home","starters_available_home","starters_missing_home","top5_minutes_missing_home","top3_scorers_missing_home","starter_minutes_share_lost_home","rotation_minutes_share_lost_home","scoring_share_lost_home","injury_impact_score_home","starter_impact_lost_home","lineup_continuity_3_home","lineup_continuity_5_home","lineup_continuity_10_home","returning_starter_count_home","expected_starter_stability_home","lineup_confirmation_lag_hours_home","rest_days_home","back_to_back_home","fatigue_load_index_home","coaching_adaptability_score_home","coaching_adaptability_score_missing_home","season_pressure_home","ppg_10_away","opp_ppg_10_away","fg_pct_roll_10_away","ft_pct_roll_10_away","fg3_pct_roll_10_away","last_5_win_rate_away","last_10_win_rate_away","win_streak_away","ewm_win_rate_5_away","offensive_rating_away","defensive_rating_away","net_rating_away","turnovers_per_game_away","opponent_off_rating_10_away","opponent_def_rating_10_away","player_impact_estimate_away","player_injury_flag_away","injured_count_away","star_available_away","star_count_away","star_points_lost_away","star_points_lost_missing_away","starters_available_away","starters_missing_away","top5_minutes_missing_away","top3_scorers_missing_away","starter_minutes_share_lost_away","rotation_minutes_share_lost_away","scoring_share_lost_away","injury_impact_score_away","starter_impact_lost_away","lineup_continuity_3_away","lineup_continuity_5_away","lineup_continuity_10_away","returning_starter_count_away","expected_starter_stability_away","lineup_confirmation_lag_hours_away","rest_days_away","back_to_back_away","fatigue_load_index_away","coaching_adaptability_score_away","coaching_adaptability_score_missing_away","season_pressure_away","h2h_home_win_rate_10_missing","h2h_home_pts_diff_10_missing","elo_diff","net_rating_diff","offensive_rating_diff","defensive_rating_diff","last_5_win_rate_diff","last_10_win_rate_diff","ppg_10_diff","rest_days_diff","fatigue_load_index_diff","turnovers_per_game_diff","player_impact_estimate_diff","injured_count_diff","coaching_adaptability_score_diff","star_points_lost_diff","season_pressure_diff","win_streak_diff","ewm_win_rate_5_diff","sharp_signal_home_missing","book_consensus_std_missing","spread_movement_pts_missing","open_implied_prob_home_missing","line_movement_missing","home_spread_close_missing"],"feature_types":["float","float","float","float","float","float","float","float","float","float","float","float","float","float","int","float","float","int","float","float","float","float","int","float","float","float","float","float","float","float","float","float","float","float","float","float","float","float","float","float","float","float","float","float","float","float","float","int","int","int","int","float","int","float","float","float","float","float","float","float","float","float","float","float","float","float","float","float","int","int","int","float","int","int","float","float","float","float","float","float","float","float","float","float","float","float","float","float","float","float","int","int","int","int","float","int","float","float","float","float","float","float","float","float","float","float","float","float","float","float","float","int","int","int","float","int","int","int","int","float","float","float","float","float","float","float","int","int","float","float","int","float","float","int","float","float","int","int","int","int","int","int"],"gradient_booster":{"model":{"cats":{"enc":[],"feature_segments":[],"sorted_idx":[]},"gbtree_model_param":{"num_parallel_tree":"1","num_trees":"431"},"iteration_indptr":[0,1,2,3,4,5,6,7,8,9,10,11,12,13,14,15,16,17,18,19,20,21,22,23,24,25,26,27,28,29,30,31,32,33,34,35,36,37,38,39,40,41,42,43,44,45,46,47,48,49,50,51,52,53,54,55,56,57,58,59,60,61,62,63,64,65,66,67,68,69,70,71,72,73,74,75,76,77,78,79,80,81,82,83,84,85,86,87,88,89,90,91,92,93,94,95,96,97,98,99,100,101,102,103,104,105,106,107,108,109,110,111,112,113,114,115,116,117,118,119,120,121,122,123,124,125,126,127,128,129,130,131,132,133,134,135,136,137,138,139,140,141,142,143,144,145,146,147,148,149,150,151,152,153,154,155,156,157,158,159,160,161,162,163,164,165,166,167,168,169,170,171,172,173,174,175,176,177,178,179,180,181,182,183,184,185,186,187,188,189,190,191,192,193,194,195,196,197,198,199,200,201,202,203,204,205,206,207,208,209,210,211,212,213,214,215,216,217,218,219,220,221,222,223,224,225,226,227,228,229,230,231,232,233,234,235,236,237,238,239,240,241,242,243,244,245,246,247,248,249,250,251,252,253,254,255,256,257,258,259,260,261,262,263,264,265,266,267,268,269,270,271,272,273,274,275,276,277,278,279,280,281,282,283,284,285,286,287,288,289,290,291,292,293,294,295,296,297,298,299,300,301,302,303,304,305,306,307,308,309,310,311,312,313,314,315,316,317,318,319,320,321,322,323,324,325,326,327,328,329,330,331,332,333,334,335,336,337,338,339,340,341,342,343,344,345,346,347,348,349,350,351,352,353,354,355,356,357,358,359,360,361,362,363,364,365,366,367,368,369,370,371,372,373,374,375,376,377,378,379,380,381,382,383,384,385,386,387,388,389,390,391,392,393,394,395,396,397,398,399,400,401,402,403,404,405,406,407,408,409,410,411,412,413,414,415,416,417,418,419,420,421,422,423,424,425,426,427,428,429,430,431],"tree_info":[0,0,0,0,0,0,0,0,0,0,0,0,0,0,0,0,0,0,0,0,0,0,0,0,0,0,0,0,0,0,0,0,0,0,0,0,0,0,0,0,0,0,0,0,0,0,0,0,0,0,0,0,0,0,0,0,0,0,0,0,0,0,0,0,0,0,0,0,0,0,0,0,0,0,0,0,0,0,0,0,0,0,0,0,0,0,0,0,0,0,0,0,0,0,0,0,0,0,0,0,0,0,0,0,0,0,0,0,0,0,0,0,0,0,0,0,0,0,0,0,0,0,0,0,0,0,0,0,0,0,0,0,0,0,0,0,0,0,0,0,0,0,0,0,0,0,0,0,0,0,0,0,0,0,0,0,0,0,0,0,0,0,0,0,0,0,0,0,0,0,0,0,0,0,0,0,0,0,0,0,0,0,0,0,0,0,0,0,0,0,0,0,0,0,0,0,0,0,0,0,0,0,0,0,0,0,0,0,0,0,0,0,0,0,0,0,0,0,0,0,0,0,0,0,0,0,0,0,0,0,0,0,0,0,0,0,0,0,0,0,0,0,0,0,0,0,0,0,0,0,0,0,0,0,0,0,0,0,0,0,0,0,0,0,0,0,0,0,0,0,0,0,0,0,0,0,0,0,0,0,0,0,0,0,0,0,0,0,0,0,0,0,0,0,0,0,0,0,0,0,0,0,0,0,0,0,0,0,0,0,0,0,0,0,0,0,0,0,0,0,0,0,0,0,0,0,0,0,0,0,0,0,0,0,0,0,0,0,0,0,0,0,0,0,0,0,0,0,0,0,0,0,0,0,0,0,0,0,0,0,0,0,0,0,0,0,0,0,0,0,0,0,0,0,0,0,0,0,0,0,0,0,0,0,0,0,0,0,0,0,0,0,0,0,0,0,0,0,0,0,0,0,0,0,0,0,0,0,0,0,0,0,0,0,0,0,0,0,0,0,0,0,0,0,0,0,0,0,0,0,0],"trees":[{"base_weights":[-9.326247E-4,-5.930146E-1,7.003663E-1,-1.1322745E0,-3.389782E-1,1.1814301E0,4.645887E-1,-1.4874445E0,-9.9091375E-1,-7.387725E-2,-4.660535E-1,1.5896395E0,8.55477E-1,8.849562E-1,2.25675E-1,-5.0619E-3,-3.0269718E-2,-2.5027765E-2,-1.7386232E-2,-7.6611317E-3,3.6611594E-3,-1.2343819E-2,-6.4498177E-3,2.6280591E-2,3.56619E-2,1.3476318E-2,2.2877915E-2,6.5153074E-3,2.1688968E-2,1.5127538E-3,7.6966393E-3],"categories":[],"categories_nodes":[],"categories_segments":[],"categories_sizes":[],"default_left":[0,0,0,0,0,0,0,0,0,0,0,0,0,0,0,0,0,0,0,0,0,0,0,0,0,0,0,0,0,0,0],"id":0,"left_children":[1,3,5,7,9,11,13,15,17,19,21,23,25,27,29,-1,-1,-1,-1,-1,-1,-1,-1,-1,-1,-1,-1,-1,-1,-1,-1],"loss_changes":[1.7721594E3,3.1631085E2,2.2060925E2,3.4710876E1,5.2967148E1,8.306976E1,1.3152826E2,5.921051E0,1.5078125E1,4.0839157E1,2.2702759E1,1.1260559E1,1.7527344E1,5.2362762E1,1.9964577E1,0E0,0E0,0E0,0E0,0E0,0E0,0E0,0E0,0E0,0E0,0E0,0E0,0E0,0E0,0E0,0E0],"parents":[2147483647,0,0,1,1,2,2,3,3,4,4,5,5,6,6,7,7,8,8,9,9,10,10,11,11,12,12,13,13,14,14],"right_children":[2,4,6,8,10,12,14,16,18,20,22,24,26,28,30,-1,-1,-1,-1,-1,-1,-1,-1,-1,-1,-1,-1,-1,-1,-1,-1],"split_conditions":[6.261006E-1,3.8277513E-1,-8E0,2.4337554E-1,2E0,2E0,2E0,5E-1,2E0,5.068785E-1,5.550996E-1,8.422437E-1,8.578995E-1,7E-1,7.0658207E-1,-5.0619E-3,-3.0269718E-2,-2.5027765E-2,-1.7386232E-2,-7.6611317E-3,3.6611594E-3,-1.2343819E-2,-6.4498177E-3,2.6280591E-2,3.56619E-2,1.3476318E-2,2.2877915E-2,6.5153074E-3,2.1688968E-2,1.5127538E-3,7.6966393E-3],"split_indices":[18,18,20,18,91,48,91,106,48,18,5,18,18,62,18,0,0,0,0,0,0,0,0,0,0,0,0,0,0,0,0],"split_type":[0,0,0,0,0,0,0,0,0,0,0,0,0,0,0,0,0,0,0,0,0,0,0,0,0,0,0,0,0,0,0],"sum_hessian":[4.2649604E3,2.312756E3,1.9522043E3,7.3882465E2,1.5739315E3,6.399847E2,1.3122196E3,2.060732E2,5.3275146E2,5.1101828E2,1.0629132E3,2.81422E2,3.5856265E2,4.7390735E2,8.383123E2,4.6692915E0,2.014039E2,1.648597E2,3.6789175E2,2.3177184E2,2.7924643E2,5.150462E2,5.4786707E2,1.21100044E2,1.6032196E2,2.2328026E2,1.3528241E2,1.2578204E2,3.481253E2,4.329816E2,4.0533072E2],"tree_param":{"num_deleted":"0","num_feature":"142","num_nodes":"31","size_leaf_vector":"1"}},{"base_weights":[5.221076E-3,7.0018125E-1,-5.9164405E-1,4.6976003E-1,1.1949867E0,-2.6750028E-1,-1.0169945E0,8.471065E-1,2.5340486E-1,1.5499735E0,9.0777385E-1,2.4222935E-2,-4.083637E-1,-1.4296482E0,-8.8904566E-1,3.6582872E-3,2.0123193E-2,4.347513E-3,2.0151038E-2,2.6462259E-2,3.5468332E-2,2.3011055E-2,1.39283845E-2,-7.099301E-3,4.5581753E-3,-9.160789E-3,-5.280853E-4,-3.0664898E-2,-2.3737486E-2,-2.2078302E-2,-1.584655E-2],"categories":[],"categories_nodes":[],"categories_segments":[],"categories_sizes":[],"default_left":[0,1,0,0,0,0,0,0,0,0,0,0,0,0,0,0,0,0,0,0,0,0,0,0,0,0,0,0,0,0,0],"id":1,"left_children":[1,3,5,7,9,11,13,15,17,19,21,23,25,27,29,-1,-1,-1,-1,-1,-1,-1,-1,-1,-1,-1,-1,-1,-1,-1,-1],"loss_changes":[1.7807549E3,2.2514874E2,3.1787793E2,1.1027072E2,6.178723E1,5.4001114E1,5.05614E1,5.1721436E1,2.302885E1,1.0317932E1,1.665155E1,3.321776E1,1.6737656E1,2.8731384E0,1.4418152E1,0E0,0E0,0E0,0E0,0E0,0E0,0E0,0E0,0E0,0E0,0E0,0E0,0E0,0E0,0E0,0E0],"parents":[2147483647,0,0,1,1,2,2,3,3,4,4,5,5,6,6,7,7,8,8,9,9,10,10,11,11,12,12,13,13,14,14],"right_children":[2,4,6,8,10,12,14,16,18,20,22,24,26,28,30,-1,-1,-1,-1,-1,-1,-1,-1,-1,-1,-1,-1,-1,-1,-1,-1],"split_conditions":[3.7526998E-1,7.6878613E-1,5.71116E-1,2E0,2E0,2E0,2.5231287E-1,3E0,8.51966E-1,8.52459E-1,5.004738E-1,5.068785E-1,6.877539E-1,3E0,2E0,3.6582872E-3,2.0123193E-2,4.347513E-3,2.0151038E-2,2.6462259E-2,3.5468332E-2,2.3011055E-2,1.39283845E-2,-7.099301E-3,4.5581753E-3,-9.160789E-3,-5.280853E-4,-3.0664898E-2,-2.3737486E-2,-2.2078302E-2,-1.584655E-2],"split_indices":[19,25,19,91,48,91,18,65,18,25,10,18,5,91,48,0,0,0,0,0,0,0,0,0,0,0,0,0,0,0,0],"split_type":[0,0,0,0,0,0,0,0,0,0,0,0,0,0,0,0,0,0,0,0,0,0,0,0,0,0,0,0,0,0,0],"sum_hessian":[4.2900464E3,1.9820978E3,2.3079485E3,1.3544725E3,6.276252E2,1.3113193E3,9.966292E2,4.918312E2,8.6264136E2,2.7758954E2,3.5003564E2,4.271789E2,8.841404E2,2.3208365E2,7.6454553E2,9.576761E1,3.960636E2,8.252788E2,3.7362556E1,1.4311525E2,1.3447427E2,1.5958485E2,1.9045079E2,1.4871722E2,2.784617E2,7.818909E2,1.0224947E2,1.5679195E2,7.52917E1,2.3214868E2,5.3239685E2],"tree_param":{"num_deleted":"0","num_feature":"142","num_nodes":"31","size_leaf_vector":"1"}},{"base_weights":[5.2897045E-3,-6.035294E-1,6.468076E-1,-9.599158E-1,-2.519511E-1,4.5603627E-1,1.2380826E0,-1.4513189E0,-8.39587E-1,3.1174848E-2,-3.8567945E-1,8.3186287E-1,2.4937496E-1,1.5322826E0,9.4872046E-1,-8.598782E-3,-2.9320752E-2,-1.9625219E-2,-1.3912381E-2,1.6749653E-3,-1.569375E-2,-1.2744096E-2,-6.567161E-3,1.8533857E-3,1.9333657E-2,1.69916E-3,8.194639E-3,1.0922544E-2,3.1979345E-2,1.1117665E-2,2.1071544E-2],"categories":[],"categories_nodes":[],"categories_segments":[],"categories_sizes":[],"default_left":[0,0,0,0,0,0,0,0,0,0,0,0,0,0,1,0,0,0,0,0,0,0,0,0,0,0,0,0,0,0,0],"id":2,"left_children":[1,3,5,7,9,11,13,15,17,19,21,23,25,27,29,-1,-1,-1,-1,-1,-1,-1,-1,-1,-1,-1,-1,-1,-1,-1,-1],"loss_changes":[1.663709E3,2.7335138E2,2.3295282E2,6.207794E1,4.1790062E1,1.2157852E2,4.0560608E1,2.03891E0,1.6655579E1,1.5245984E1,1.0389305E1,5.5216583E1,2.667958E1,1.4770447E1,9.616577E0,0E0,0E0,0E0,0E0,0E0,0E0,0E0,0E0,0E0,0E0,0E0,0E0,0E0,0E0,0E0,0E0],"parents":[2147483647,0,0,1,1,2,2,3,3,4,4,5,5,6,6,7,7,8,8,9,9,10,10,11,11,12,12,13,13,14,14],"right_children":[2,4,6,8,10,12,14,16,18,20,22,24,26,28,30,-1,-1,-1,-1,-1,-1,-1,-1,-1,-1,-1,-1,-1,-1,-1,-1],"split_conditions":[6.143408E-1,4.4799376E-1,8.2054335E-1,2.5095165E-1,2E0,2E0,2E0,-2.1450158E-2,3.6553526E-1,9.917585E0,2E0,2.3333333E-1,7.050631E-1,4E0,8.094662E-1,-8.598782E-3,-2.9320752E-2,-1.9625219E-2,-1.3912381E-2,1.6749653E-3,-1.569375E-2,-1.2744096E-2,-6.567161E-3,1.8533857E-3,1.9333657E-2,1.69916E-3,8.194639E-3,1.0922544E-2,3.1979345E-2,1.1117665E-2,2.1071544E-2],"split_indices":[18,18,18,25,91,91,48,23,18,122,48,64,18,53,25,0,0,0,0,0,0,0,0,0,0,0,0,0,0,0,0],"split_type":[0,0,0,0,0,0,0,0,0,0,0,0,0,0,0,0,0,0,0,0,0,0,0,0,0,0,0,0,0,0,0],"sum_hessian":[4.2567026E3,2.1839773E3,2.072725E3,1.0831423E3,1.1008351E3,1.5692439E3,5.034811E2,2.0962903E2,8.735133E2,3.5328098E2,7.475541E2,5.549715E2,1.0142724E3,2.4628738E2,2.5719373E2,3.7182624E0,2.0591077E2,4.3551718E2,4.3799615E2,3.332737E2,2.0007254E1,1.3560457E2,6.119495E2,8.611137E1,4.6886014E2,5.022375E2,5.120349E2,1.6567396E1,2.2972E2,5.6379234E1,2.0081448E2],"tree_param":{"num_deleted":"0","num_feature":"142","num_nodes":"31","size_leaf_vector":"1"}},{"base_weights":[1.8963428E-3,-6.0402375E-1,6.169198E-1,-3.513471E-1,-1.0837219E0,1.1982871E0,4.2927366E-1,-5.197184E-1,-1.7892207E-1,-1.4142302E0,-9.4832635E-1,1.5065686E0,9.047434E-1,8.2284373E-1,2.1710587E-1,-4.0766103E-3,-1.1526731E-2,3.2793575E-3,-6.8175755E-3,-2.9542213E-2,-1.8344942E-2,-2.3198735E-2,-1.7003013E-2,1.0588992E-2,3.1374954E-2,1.9030368E-2,-1.0270023E-3,1.8788258E-3,1.9285103E-2,1.1163404E-3,7.73986E-3],"categories":[],"categories_nodes":[],"categories_segments":[],"categories_sizes":[],"default_left":[0,0,0,0,0,0,0,0,0,0,0,0,0,0,0,0,0,0,0,0,0,0,0,0,0,0,0,0,0,0,0],"id":3,"left_children":[1,3,5,7,9,11,13,15,17,19,21,23,25,27,29,-1,-1,-1,-1,-1,-1,-1,-1,-1,-1,-1,-1,-1,-1,-1,-1],"loss_changes":[1.5929027E3,2.6025806E2,2.304895E2,4.080066E1,3.095514E1,4.4469604E1,1.3375125E2,1.2508942E1,3.90017E1,4.364563E0,9.353882E0,1.3708374E1,1.2174591E1,5.7675537E1,2.857962E1,0E0,0E0,0E0,0E0,0E0,0E0,0E0,0E0,0E0,0E0,0E0,0E0,0E0,0E0,0E0,0E0],"parents":[2147483647,0,0,1,1,2,2,3,3,4,4,5,5,6,6,7,7,8,8,9,9,10,10,11,11,12,12,13,13,14,14],"right_children":[2,4,6,8,10,12,14,16,18,20,22,24,26,28,30,-1,-1,-1,-1,-1,-1,-1,-1,-1,-1,-1,-1,-1,-1,-1,-1],"split_conditions":[6.0790116E-1,6.172249E-1,1.7945665E-1,5.116279E-1,2.5095165E-1,2E0,2E0,6.2E-1,2E0,4E0,2E0,5E0,5E0,4.4E-1,7.0658207E-1,-4.0766103E-3,-1.1526731E-2,3.2793575E-3,-6.8175755E-3,-2.9542213E-2,-1.8344942E-2,-2.3198735E-2,-1.7003013E-2,1.0588992E-2,3.1374954E-2,1.9030368E-2,-1.0270023E-3,1.8788258E-3,1.9285103E-2,1.1163404E-3,7.73986E-3],"split_indices":[18,19,19,18,25,48,91,107,91,91,48,96,91,63,18,0,0,0,0,0,0,0,0,0,0,0,0,0,0,0,0],"split_type":[0,0,0,0,0,0,0,0,0,0,0,0,0,0,0,0,0,0,0,0,0,0,0,0,0,0,0,0,0,0,0],"sum_hessian":[4.2714653E3,2.1515884E3,2.1198772E3,1.4111074E3,7.40481E2,5.1516766E2,1.6047095E3,7.121241E2,6.9898334E2,2.1085808E2,5.29623E2,2.4808656E2,2.6708112E2,5.603936E2,1.0443158E3,1.0955481E2,6.025693E2,2.2403241E2,4.7495093E2,1.8437115E2,2.6486923E1,1.6238113E2,3.6724185E2,1.5792624E1,2.3229393E2,2.5473067E2,1.2350436E1,9.157509E1,4.6881854E2,5.3703894E2,5.0727686E2],"tree_param":{"num_deleted":"0","num_feature":"142","num_nodes":"31","size_leaf_vector":"1"}},{"base_weights":[-9.7546325E-4,6.536212E-1,-5.682792E-1,1.2297357E0,4.701721E-1,-3.2305142E-1,-1.0663823E0,1.6473577E0,1.0801393E0,8.6276203E-1,2.5013155E-1,-5.302353E-1,-1.405882E-1,-9.403135E-1,-1.3739066E0,2.1615729E-2,3.4087136E-2,2.4741368E-2,1.475106E-2,4.329122E-3,2.0218568E-2,8.366376E-3,1.0419948E-3,-1.1747378E-2,-4.197602E-3,3.0841778E-3,-5.5510444E-3,-2.6041636E-2,-1.7669529E-2,-8.789233E-3,-2.7871177E-2],"categories":[],"categories_nodes":[],"categories_segments":[],"categories_sizes":[],"default_left":[0,0,0,0,0,0,0,0,0,0,0,0,0,0,0,0,0,0,0,0,0,0,0,0,0,0,0,0,0,0,0],"id":4,"left_children":[1,3,5,7,9,11,13,15,17,19,21,23,25,27,29,-1,-1,-1,-1,-1,-1,-1,-1,-1,-1,-1,-1,-1,-1,-1,-1],"loss_changes":[1.5842845E3,2.0829333E2,2.7852686E2,2.6877686E1,1.2956229E2,5.780609E1,2.7033264E1,9.2575073E-1,1.7570679E1,5.123355E1,3.2114983E1,1.286731E1,3.3099823E1,9.143188E0,2.8559875E0,0E0,0E0,0E0,0E0,0E0,0E0,0E0,0E0,0E0,0E0,0E0,0E0,0E0,0E0,0E0,0E0],"parents":[2147483647,0,0,1,1,2,2,3,3,4,4,5,5,6,6,7,7,8,8,9,9,10,10,11,11,12,12,13,13,14,14],"right_children":[2,4,6,8,10,12,14,16,18,20,22,24,26,28,30,-1,-1,-1,-1,-1,-1,-1,-1,-1,-1,-1,-1,-1,-1,-1,-1],"split_conditions":[3.771316E-1,-9E0,6.172249E-1,1E0,2E0,5.116279E-1,7.5662446E-1,8.2312924E-1,1.044E2,4.8E-1,2.9700205E-1,2E0,2E0,1E0,5E-1,2.1615729E-2,3.4087136E-2,2.4741368E-2,1.475106E-2,4.329122E-3,2.0218568E-2,8.366376E-3,1.0419948E-3,-1.1747378E-2,-4.197602E-3,3.0841778E-3,-5.5510444E-3,-2.6041636E-2,-1.7669529E-2,-8.789233E-3,-2.7871177E-2],"split_indices":[19,20,19,47,91,18,19,18,32,63,19,130,91,47,106,0,0,0,0,0,0,0,0,0,0,0,0,0,0,0,0],"split_type":[0,0,0,0,0,0,0,0,0,0,0,0,0,0,0,0,0,0,0,0,0,0,0,0,0,0,0,0,0,0,0],"sum_hessian":[4.2632476E3,1.9791522E3,2.2840955E3,4.758051E2,1.503347E3,1.532355E3,7.517405E2,1.21350334E2,3.5445477E2,5.382253E2,9.6512177E2,7.159729E2,8.163821E2,5.377167E2,2.1402385E2,1.3989669E1,1.07360664E2,2.4021207E2,1.14242714E2,1.0119147E2,4.370338E2,5.2071124E2,4.4441055E2,6.0628314E2,1.0968976E2,2.5868265E2,5.5769946E2,6.830861E1,4.6940805E2,5.235025E0,2.0878882E2],"tree_param":{"num_deleted":"0","num_feature":"142","num_nodes":"31","size_leaf_vector":"1"}},{"base_weights":[3.7690724E-4,-5.3788584E-1,6.5340763E-1,-2.976126E-1,-1.0512565E0,1.1621805E0,4.703444E-1,-5.0693715E-1,-1.4093317E-1,-1.3749343E0,-9.178579E-1,1.4319603E0,9.015155E-1,8.4016705E-1,2.6684982E-1,-1.121064E-2,-4.0459577E-3,3.2687385E-3,-5.6948746E-3,-2.7878752E-2,-7.7067956E-4,-2.3413427E-2,-1.6011147E-2,1.2503805E-2,3.006689E-2,-4.529473E-3,1.8861173E-2,1.5708847E-3,1.9685974E-2,3.8303642E-3,1.1230562E-2],"categories":[],"categories_nodes":[],"categories_segments":[],"categories_sizes":[],"default_left":[0,0,0,0,0,0,0,0,0,0,0,0,0,0,1,0,0,0,0,0,0,0,0,0,0,0,0,0,0,0,0],"id":5,"left_children":[1,3,5,7,9,11,13,15,17,19,21,23,25,27,29,-1,-1,-1,-1,-1,-1,-1,-1,-1,-1,-1,-1,-1,-1,-1,-1],"loss_changes":[1.505512E3,2.8898926E2,1.7926562E2,5.23515E1,3.0165283E1,3.3759583E1,1.0685965E2,1.0932999E1,4.0275955E1,5.236511E0,1.4240845E1,1.2679077E1,1.2767319E1,5.523877E1,2.023362E1,0E0,0E0,0E0,0E0,0E0,0E0,0E0,0E0,0E0,0E0,0E0,0E0,0E0,0E0,0E0,0E0],"parents":[2147483647,0,0,1,1,2,2,3,3,4,4,5,5,6,6,7,7,8,8,9,9,10,10,11,11,12,12,13,13,14,14],"right_children":[2,4,6,8,10,12,14,16,18,20,22,24,26,28,30,-1,-1,-1,-1,-1,-1,-1,-1,-1,-1,-1,-1,-1,-1,-1,-1],"split_conditions":[6.304647E-1,6.172249E-1,1.7945665E-1,5.068785E-1,2.5095165E-1,2E0,2E0,2E0,2E0,8.0487806E-1,2E0,3E0,2.940909E-1,2.857143E-1,7.5789475E-1,-1.121064E-2,-4.0459577E-3,3.2687385E-3,-5.6948746E-3,-2.7878752E-2,-7.7067956E-4,-2.3413427E-2,-1.6011147E-2,1.2503805E-2,3.006689E-2,-4.529473E-3,1.8861173E-2,1.5708847E-3,1.9685974E-2,3.8303642E-3,1.1230562E-2],"split_indices":[18,19,19,18,25,48,91,130,91,12,48,65,66,64,25,0,0,0,0,0,0,0,0,0,0,0,0,0,0,0,0],"split_type":[0,0,0,0,0,0,0,0,0,0,0,0,0,0,0,0,0,0,0,0,0,0,0,0,0,0,0,0,0,0,0],"sum_hessian":[4.2800483E3,2.346253E3,1.9337955E3,1.5999784E3,7.462746E2,5.0942432E2,1.4243712E3,6.83212E2,9.1676636E2,2.1350842E2,5.327662E2,2.4683464E2,2.6258966E2,5.037295E2,9.2064166E2,5.79647E2,1.0356501E2,2.938798E2,6.228866E2,2.103775E2,3.1309154E0,1.643108E2,3.6845538E2,2.1368633E1,2.25466E2,9.004805E0,2.5358487E2,8.063708E1,4.230924E2,7.354463E2,1.8519539E2],"tree_param":{"num_deleted":"0","num_feature":"142","num_nodes":"31","size_leaf_vector":"1"}},{"base_weights":[8.2174735E-3,6.159949E-1,-5.2786887E-1,1.0649565E0,4.0073726E-1,-3.0371723E-1,-9.946308E-1,8.37471E-1,1.3000919E0,7.466955E-1,2.1235882E-1,-4.8969832E-1,-1.3893677E-1,-1.2476685E0,-7.7619255E-1,2.4496796E-2,1.21598225E-2,4.748933E-3,2.6905017E-2,2.121112E-3,1.7395329E-2,1.4171633E-3,7.1911407E-3,-1.3725525E-2,-8.012013E-3,3.7559592E-3,-5.8948854E-3,-2.7644176E-2,-1.9326307E-2,-1.6786184E-2,-9.192375E-3],"categories":[],"categories_nodes":[],"categories_segments":[],"categories_sizes":[],"default_left":[0,0,0,0,0,0,0,0,0,0,0,0,0,0,0,0,0,0,0,0,0,0,0,0,0,0,0,0,0,0,0],"id":6,"left_children":[1,3,5,7,9,11,13,15,17,19,21,23,25,27,29,-1,-1,-1,-1,-1,-1,-1,-1,-1,-1,-1,-1,-1,-1,-1,-1],"loss_changes":[1.379638E3,1.9100433E2,2.3480066E2,3.249829E1,8.7253296E1,4.648416E1,3.8643738E1,2.8104187E1,1.4373413E1,3.7059174E1,1.8090324E1,1.1988113E1,4.1302277E1,1.0446716E1,7.1934814E0,0E0,0E0,0E0,0E0,0E0,0E0,0E0,0E0,0E0,0E0,0E0,0E0,0E0,0E0,0E0,0E0],"parents":[2147483647,0,0,1,1,2,2,3,3,4,4,5,5,6,6,7,7,8,8,9,9,10,10,11,11,12,12,13,13,14,14],"right_children":[2,4,6,8,10,12,14,16,18,20,22,24,26,28,30,-1,-1,-1,-1,-1,-1,-1,-1,-1,-1,-1,-1,-1,-1,-1,-1],"split_conditions":[3.771316E-1,2.0276627E-1,6.172249E-1,8.578995E-1,2E0,5.116279E-1,2.9765546E-1,2E0,1.5714286E-1,2.857143E-1,7.050631E-1,0E0,2E0,3E0,2E0,2.4496796E-2,1.21598225E-2,4.748933E-3,2.6905017E-2,2.121112E-3,1.7395329E-2,1.4171633E-3,7.1911407E-3,-1.3725525E-2,-8.012013E-3,3.7559592E-3,-5.8948854E-3,-2.7644176E-2,-1.9326307E-2,-1.6786184E-2,-9.192375E-3],"split_indices":[19,19,19,18,91,18,25,91,66,64,18,130,91,91,130,0,0,0,0,0,0,0,0,0,0,0,0,0,0,0,0],"split_type":[0,0,0,0,0,0,0,0,0,0,0,0,0,0,0,0,0,0,0,0,0,0,0,0,0,0,0,0,0,0,0],"sum_hessian":[4.2313174E3,1.9830436E3,2.248274E3,6.405877E2,1.3424559E3,1.5206886E3,7.2758527E2,3.2928418E2,3.113035E2,4.7152338E2,8.709325E2,7.1271313E2,8.0797546E2,3.3360898E2,3.939763E2,1.1991765E2,2.0936653E2,1.3163024E1,2.9814047E2,7.656626E1,3.9495712E2,4.4553967E2,4.2539285E2,2.1879823E2,4.9391492E2,2.605796E2,5.473959E2,2.214766E2,1.1213238E2,3.261564E2,6.781991E1],"tree_param":{"num_deleted":"0","num_feature":"142","num_nodes":"31","size_leaf_vector":"1"}},{"base_weights":[6.0595004E-3,-4.6026066E-1,5.560156E-1,-1.7531969E-1,-8.988133E-1,3.175166E-1,1.0392098E0,2.880239E-1,-2.938596E-1,-1.1971487E0,-7.3007756E-1,4.66082E-1,-2.134335E-1,1.4278334E0,8.323581E-1,1.604677E-2,1.5794955E-3,-9.844665E-4,-8.51754E-3,-2.6557652E-2,-1.859243E-2,-1.3270269E-2,-1.9999709E-2,1.5840918E-2,5.4010362E-3,1.2019187E-2,-5.539545E-3,3.013484E-2,2.046898E-2,1.2190519E-2,2.3616698E-2],"categories":[],"categories_nodes":[],"categories_segments":[],"categories_sizes":[],"default_left":[0,1,1,0,0,1,0,0,0,0,0,0,0,0,0,0,0,0,0,0,0,0,0,0,0,0,0,0,0,0,0],"id":7,"left_children":[1,3,5,7,9,11,13,15,17,19,21,23,25,27,29,-1,-1,-1,-1,-1,-1,-1,-1,-1,-1,-1,-1,-1,-1,-1,-1],"loss_changes":[1.0913762E3,2.8741907E2,2.2440924E2,7.690529E1,4.412622E1,1.03487366E2,4.9803833E1,3.049755E1,3.5899567E1,9.286102E0,9.313263E0,6.500523E1,1.5081539E1,4.5059204E0,3.1697296E1,0E0,0E0,0E0,0E0,0E0,0E0,0E0,0E0,0E0,0E0,0E0,0E0,0E0,0E0,0E0,0E0],"parents":[2147483647,0,0,1,1,2,2,3,3,4,4,5,5,6,6,7,7,8,8,9,9,10,10,11,11,12,12,13,13,14,14],"right_children":[2,4,6,8,10,12,14,16,18,20,22,24,26,28,30,-1,-1,-1,-1,-1,-1,-1,-1,-1,-1,-1,-1,-1,-1,-1,-1],"split_conditions":[6.5987945E0,2.5E0,7.5789475E-1,-3.5E0,2.9765546E-1,-4E0,2E0,2E0,2E0,3E0,4.24E0,2E0,4.318182E-1,1.082E2,8.5794395E-1,1.604677E-2,1.5794955E-3,-9.844665E-4,-8.51754E-3,-2.6557652E-2,-1.859243E-2,-1.3270269E-2,-1.9999709E-2,1.5840918E-2,5.4010362E-3,1.2019187E-2,-5.539545E-3,3.013484E-2,2.046898E-2,1.2190519E-2,2.3616698E-2],"split_indices":[2,20,25,20,25,20,91,91,91,91,8,91,29,32,25,0,0,0,0,0,0,0,0,0,0,0,0,0,0,0,0],"split_type":[0,0,0,0,0,0,0,0,0,0,0,0,0,0,0,0,0,0,0,0,0,0,0,0,0,0,0,0,0,0,0],"sum_hessian":[4.25258E3,2.3013103E3,1.9512699E3,1.3963724E3,9.0493787E2,1.3082338E3,6.430362E2,2.838569E2,1.1125155E3,3.2340408E2,5.8153375E2,1.02249927E3,2.8573444E2,2.2012949E2,4.2290674E2,8.066494E1,2.0319197E2,3.9092487E2,7.215907E2,2.1299806E2,1.10406006E2,4.7094766E2,1.1058613E2,3.8208615E2,6.404131E2,1.964893E1,2.660855E2,1.8056003E2,3.956946E1,2.606474E2,1.6225935E2],"tree_param":{"num_deleted":"0","num_feature":"142","num_nodes":"31","size_leaf_vector":"1"}},{"base_weights":[4.543381E-3,-4.5264322E-1,5.4680246E-1,-1.7405747E-1,-8.789007E-1,1.0902832E0,3.7301788E-1,3.1529152E-1,-3.0143327E-1,-7.451111E-1,-1.2327343E0,1.4265511E0,8.0574524E-1,4.9214002E-1,-1.17434576E-1,9.200707E-3,1.9573357E-3,-8.981475E-3,-3.2605706E-3,-1.2540258E-2,-1.784026E-2,-3.026606E-2,-2.215967E-2,4.0147044E-3,2.8880034E-2,1.8368222E-2,8.106916E-3,1.4464292E-2,6.891981E-3,1.4425555E-2,-3.8546966E-3],"categories":[],"categories_nodes":[],"categories_segments":[],"categories_sizes":[],"default_left":[0,1,0,0,0,0,1,0,0,0,0,0,0,0,0,0,0,0,0,0,0,0,0,0,0,0,0,0,0,0,0],"id":8,"left_children":[1,3,5,7,9,11,13,15,17,19,21,23,25,27,29,-1,-1,-1,-1,-1,-1,-1,-1,-1,-1,-1,-1,-1,-1,-1,-1],"loss_changes":[1.0522972E3,2.731263E2,1.8263751E2,8.707259E1,4.1487793E1,4.2978577E1,8.622293E1,8.95981E0,2.2460785E1,1.0530212E1,5.871277E0,3.959137E0,1.0945221E1,3.9959137E1,1.8409698E1,0E0,0E0,0E0,0E0,0E0,0E0,0E0,0E0,0E0,0E0,0E0,0E0,0E0,0E0,0E0,0E0],"parents":[2147483647,0,0,1,1,2,2,3,3,4,4,5,5,6,6,7,7,8,8,9,9,10,10,11,11,12,12,13,13,14,14],"right_children":[2,4,6,8,10,12,14,16,18,20,22,24,26,28,30,-1,-1,-1,-1,-1,-1,-1,-1,-1,-1,-1,-1,-1,-1,-1,-1],"split_conditions":[6.5987945E0,2.5E0,-9E0,-3.5E0,7.5E0,2E0,-4E0,2.5319588E1,4.8514727E-1,5E0,2E0,-7.460481E-2,1.01004E2,2E0,4.364719E-1,9.200707E-3,1.9573357E-3,-8.981475E-3,-3.2605706E-3,-1.2540258E-2,-1.784026E-2,-3.026606E-2,-2.215967E-2,4.0147044E-3,2.8880034E-2,1.8368222E-2,8.106916E-3,1.4464292E-2,6.891981E-3,1.4425555E-2,-3.8546966E-3],"split_indices":[2,20,20,20,20,48,20,51,46,20,48,21,6,48,29,0,0,0,0,0,0,0,0,0,0,0,0,0,0,0,0],"split_type":[0,0,0,0,0,0,0,0,0,0,0,0,0,0,0,0,0,0,0,0,0,0,0,0,0,0,0,0,0,0,0],"sum_hessian":[4.2415776E3,2.3013442E3,1.9402336E3,1.3931688E3,9.081753E2,4.680387E2,1.472195E3,2.8712018E2,1.1060487E3,6.6258405E2,2.4559125E2,2.1159875E2,2.5643994E2,1.1846608E3,2.8753424E2,1.7108914E2,1.16031044E2,5.331898E2,5.728589E2,3.7205927E2,2.9052478E2,7.020358E1,1.7538766E2,3.31369E0,2.0828506E2,1.98418E2,5.8021942E1,4.5910025E2,7.255605E2,2.2518764E1,2.6501547E2],"tree_param":{"num_deleted":"0","num_feature":"142","num_nodes":"31","size_leaf_vector":"1"}},{"base_weights":[-3.5233966E-3,-5.496744E-1,5.535334E-1,-8.823779E-1,-2.4383163E-1,3.4786496E-1,1.0239753E0,-1.1890205E0,-7.2800136E-1,-4.918987E-1,-1.2738183E-1,7.0611817E-1,1.5371042E-1,1.293411E0,7.804172E-1,-2.5006322E-2,-1.4658329E-2,-1.6746469E-2,-1.1032842E-2,-1.1214891E-2,1.9056572E-5,-5.820108E-3,7.682676E-5,1.5142496E-3,1.6530128E-2,7.072209E-3,5.361166E-4,4.2059803E-3,2.7545772E-2,-9.122646E-3,1.6230289E-2],"categories":[],"categories_nodes":[],"categories_segments":[],"categories_sizes":[],"default_left":[0,0,0,0,0,0,0,0,0,0,0,0,0,0,0,0,0,0,0,0,0,0,0,0,0,0,0,0,0,0,0],"id":9,"left_children":[1,3,5,7,9,11,13,15,17,19,21,23,25,27,29,-1,-1,-1,-1,-1,-1,-1,-1,-1,-1,-1,-1,-1,-1,-1,-1],"loss_changes":[1.2904652E3,2.1751086E2,2.0249188E2,4.7039246E1,3.214637E1,1.01543915E2,4.0134155E1,7.952057E0,1.2393524E1,1.2150749E1,1.6419043E1,3.8806976E1,2.4077818E1,2.6692719E1,1.3625381E1,0E0,0E0,0E0,0E0,0E0,0E0,0E0,0E0,0E0,0E0,0E0,0E0,0E0,0E0,0E0,0E0],"parents":[2147483647,0,0,1,1,2,2,3,3,4,4,5,5,6,6,7,7,8,8,9,9,10,10,11,11,12,12,13,13,14,14],"right_children":[2,4,6,8,10,12,14,16,18,20,22,24,26,28,30,-1,-1,-1,-1,-1,-1,-1,-1,-1,-1,-1,-1,-1,-1,-1,-1],"split_conditions":[6.0790116E-1,4.3762052E-1,7.972337E-1,2.9765546E-1,0E0,2E0,2E0,4E0,1E0,3.26316E1,4.8514727E-1,4.4E-1,3E0,5E0,3.3333334E-1,-2.5006322E-2,-1.4658329E-2,-1.6746469E-2,-1.1032842E-2,-1.1214891E-2,1.9056572E-5,-5.820108E-3,7.682676E-5,1.5142496E-3,1.6530128E-2,7.072209E-3,5.361166E-4,4.2059803E-3,2.7545772E-2,-9.122646E-3,1.6230289E-2],"split_indices":[18,18,18,25,130,91,48,91,130,2,46,63,91,96,63,0,0,0,0,0,0,0,0,0,0,0,0,0,0,0,0],"split_type":[0,0,0,0,0,0,0,0,0,0,0,0,0,0,0,0,0,0,0,0,0,0,0,0,0,0,0,0,0,0,0],"sum_hessian":[4.238644E3,2.1403733E3,2.0982708E3,1.0236578E3,1.1167155E3,1.4619537E3,6.363171E2,3.391981E2,6.844597E2,3.5493042E2,7.617851E2,5.122611E2,9.496927E2,2.988445E2,3.3747256E2,2.965179E2,4.2680172E1,4.1871606E2,2.6574365E2,3.114242E2,4.350625E1,3.3856296E2,4.2322214E2,8.266498E1,4.2959613E2,3.674376E2,5.8225507E2,2.1943327E1,2.7690118E2,7.696879E0,3.297757E2],"tree_param":{"num_deleted":"0","num_feature":"142","num_nodes":"31","size_leaf_vector":"1"}},{"base_weights":[-1.0490067E-2,5.770931E-1,-5.105406E-1,9.308916E-1,3.4352162E-1,-2.0697004E-1,-8.356446E-1,1.2159609E0,6.94298E-1,5.2235824E-1,2.4360554E-1,-2.6178592E-1,1.1748198E-1,-6.8048614E-1,-1.1176786E0,2.552101E-3,2.6294235E-2,1.8749166E-2,1.10222995E-2,1.7795581E-3,1.3327672E-2,1.5604496E-3,8.864067E-3,-2.2564924E-3,-7.1914974E-3,-8.620806E-4,8.4575545E-3,-1.4307836E-2,-6.29863E-3,-1.1487445E-3,-2.2856861E-2],"categories":[],"categories_nodes":[],"categories_segments":[],"categories_sizes":[],"default_left":[0,0,0,0,0,0,0,0,0,0,0,0,0,0,0,0,0,0,0,0,0,0,0,0,0,0,0,0,0,0,0],"id":10,"left_children":[1,3,5,7,9,11,13,15,17,19,21,23,25,27,29,-1,-1,-1,-1,-1,-1,-1,-1,-1,-1,-1,-1,-1,-1,-1,-1],"loss_changes":[1.2417136E3,1.5995007E2,2.2496869E2,5.05813E1,2.0689774E1,2.1097675E1,4.6895752E1,3.6978455E1,1.3884293E1,2.5971527E1,2.4869373E1,1.4642502E1,8.487339E0,8.680634E0,1.0146179E1,0E0,0E0,0E0,0E0,0E0,0E0,0E0,0E0,0E0,0E0,0E0,0E0,0E0,0E0,0E0,0E0],"parents":[2147483647,0,0,1,1,2,2,3,3,4,4,5,5,6,6,7,7,8,8,9,9,10,10,11,11,12,12,13,13,14,14],"right_children":[2,4,6,8,10,12,14,16,18,20,22,24,26,28,30,-1,-1,-1,-1,-1,-1,-1,-1,-1,-1,-1,-1,-1,-1,-1,-1],"split_conditions":[3.7526998E-1,2.2522523E-1,5.4804945E-1,2E0,2E0,2E0,6.9576997E-1,5E0,1.4590552E-1,-1E0,1E0,4.3575788E-1,1.0653724E2,5.268783E-1,5E-1,2.552101E-3,2.6294235E-2,1.8749166E-2,1.10222995E-2,1.7795581E-3,1.3327672E-2,1.5604496E-3,8.864067E-3,-2.2564924E-3,-7.1914974E-3,-8.620806E-4,8.4575545E-3,-1.4307836E-2,-6.29863E-3,-1.1487445E-3,-2.2856861E-2],"split_indices":[19,19,19,48,48,130,19,96,19,130,130,19,87,46,105,0,0,0,0,0,0,0,0,0,0,0,0,0,0,0,0],"split_type":[0,0,0,0,0,0,0,0,0,0,0,0,0,0,0,0,0,0,0,0,0,0,0,0,0,0,0,0,0,0,0],"sum_hessian":[4.2231035E3,1.941416E3,2.2816875E3,7.7006573E2,1.1713502E3,1.1813486E3,1.1003387E3,3.4624573E2,4.2382004E2,4.1722668E2,7.5412354E2,1.01111884E3,1.7022977E2,7.133626E2,3.8697617E2,2.9173126E1,3.170726E2,1.5372964E2,2.700904E2,1.048496E2,3.1237708E2,4.1359735E2,3.405262E2,4.023994E2,6.087194E2,1.1219514E2,5.8034637E1,6.4962305E2,6.373956E1,9.178082E0,3.777981E2],"tree_param":{"num_deleted":"0","num_feature":"142","num_nodes":"31","size_leaf_vector":"1"}},{"base_weights":[-8.637917E-3,-4.9044633E-1,5.837655E-1,-2.7985787E-1,-9.488085E-1,1.1392457E0,4.3818754E-1,-4.6116364E-1,-1.350143E-1,-1.2617996E0,-8.351507E-1,1.4276797E0,8.496353E-1,7.957024E-1,2.421064E-1,-1.3233511E-2,-7.3598754E-3,2.6406816E-3,-5.2275257E-3,-2.6327573E-2,-1.8073726E-2,-2.1024492E-2,-1.4778893E-2,3.0094346E-2,2.2443347E-2,8.782239E-3,1.9711833E-2,2.8326537E-3,1.8557576E-2,2.2129293E-3,9.992555E-3],"categories":[],"categories_nodes":[],"categories_segments":[],"categories_sizes":[],"default_left":[0,0,0,0,0,0,0,0,0,0,0,0,0,0,1,0,0,0,0,0,0,0,0,0,0,0,0,0,0,0,0],"id":11,"left_children":[1,3,5,7,9,11,13,15,17,19,21,23,25,27,29,-1,-1,-1,-1,-1,-1,-1,-1,-1,-1,-1,-1,-1,-1,-1,-1],"loss_changes":[1.2050916E3,2.242378E2,1.5222375E2,4.1805344E1,2.4258179E1,3.0709778E1,1.0497006E2,1.2770294E1,3.0118174E1,1.7442627E0,9.919464E0,1.7726135E0,1.0345856E1,4.5647003E1,3.2794987E1,0E0,0E0,0E0,0E0,0E0,0E0,0E0,0E0,0E0,0E0,0E0,0E0,0E0,0E0,0E0,0E0],"parents":[2147483647,0,0,1,1,2,2,3,3,4,4,5,5,6,6,7,7,8,8,9,9,10,10,11,11,12,12,13,13,14,14],"right_children":[2,4,6,8,10,12,14,16,18,20,22,24,26,28,30,-1,-1,-1,-1,-1,-1,-1,-1,-1,-1,-1,-1,-1,-1,-1,-1],"split_conditions":[6.323767E-1,6.172249E-1,1.6E-1,5.116279E-1,2.4210526E-1,2E0,2E0,2E0,2E0,1.107E2,2E0,3E0,6.9117236E0,4.8E-1,7.285667E-1,-1.3233511E-2,-7.3598754E-3,2.6406816E-3,-5.2275257E-3,-2.6327573E-2,-1.8073726E-2,-2.1024492E-2,-1.4778893E-2,3.0094346E-2,2.2443347E-2,8.782239E-3,1.9711833E-2,2.8326537E-3,1.8557576E-2,2.2129293E-3,9.992555E-3],"split_indices":[18,19,19,18,25,48,91,48,91,75,48,91,120,63,25,0,0,0,0,0,0,0,0,0,0,0,0,0,0,0,0],"split_type":[0,0,0,0,0,0,0,0,0,0,0,0,0,0,0,0,0,0,0,0,0,0,0,0,0,0,0,0,0,0,0],"sum_hessian":[4.2191235E3,2.3269863E3,1.8921373E3,1.5962461E3,7.3074023E2,3.9064233E2,1.501495E3,7.0713464E2,8.891114E2,1.9039566E2,5.403446E2,1.925925E2,1.9804984E2,5.300173E2,9.714778E2,2.210926E2,4.8604202E2,2.8530356E2,6.0380786E2,1.614903E2,2.8905373E1,1.6155986E2,3.7878473E2,1.488448E2,4.3747704E1,5.1033443E1,1.4701639E2,8.975118E1,4.4026608E2,6.448345E2,3.266433E2],"tree_param":{"num_deleted":"0","num_feature":"142","num_nodes":"31","size_leaf_vector":"1"}},{"base_weights":[8.231977E-3,-4.6629128E-1,5.787494E-1,-2.0836505E-1,-8.203198E-1,1.1433403E0,4.3528605E-1,2.6994817E-2,-3.2255942E-1,-1.1788968E0,-7.137404E-1,1.4073076E0,8.818499E-1,7.997818E-1,2.4127239E-1,-8.771154E-3,2.487539E-3,-7.4067106E-3,4.8584866E-4,-2.6192341E-2,-1.9684164E-2,-1.8753223E-2,-1.2302861E-2,2.9856812E-2,2.1399025E-2,1.9039711E-2,1.5244081E-3,1.8377262E-3,1.8588891E-2,1.5048833E-3,7.1610105E-3],"categories":[],"categories_nodes":[],"categories_segments":[],"categories_sizes":[],"default_left":[0,0,0,0,0,0,0,0,0,0,0,0,0,0,0,0,0,0,0,0,0,0,0,0,0,0,0,0,0,0,0],"id":12,"left_children":[1,3,5,7,9,11,13,15,17,19,21,23,25,27,29,-1,-1,-1,-1,-1,-1,-1,-1,-1,-1,-1,-1,-1,-1,-1,-1],"loss_changes":[1.1483213E3,2.110806E2,1.5510522E2,3.6104927E1,3.582074E1,2.477359E1,1.083974E2,1.9972776E1,1.5025696E1,3.460205E0,1.566684E1,2.8583374E0,1.1073288E1,4.8745575E1,1.942723E1,0E0,0E0,0E0,0E0,0E0,0E0,0E0,0E0,0E0,0E0,0E0,0E0,0E0,0E0,0E0,0E0],"parents":[2147483647,0,0,1,1,2,2,3,3,4,4,5,5,6,6,7,7,8,8,9,9,10,10,11,11,12,12,13,13,14,14],"right_children":[2,4,6,8,10,12,14,16,18,20,22,24,26,28,30,-1,-1,-1,-1,-1,-1,-1,-1,-1,-1,-1,-1,-1,-1,-1,-1],"split_conditions":[6.304647E-1,5.71116E-1,1.6E-1,2E0,2.5534442E-1,2E0,2E0,-5.9832413E-2,6.877539E-1,3E0,2E0,3E0,6.818182E-1,4E-1,7.050631E-1,-8.771154E-3,2.487539E-3,-7.4067106E-3,4.8584866E-4,-2.6192341E-2,-1.9684164E-2,-1.8753223E-2,-1.2302861E-2,2.9856812E-2,2.1399025E-2,1.9039711E-2,1.5244081E-3,1.8377262E-3,1.8588891E-2,1.5048833E-3,7.1610105E-3],"split_indices":[18,19,19,91,25,48,91,129,5,48,48,91,15,63,18,0,0,0,0,0,0,0,0,0,0,0,0,0,0,0,0],"split_type":[0,0,0,0,0,0,0,0,0,0,0,0,0,0,0,0,0,0,0,0,0,0,0,0,0,0,0,0,0,0,0],"sum_hessian":[4.238634E3,2.3140447E3,1.9245891E3,1.3402646E3,9.7378E2,3.8769382E2,1.5368954E3,4.3793344E2,9.0233124E2,2.1944525E2,7.543348E2,1.8947202E2,1.9822179E2,5.32077E2,1.00481836E3,7.467142E1,3.6326202E2,7.9325354E2,1.0907771E2,1.2584505E2,9.3600204E1,2.2639603E2,5.279388E2,1.4681464E2,4.265738E1,1.8198233E2,1.6239462E1,8.288725E1,4.4918976E2,4.1628787E2,5.8853046E2],"tree_param":{"num_deleted":"0","num_feature":"142","num_nodes":"31","size_leaf_vector":"1"}},{"base_weights":[3.483668E-3,-4.6815982E-1,5.582446E-1,-2.727134E-1,-8.863718E-1,4.0687165E-1,1.1216719E0,-4.426718E-1,-1.2953396E-1,-1.1763991E0,-7.6985157E-1,7.2763264E-1,2.2777908E-1,1.3782686E0,8.853397E-1,-9.395897E-3,1.8372914E-3,2.9257105E-3,-5.185615E-3,-7.834647E-3,-2.4022484E-2,-1.9387128E-2,-1.3556457E-2,2.7087484E-3,1.7288113E-2,2.701074E-3,8.200672E-3,2.93355E-2,2.0845339E-2,1.8202769E-2,-7.0219776E-3],"categories":[],"categories_nodes":[],"categories_segments":[],"categories_sizes":[],"default_left":[0,0,1,0,0,0,0,0,0,0,0,0,0,0,0,0,0,0,0,0,0,0,0,0,0,0,0,0,0,0,0],"id":13,"left_children":[1,3,5,7,9,11,13,15,17,19,21,23,25,27,29,-1,-1,-1,-1,-1,-1,-1,-1,-1,-1,-1,-1,-1,-1,-1,-1],"loss_changes":[1.1077335E3,1.8654944E2,1.6508862E2,3.786026E1,2.3046509E1,8.789194E1,2.2867188E1,1.0441788E1,3.0489445E1,3.1226807E0,8.468262E0,4.4227386E1,1.6559948E1,3.2297974E0,7.230179E0,0E0,0E0,0E0,0E0,0E0,0E0,0E0,0E0,0E0,0E0,0E0,0E0,0E0,0E0,0E0,0E0],"parents":[2147483647,0,0,1,1,2,2,3,3,4,4,5,5,6,6,7,7,8,8,9,9,10,10,11,11,12,12,13,13,14,14],"right_children":[2,4,6,8,10,12,14,16,18,20,22,24,26,28,30,-1,-1,-1,-1,-1,-1,-1,-1,-1,-1,-1,-1,-1,-1,-1,-1],"split_conditions":[6.261006E-1,6.172249E-1,8.1393975E-1,5.116279E-1,2.4337554E-1,2E0,2E0,3E0,2E0,4.857143E-1,2E0,4.8E-1,7.4908096E-1,3E0,-9E0,-9.395897E-3,1.8372914E-3,2.9257105E-3,-5.185615E-3,-7.834647E-3,-2.4022484E-2,-1.9387128E-2,-1.3556457E-2,2.7087484E-3,1.7288113E-2,2.701074E-3,8.200672E-3,2.93355E-2,2.0845339E-2,1.8202769E-2,-7.0219776E-3],"split_indices":[18,19,25,18,18,91,48,130,91,107,48,63,18,91,20,0,0,0,0,0,0,0,0,0,0,0,0,0,0,0,0],"split_type":[0,0,0,0,0,0,0,0,0,0,0,0,0,0,0,0,0,0,0,0,0,0,0,0,0,0,0,0,0,0,0],"sum_hessian":[4.230624E3,2.2866375E3,1.9439866E3,1.5602094E3,7.264281E2,1.5344855E3,4.0950107E2,7.116375E2,8.4857184E2,2.0404443E2,5.2238367E2,5.479447E2,9.865408E2,1.9265541E2,2.1684567E2,6.776228E2,3.4014694E1,2.711632E2,5.774086E2,7.1284313E0,1.96916E2,1.6004434E2,3.6233936E2,1.0350568E2,4.4443903E2,6.5596606E2,3.3057468E2,1.4825719E2,4.439823E1,2.1304936E2,3.7963092E0],"tree_param":{"num_deleted":"0","num_feature":"142","num_nodes":"31","size_leaf_vector":"1"}},{"base_weights":[-2.3138835E-3,-4.5567924E-1,5.5501264E-1,-8.803607E-1,-2.625184E-1,2.888659E-1,8.2676125E-1,-1.1563483E0,-7.698601E-1,-4.088825E-1,-1.0533649E-1,6.309643E-1,1.13716446E-1,1.1219555E0,6.521776E-1,-2.3475725E-2,-1.9608047E-3,-1.597814E-2,-5.216591E-3,-9.239333E-3,-2.272496E-3,3.0961414E-3,-4.4324244E-3,-4.647951E-4,1.50168585E-2,9.245775E-4,6.7149345E-3,7.5742104E-3,2.4841325E-2,9.669008E-3,2.1476826E-2],"categories":[],"categories_nodes":[],"categories_segments":[],"categories_sizes":[],"default_left":[0,0,0,0,0,0,0,0,0,0,0,0,0,0,0,0,0,0,0,0,0,0,0,0,0,0,0,0,0,0,0],"id":14,"left_children":[1,3,5,7,9,11,13,15,17,19,21,23,25,27,29,-1,-1,-1,-1,-1,-1,-1,-1,-1,-1,-1,-1,-1,-1,-1,-1],"loss_changes":[1.0706746E3,1.9122684E2,1.3699756E2,2.0727234E1,3.6888626E1,5.750328E1,4.714087E1,3.4907227E0,7.35672E0,1.2904953E1,2.3591223E1,2.562442E1,9.509843E0,3.009491E1,4.133496E1,0E0,0E0,0E0,0E0,0E0,0E0,0E0,0E0,0E0,0E0,0E0,0E0,0E0,0E0,0E0,0E0],"parents":[2147483647,0,0,1,1,2,2,3,3,4,4,5,5,6,6,7,7,8,8,9,9,10,10,11,11,12,12,13,13,14,14],"right_children":[2,4,6,8,10,12,14,16,18,20,22,24,26,28,30,-1,-1,-1,-1,-1,-1,-1,-1,-1,-1,-1,-1,-1,-1,-1,-1],"split_conditions":[6.304647E-1,3.8277513E-1,7.5164855E-1,2.4337554E-1,5.3056675E-1,2E0,2E0,8.0487806E-1,3E0,2E0,2E0,4.4E-1,1.068E2,4.8E-1,8.706972E-1,-2.3475725E-2,-1.9608047E-3,-1.597814E-2,-5.216591E-3,-9.239333E-3,-2.272496E-3,3.0961414E-3,-4.4324244E-3,-4.647951E-4,1.50168585E-2,9.245775E-4,6.7149345E-3,7.5742104E-3,2.4841325E-2,9.669008E-3,2.1476826E-2],"split_indices":[18,18,18,18,18,91,91,12,130,130,91,106,74,63,18,0,0,0,0,0,0,0,0,0,0,0,0,0,0,0,0],"split_type":[0,0,0,0,0,0,0,0,0,0,0,0,0,0,0,0,0,0,0,0,0,0,0,0,0,0,0,0,0,0,0],"sum_hessian":[4.234438E3,2.3352488E3,1.8991891E3,7.282567E2,1.6069922E3,9.6123334E2,9.379558E2,2.0389769E2,5.24359E2,8.3055786E2,7.7643427E2,3.239758E2,6.372575E2,3.4533484E2,5.92621E2,2.0033852E2,3.5591755E0,4.9505865E2,2.9300333E1,7.029834E2,1.275745E2,2.3943384E2,5.370004E2,5.023075E1,2.7374506E2,4.9044592E2,1.4681158E2,4.902573E1,2.963091E2,4.2572546E2,1.668955E2],"tree_param":{"num_deleted":"0","num_feature":"142","num_nodes":"31","size_leaf_vector":"1"}},{"base_weights":[3.245822E-3,-5.4901266E-1,4.5091784E-1,-3.359812E-1,-8.850465E-1,2.1456668E-1,7.931011E-1,-1.1872106E-1,-4.4063446E-1,-1.1362889E0,-7.8436136E-1,4.1149613E-1,-6.596955E-2,1.0788553E0,5.5738837E-1,8.970055E-4,-7.953773E-3,-1.5290067E-2,-7.3436694E-3,-2.3068484E-2,-1.9123395E-3,-1.8121494E-2,-1.203723E-2,6.839463E-4,9.444904E-3,-3.6340582E-3,1.7296817E-3,6.0161776E-3,2.3362879E-2,1.6493004E-2,9.055065E-3],"categories":[],"categories_nodes":[],"categories_segments":[],"categories_sizes":[],"default_left":[0,0,0,0,0,0,0,0,0,0,0,0,0,0,0,0,0,0,0,0,0,0,0,0,0,0,0,0,0,0,0],"id":15,"left_children":[1,3,5,7,9,11,13,15,17,19,21,23,25,27,29,-1,-1,-1,-1,-1,-1,-1,-1,-1,-1,-1,-1,-1,-1,-1,-1],"loss_changes":[1.0414869E3,1.3443701E2,1.8781912E2,2.6167831E1,1.6953064E1,7.622664E1,6.291028E1,1.733059E1,1.8017593E1,3.372406E0,1.0730957E1,1.8497772E1,1.0083179E1,2.9027618E1,1.39596405E1,0E0,0E0,0E0,0E0,0E0,0E0,0E0,0E0,0E0,0E0,0E0,0E0,0E0,0E0,0E0,0E0],"parents":[2147483647,0,0,1,1,2,2,3,3,4,4,5,5,6,6,7,7,8,8,9,9,10,10,11,11,12,12,13,13,14,14],"right_children":[2,4,6,8,10,12,14,16,18,20,22,24,26,28,30,-1,-1,-1,-1,-1,-1,-1,-1,-1,-1,-1,-1,-1,-1,-1,-1],"split_conditions":[5.792858E-1,6.172249E-1,7.4908096E-1,2E0,2.4337554E-1,3E0,2E0,5.399277E-1,2E0,7.804878E-1,3E0,2.3529412E-1,1.8697749E-1,2.2857143E-1,1.421005E-1,8.970055E-4,-7.953773E-3,-1.5290067E-2,-7.3436694E-3,-2.3068484E-2,-1.9123395E-3,-1.8121494E-2,-1.203723E-2,6.839463E-4,9.444904E-3,-3.6340582E-3,1.7296817E-3,6.0161776E-3,2.3362879E-2,1.6493004E-2,9.055065E-3],"split_indices":[18,19,18,91,18,91,48,19,48,12,48,13,101,64,19,0,0,0,0,0,0,0,0,0,0,0,0,0,0,0,0],"split_type":[0,0,0,0,0,0,0,0,0,0,0,0,0,0,0,0,0,0,0,0,0,0,0,0,0,0,0,0,0,0,0],"sum_hessian":[4.20965E3,1.8844214E3,2.3252285E3,1.1553041E3,7.291173E2,1.376909E3,9.4831934E2,3.769381E2,7.78366E2,2.0389958E2,5.252177E2,8.088046E2,5.681045E2,4.260408E2,5.222785E2,2.3818175E2,1.3875636E2,1.4103291E2,6.3733307E2,2.0034218E2,3.5574014E0,3.1118576E2,2.14032E2,1.1271953E2,6.960851E2,3.2315408E2,2.4495042E2,4.4649162E1,3.8139163E2,1.4377278E2,3.7850574E2],"tree_param":{"num_deleted":"0","num_feature":"142","num_nodes":"31","size_leaf_vector":"1"}},{"base_weights":[-1.9066557E-3,4.9555576E-1,-4.8398116E-1,1.0331078E0,3.660398E-1,-3.0149424E-1,-8.617979E-1,1.3294266E0,7.652328E-1,5.680487E-1,2.461265E-1,-1.2437297E-1,-4.3563563E-1,-7.712638E-1,-1.1344031E0,2.70156E-2,8.428189E-4,1.8609721E-2,1.017955E-2,1.5482204E-2,6.007237E-3,3.5518678E-3,1.0521847E-2,-7.5352746E-3,-1.3727958E-3,-1.2042377E-2,-7.174425E-3,-1.6589504E-2,-8.566008E-3,-2.5222927E-2,-1.8906355E-2],"categories":[],"categories_nodes":[],"categories_segments":[],"categories_sizes":[],"default_left":[0,0,0,0,0,0,1,0,0,0,0,0,0,0,0,0,0,0,0,0,0,0,0,0,0,0,0,0,0,0,0],"id":16,"left_children":[1,3,5,7,9,11,13,15,17,19,21,23,25,27,29,-1,-1,-1,-1,-1,-1,-1,-1,-1,-1,-1,-1,-1,-1,-1,-1],"loss_changes":[1.0098359E3,1.4356848E2,1.469455E2,3.0124329E1,4.022055E1,3.4184982E1,1.566333E1,4.952881E0,8.2298355E0,3.382573E1,1.9981972E1,8.707915E0,1.0094131E1,9.864685E0,2.0639038E0,0E0,0E0,0E0,0E0,0E0,0E0,0E0,0E0,0E0,0E0,0E0,0E0,0E0,0E0,0E0,0E0],"parents":[2147483647,0,0,1,1,2,2,3,3,4,4,5,5,6,6,7,7,8,8,9,9,10,10,11,11,12,12,13,13,14,14],"right_children":[2,4,6,8,10,12,14,16,18,20,22,24,26,28,30,-1,-1,-1,-1,-1,-1,-1,-1,-1,-1,-1,-1,-1,-1,-1,-1],"split_conditions":[3.9209884E-1,-9.5E0,6.2473005E-1,2E0,2E0,4.760994E-1,8.5E0,1.06408E2,5.077377E-1,2.9341793E-1,3.5857582E-1,4.58875E-1,2E0,4E0,3E0,2.70156E-2,8.428189E-4,1.8609721E-2,1.017955E-2,1.5482204E-2,6.007237E-3,3.5518678E-3,1.0521847E-2,-7.5352746E-3,-1.3727958E-3,-1.2042377E-2,-7.174425E-3,-1.6589504E-2,-8.566008E-3,-2.5222927E-2,-1.8906355E-2],"split_indices":[19,20,19,48,48,19,20,6,10,19,102,46,48,48,48,0,0,0,0,0,0,0,0,0,0,0,0,0,0,0,0],"split_type":[0,0,0,0,0,0,0,0,0,0,0,0,0,0,0,0,0,0,0,0,0,0,0,0,0,0,0,0,0,0,0],"sum_hessian":[4.2079185E3,2.0707844E3,2.1371338E3,3.998757E2,1.6709088E3,1.4430817E3,6.940522E2,1.8685838E2,2.130173E2,6.200007E2,1.0509082E3,6.234758E2,8.1960583E2,5.2560547E2,1.6844672E2,1.8366017E2,3.1982121E0,1.26866844E2,8.615047E1,3.4851083E2,2.7148984E2,8.4650104E2,2.0440712E2,1.1088637E2,5.125895E2,2.5535027E2,5.6425555E2,4.4727048E2,7.833497E1,9.5440094E1,7.300662E1],"tree_param":{"num_deleted":"0","num_feature":"142","num_nodes":"31","size_leaf_vector":"1"}},{"base_weights":[2.8886485E-3,-4.3194908E-1,5.017819E-1,-7.290544E-1,-1.5947716E-1,2.9318255E-1,8.3500326E-1,-9.9482185E-1,-5.800852E-1,7.13615E-2,-2.7036327E-1,5.7349694E-1,1.4708373E-1,1.1295635E0,5.9228396E-1,-2.4879852E-2,-1.7657582E-2,-1.5457303E-2,-9.965481E-3,-5.218323E-4,1.0539772E-2,-1.5055517E-2,-4.8855147E-3,1.3452983E-3,1.3583993E-2,3.6623962E-3,-8.070577E-3,6.5666013E-3,2.3911938E-2,1.3424671E-2,4.536388E-3],"categories":[],"categories_nodes":[],"categories_segments":[],"categories_sizes":[],"default_left":[0,0,0,0,0,0,0,0,0,0,0,0,0,0,0,0,0,0,0,0,0,0,0,0,0,0,0,0,0,0,0],"id":17,"left_children":[1,3,5,7,9,11,13,15,17,19,21,23,25,27,29,-1,-1,-1,-1,-1,-1,-1,-1,-1,-1,-1,-1,-1,-1,-1,-1],"loss_changes":[9.115886E2,1.8148032E2,1.3554999E2,4.147345E1,3.007825E1,4.919358E1,5.26203E1,8.828674E0,1.0204025E1,1.7013546E1,9.605522E0,2.19281E1,1.5864782E1,1.7145996E1,1.1680756E1,0E0,0E0,0E0,0E0,0E0,0E0,0E0,0E0,0E0,0E0,0E0,0E0,0E0,0E0,0E0,0E0],"parents":[2147483647,0,0,1,1,2,2,3,3,4,4,5,5,6,6,7,7,8,8,9,9,10,10,11,11,12,12,13,13,14,14],"right_children":[2,4,6,8,10,12,14,16,18,20,22,24,26,28,30,-1,-1,-1,-1,-1,-1,-1,-1,-1,-1,-1,-1,-1,-1,-1,-1],"split_conditions":[6.2286836E-1,4.4799376E-1,7.770904E-1,3.0423003E-1,2E0,2E0,2E0,2E0,2E0,1.566275E3,-1E0,5.3333336E-1,4.6774796E-1,4E0,1.00856E2,-2.4879852E-2,-1.7657582E-2,-1.5457303E-2,-9.965481E-3,-5.218323E-4,1.0539772E-2,-1.5055517E-2,-4.8855147E-3,1.3452983E-3,1.3583993E-2,3.6623962E-3,-8.070577E-3,6.5666013E-3,2.3911938E-2,1.3424671E-2,4.536388E-3],"split_indices":[18,18,18,18,91,91,48,48,48,3,126,106,59,53,6,0,0,0,0,0,0,0,0,0,0,0,0,0,0,0,0],"split_type":[0,0,0,0,0,0,0,0,0,0,0,0,0,0,0,0,0,0,0,0,0,0,0,0,0,0,0,0,0,0,0],"sum_hessian":[4.1990464E3,2.2435547E3,1.955492E3,1.071884E3,1.1716705E3,1.2045521E3,7.509398E2,3.8170947E2,6.9017456E2,3.8007565E2,7.915949E2,4.1096887E2,7.9358325E2,3.3657965E2,4.143602E2,1.13348045E2,2.6836142E2,2.0149013E2,4.8868442E2,3.140902E2,6.598546E1,3.82708E1,7.533241E2,7.1576225E1,3.3939264E2,7.459459E2,4.7637375E1,2.6424484E1,3.1015515E2,3.3949255E2,7.486764E1],"tree_param":{"num_deleted":"0","num_feature":"142","num_nodes":"31","size_leaf_vector":"1"}},{"base_weights":[6.439697E-3,4.393344E-1,-4.7891763E-1,1.0226897E0,3.115626E-1,-2.841363E-1,-8.1686026E-1,1.3314832E0,8.604659E-1,6.314173E-1,1.4113475E-1,-4.824511E-1,-1.9024211E-1,-9.9961334E-1,-6.643468E-1,2.7210662E-2,3.8244857E-3,1.316632E-2,2.1189552E-2,1.2573686E-3,1.5134039E-2,-4.707293E-4,5.6471694E-3,-1.0319458E-2,3.6787735E-3,-9.049238E-3,-2.2036277E-3,-2.2595152E-2,-1.4806273E-2,-1.4379588E-2,-5.243216E-3],"categories":[],"categories_nodes":[],"categories_segments":[],"categories_sizes":[],"default_left":[0,0,0,0,0,0,0,1,1,0,0,1,0,0,0,0,0,0,0,0,0,0,0,0,0,0,0,0,0,0,0],"id":18,"left_children":[1,3,5,7,9,11,13,15,17,19,21,23,25,27,29,-1,-1,-1,-1,-1,-1,-1,-1,-1,-1,-1,-1,-1,-1,-1,-1],"loss_changes":[8.885771E2,1.6601358E2,1.307745E2,1.8142975E1,9.987999E1,2.3391136E1,1.912738E1,3.9299927E0,9.533691E0,4.5264786E1,2.7942444E1,9.242035E0,1.798293E1,9.623199E0,8.442871E0,0E0,0E0,0E0,0E0,0E0,0E0,0E0,0E0,0E0,0E0,0E0,0E0,0E0,0E0,0E0,0E0],"parents":[2147483647,0,0,1,1,2,2,3,3,4,4,5,5,6,6,7,7,8,8,9,9,10,10,11,11,12,12,13,13,14,14],"right_children":[2,4,6,8,10,12,14,16,18,20,22,24,26,28,30,-1,-1,-1,-1,-1,-1,-1,-1,-1,-1,-1,-1,-1,-1,-1,-1],"split_conditions":[4.0832075E-1,-9.5E0,6.172249E-1,2E0,2E0,0E0,2.9765546E-1,6.2528634E0,8.72093E-1,4.8E-1,6.9097877E-1,2.6875E1,4.5725647E-1,3E0,9.5555556E-1,2.7210662E-2,3.8244857E-3,1.316632E-2,2.1189552E-2,1.2573686E-3,1.5134039E-2,-4.707293E-4,5.6471694E-3,-1.0319458E-2,3.6787735E-3,-9.049238E-3,-2.2036277E-3,-2.2595152E-2,-1.4806273E-2,-1.4379588E-2,-5.243216E-3],"split_indices":[19,20,19,91,91,130,25,132,25,63,18,51,25,91,109,0,0,0,0,0,0,0,0,0,0,0,0,0,0,0,0],"split_type":[0,0,0,0,0,0,0,0,0,0,0,0,0,0,0,0,0,0,0,0,0,0,0,0,0,0,0,0,0,0,0],"sum_hessian":[4.226149E3,2.233985E3,1.9921637E3,3.993631E2,1.834622E3,1.2657028E3,7.2646094E2,1.3360936E2,2.6575375E2,6.3612134E2,1.1985006E3,4.0436575E2,8.6133704E2,3.2638046E2,4.0008047E2,1.2992192E2,3.6874392E0,1.3529237E2,1.3046136E2,1.154146E2,5.207067E2,5.535667E2,6.449339E2,3.8546414E2,1.8901596E1,1.9954588E2,6.617912E2,2.1370122E2,1.1267924E2,3.5097424E2,4.910623E1],"tree_param":{"num_deleted":"0","num_feature":"142","num_nodes":"31","size_leaf_vector":"1"}},{"base_weights":[-7.3231603E-3,4.9919704E-1,-4.2269012E-1,9.119172E-1,3.4693116E-1,-2.3451605E-1,-8.63012E-1,1.2085865E0,6.403013E-1,7.019303E-1,2.7330273E-1,-1.0567286E-1,-4.0080366E-1,-7.6027733E-1,-1.1007448E0,9.946488E-3,2.5550818E-2,-9.889626E-3,1.3740157E-2,-5.742813E-4,2.0149836E-2,-3.006785E-3,6.256771E-3,5.122161E-3,-3.4732968E-3,-1.2114444E-2,-6.084085E-3,-1.641511E-2,-7.5305905E-3,-2.6672324E-2,-1.9835098E-2],"categories":[],"categories_nodes":[],"categories_segments":[],"categories_sizes":[],"default_left":[0,0,0,0,0,0,0,0,0,0,0,0,0,0,0,0,0,0,0,0,0,0,0,0,0,0,0,0,0,0,0],"id":19,"left_children":[1,3,5,7,9,11,13,15,17,19,21,23,25,27,29,-1,-1,-1,-1,-1,-1,-1,-1,-1,-1,-1,-1,-1,-1,-1,-1],"loss_changes":[8.8397394E2,1.1836047E2,1.9087183E2,3.967502E1,3.5826675E1,3.458631E1,1.5422668E1,1.0711151E1,1.4792717E1,5.300683E1,1.9350212E1,2.256416E1,1.361171E1,1.0725708E1,2.9791565E0,0E0,0E0,0E0,0E0,0E0,0E0,0E0,0E0,0E0,0E0,0E0,0E0,0E0,0E0,0E0,0E0],"parents":[2147483647,0,0,1,1,2,2,3,3,4,4,5,5,6,6,7,7,8,8,9,9,10,10,11,11,12,12,13,13,14,14],"right_children":[2,4,6,8,10,12,14,16,18,20,22,24,26,28,30,-1,-1,-1,-1,-1,-1,-1,-1,-1,-1,-1,-1,-1,-1,-1,-1],"split_conditions":[3.6953536E-1,1.8247904E-1,6.2473005E-1,2E0,1E0,4.931215E-1,7.5662446E-1,3E0,2.940909E-1,2.857143E-1,1.4259845E3,1E0,2E0,4E0,2E0,9.946488E-3,2.5550818E-2,-9.889626E-3,1.3740157E-2,-5.742813E-4,2.0149836E-2,-3.006785E-3,6.256771E-3,5.122161E-3,-3.4732968E-3,-1.2114444E-2,-6.084085E-3,-1.641511E-2,-7.5305905E-3,-2.6672324E-2,-1.9835098E-2],"split_indices":[19,19,19,48,90,19,19,65,66,64,3,90,48,48,48,0,0,0,0,0,0,0,0,0,0,0,0,0,0,0,0],"split_type":[0,0,0,0,0,0,0,0,0,0,0,0,0,0,0,0,0,0,0,0,0,0,0,0,0,0,0,0,0,0,0],"sum_hessian":[4.1985938E3,1.8914803E3,2.3071135E3,5.0756723E2,1.3839131E3,1.6181246E3,6.8898883E2,2.3994623E2,2.67621E2,2.3529265E2,1.1486205E3,9.1343225E2,7.046924E2,4.8577994E2,2.0320888E2,2.2422981E1,2.1752324E2,9.926455E0,2.5769455E2,6.968851E1,1.6560414E2,9.7468956E1,1.0511515E3,1.436198E2,7.6981244E2,2.2290273E2,4.8178964E2,4.1794376E2,6.7836174E1,5.9119793E1,1.440891E2],"tree_param":{"num_deleted":"0","num_feature":"142","num_nodes":"31","size_leaf_vector":"1"}},{"base_weights":[-1.5798626E-2,-4.3017933E-1,4.8616728E-1,-2.0730747E-1,-7.3610055E-1,1.009474E0,3.5346758E-1,-4.2641443E-1,-1.0251455E-1,-5.568337E-1,-9.086033E-1,1.2728219E0,7.547941E-1,6.729039E-1,1.7916223E-1,-1.2464988E-2,-5.351288E-3,1.7057174E-4,-4.6992204E-3,1.0724356E-2,-1.1492637E-2,-1.857036E-2,-1.042886E-3,1.25898095E-2,2.631987E-2,1.6074577E-2,-6.553146E-3,1.460107E-3,1.5502947E-2,1.435587E-3,7.875849E-3],"categories":[],"categories_nodes":[],"categories_segments":[],"categories_sizes":[],"default_left":[0,0,0,0,0,0,0,0,0,0,0,0,0,0,0,0,0,0,0,0,0,0,0,0,0,0,0,0,0,0,0],"id":20,"left_children":[1,3,5,7,9,11,13,15,17,19,21,23,25,27,29,-1,-1,-1,-1,-1,-1,-1,-1,-1,-1,-1,-1,-1,-1,-1,-1],"loss_changes":[8.693948E2,1.5579019E2,1.305763E2,3.0348793E1,2.8913391E1,2.3933746E1,8.3818756E1,1.3059479E1,1.326072E1,9.746094E0,8.165344E0,3.7040405E0,1.0917313E1,3.2484375E1,2.2480976E1,0E0,0E0,0E0,0E0,0E0,0E0,0E0,0E0,0E0,0E0,0E0,0E0,0E0,0E0,0E0,0E0],"parents":[2147483647,0,0,1,1,2,2,3,3,4,4,5,5,6,6,7,7,8,8,9,9,10,10,11,11,12,12,13,13,14,14],"right_children":[2,4,6,8,10,12,14,16,18,20,22,24,26,28,30,-1,-1,-1,-1,-1,-1,-1,-1,-1,-1,-1,-1,-1,-1,-1,-1],"split_conditions":[6.304647E-1,5.71116E-1,1.6E-1,0E0,6.6664904E-1,2E0,2E0,7.2E-1,4.6753246E-1,1E0,1.1408372E2,4E0,7.416E0,1.3333334E-1,7.541625E-1,-1.2464988E-2,-5.351288E-3,1.7057174E-4,-4.6992204E-3,1.0724356E-2,-1.1492637E-2,-1.857036E-2,-1.042886E-3,1.25898095E-2,2.631987E-2,1.6074577E-2,-6.553146E-3,1.460107E-3,1.5502947E-2,1.435587E-3,7.875849E-3],"split_indices":[18,19,19,130,19,48,91,66,19,14,84,14,8,107,18,0,0,0,0,0,0,0,0,0,0,0,0,0,0,0,0],"split_type":[0,0,0,0,0,0,0,0,0,0,0,0,0,0,0,0,0,0,0,0,0,0,0,0,0,0,0,0,0,0,0],"sum_hessian":[4.1767007E3,2.2881833E3,1.8885175E3,1.3254215E3,9.627619E2,3.798599E2,1.5086576E3,4.2702194E2,8.9839954E2,4.755188E2,4.872431E2,1.8361072E2,1.9624916E2,5.3088324E2,9.777743E2,1.8846973E2,2.3855223E2,4.8903827E2,4.0936127E2,6.828759E0,4.6869006E2,4.7593356E2,1.1309542E1,1.3162031E1,1.7044868E2,1.882189E2,8.03026E0,7.7822174E1,4.530611E2,6.53357E2,3.244173E2],"tree_param":{"num_deleted":"0","num_feature":"142","num_nodes":"31","size_leaf_vector":"1"}},{"base_weights":[-2.3105275E-3,-4.0433738E-1,4.873674E-1,-1.7736234E-1,-7.198184E-1,9.2125857E-1,3.3275807E-1,-3.931608E-1,-7.224239E-2,-9.611749E-1,-5.9968376E-1,1.2175902E0,7.5658625E-1,6.195978E-1,1.8155617E-1,-8.9874035E-3,4.775121E-5,-3.8145622E-3,6.3164334E-4,-2.0625884E-2,-9.454502E-3,-1.7730404E-2,-1.1144027E-2,1.2884459E-2,2.6616782E-2,1.607189E-2,-3.2934342E-5,-3.8376648E-4,1.4973672E-2,2.2829303E-3,8.113352E-3],"categories":[],"categories_nodes":[],"categories_segments":[],"categories_sizes":[],"default_left":[0,0,0,0,0,0,0,0,0,0,0,0,0,0,0,0,0,0,0,0,0,0,0,0,0,0,0,0,0,0,0],"id":21,"left_children":[1,3,5,7,9,11,13,15,17,19,21,23,25,27,29,-1,-1,-1,-1,-1,-1,-1,-1,-1,-1,-1,-1,-1,-1,-1,-1],"loss_changes":[8.240736E2,1.643324E2,1.2601373E2,3.028909E1,2.685019E1,2.2564697E1,6.0205765E1,9.784653E0,1.1129072E1,9.964508E0,6.987015E0,9.8186035E0,1.1567139E1,3.969867E1,1.3703381E1,0E0,0E0,0E0,0E0,0E0,0E0,0E0,0E0,0E0,0E0,0E0,0E0,0E0,0E0,0E0,0E0],"parents":[2147483647,0,0,1,1,2,2,3,3,4,4,5,5,6,6,7,7,8,8,9,9,10,10,11,11,12,12,13,13,14,14],"right_children":[2,4,6,8,10,12,14,16,18,20,22,24,26,28,30,-1,-1,-1,-1,-1,-1,-1,-1,-1,-1,-1,-1,-1,-1,-1,-1],"split_conditions":[6.304647E-1,5.71116E-1,1.8247904E-1,0E0,2.9765546E-1,2E0,2E0,6.877539E-1,4.8931837E-1,4E0,1E0,6.5E-1,9.714286E-1,2.857143E-1,3.6304945E-1,-8.9874035E-3,4.775121E-5,-3.8145622E-3,6.3164334E-4,-2.0625884E-2,-9.454502E-3,-1.7730404E-2,-1.1144027E-2,1.2884459E-2,2.6616782E-2,1.607189E-2,-3.2934342E-5,-3.8376648E-4,1.4973672E-2,2.2829303E-3,8.113352E-3],"split_indices":[18,19,19,130,25,91,91,5,46,91,47,63,107,64,100,0,0,0,0,0,0,0,0,0,0,0,0,0,0,0,0],"split_type":[0,0,0,0,0,0,0,0,0,0,0,0,0,0,0,0,0,0,0,0,0,0,0,0,0,0,0,0,0,0,0],"sum_hessian":[4.1830522E3,2.2973704E3,1.8856815E3,1.3376495E3,9.59721E2,4.9327734E2,1.3924042E3,4.3650217E2,9.0114734E2,3.151784E2,6.445426E2,1.7255765E2,3.207197E2,4.787937E2,9.136105E2,3.8223355E2,5.4268616E1,4.2072217E2,4.8042514E2,2.7397604E2,4.1202343E1,7.899833E1,5.6554425E2,3.0261702E1,1.4229594E2,3.0203644E2,1.8683252E1,8.057378E1,3.982199E2,7.04436E2,2.091745E2],"tree_param":{"num_deleted":"0","num_feature":"142","num_nodes":"31","size_leaf_vector":"1"}},{"base_weights":[2.915803E-4,4.3424E-1,-4.5509973E-1,2.7017578E-1,8.1341505E-1,-2.7597478E-1,-7.8167224E-1,5.465126E-1,1.1742445E-1,1.0086294E0,5.0299376E-1,-6.916678E-2,-3.7464786E-1,-1.0885696E0,-6.7306733E-1,1.3612573E-3,1.328408E-2,-1.8749501E-4,5.327668E-3,2.3248162E-2,1.5467429E-2,1.8010955E-2,6.2223766E-3,3.0095547E-3,-5.359125E-3,-8.213158E-3,-9.2087215E-4,-2.419955E-2,-1.822854E-2,-2.03166E-2,-1.244024E-2],"categories":[],"categories_nodes":[],"categories_segments":[],"categories_sizes":[],"default_left":[0,1,0,0,0,0,0,0,0,0,0,0,0,0,0,0,0,0,0,0,0,0,0,0,0,0,0,0,0,0,0],"id":22,"left_children":[1,3,5,7,9,11,13,15,17,19,21,23,25,27,29,-1,-1,-1,-1,-1,-1,-1,-1,-1,-1,-1,-1,-1,-1,-1,-1],"loss_changes":[8.2542944E2,1.3262323E2,1.1878824E2,6.2958748E1,3.8177216E1,2.6825233E1,2.2751923E1,2.9798645E1,1.8259747E1,1.2723602E1,1.8698822E1,1.8764204E1,1.0481468E1,2.12854E0,8.279175E0,0E0,0E0,0E0,0E0,0E0,0E0,0E0,0E0,0E0,0E0,0E0,0E0,0E0,0E0,0E0,0E0],"parents":[2147483647,0,0,1,1,2,2,3,3,4,4,5,5,6,6,7,7,8,8,9,9,10,10,11,11,12,12,13,13,14,14],"right_children":[2,4,6,8,10,12,14,16,18,20,22,24,26,28,30,-1,-1,-1,-1,-1,-1,-1,-1,-1,-1,-1,-1,-1,-1,-1,-1],"split_conditions":[4.0332824E-1,7.5789475E-1,6.172249E-1,2E0,3E0,2E0,2.4210526E-1,2.857143E-1,1.8697749E-1,1E0,1.3227513E-1,4.931215E-1,3E0,6.1764705E-1,1E0,1.3612573E-3,1.328408E-2,-1.8749501E-4,5.327668E-3,2.3248162E-2,1.5467429E-2,1.8010955E-2,6.2223766E-3,3.0095547E-3,-5.359125E-3,-8.213158E-3,-9.2087215E-4,-2.419955E-2,-1.822854E-2,-2.03166E-2,-1.244024E-2],"split_indices":[19,25,19,91,91,91,25,64,101,130,19,19,38,16,47,0,0,0,0,0,0,0,0,0,0,0,0,0,0,0,0],"split_type":[0,0,0,0,0,0,0,0,0,0,0,0,0,0,0,0,0,0,0,0,0,0,0,0,0,0,0,0,0,0,0],"sum_hessian":[4.1739395E3,2.1374368E3,2.0365027E3,1.4938845E3,6.4355237E2,1.3171306E3,7.193721E2,5.301992E2,9.6368524E2,3.928225E2,2.5072986E2,4.2659622E2,8.905344E2,1.8425269E2,5.351194E2,1.0530814E2,4.2489108E2,5.2095984E2,4.4272543E2,2.3371548E2,1.5910703E2,7.964618E1,1.7108368E2,2.026014E2,2.2399483E2,8.0197156E2,8.8562874E1,1.03800705E2,8.045199E1,6.544525E1,4.6967413E2],"tree_param":{"num_deleted":"0","num_feature":"142","num_nodes":"31","size_leaf_vector":"1"}},{"base_weights":[3.9897333E-3,4.7264597E-1,-3.9735293E-1,3.549596E-1,9.1527975E-1,-7.784355E-1,-2.1640848E-1,5.267388E-1,8.771788E-2,1.0901405E0,6.263292E-1,-1.0502518E0,-6.7533064E-1,-4.225311E-1,-1.2004189E-1,-0E0,1.1928295E-2,-1.1045613E-3,4.4306493E-3,2.2341387E-2,-1.0941114E-4,1.5293723E-2,-0E0,-2.1522557E-2,-7.3538E-3,-1.4016803E-2,8.0728554E-4,-9.440593E-3,-4.9710774E-4,-5.8011105E-3,4.3242364E-4],"categories":[],"categories_nodes":[],"categories_segments":[],"categories_sizes":[],"default_left":[0,0,0,0,0,0,0,0,0,1,0,0,0,0,0,0,0,0,0,0,0,0,0,0,0,0,0,0,0,0,0],"id":23,"left_children":[1,3,5,7,9,11,13,15,17,19,21,23,25,27,29,-1,-1,-1,-1,-1,-1,-1,-1,-1,-1,-1,-1,-1,-1,-1,-1],"loss_changes":[7.8562286E2,9.976218E1,1.5478635E2,6.9868576E1,1.9195923E1,1.904242E1,3.0216324E1,3.399124E1,1.148624E1,7.472351E0,1.3578636E1,2.724228E0,9.767654E0,9.4951935E0,2.5168179E1,0E0,0E0,0E0,0E0,0E0,0E0,0E0,0E0,0E0,0E0,0E0,0E0,0E0,0E0,0E0,0E0],"parents":[2147483647,0,0,1,1,2,2,3,3,4,4,5,5,6,6,7,7,8,8,9,9,10,10,11,11,12,12,13,13,14,14],"right_children":[2,4,6,8,10,12,14,16,18,20,22,24,26,28,30,-1,-1,-1,-1,-1,-1,-1,-1,-1,-1,-1,-1,-1,-1,-1,-1],"split_conditions":[3.7526998E-1,8.367537E-1,3.856592E-1,3E0,3E0,2.4337554E-1,0E0,4.8E-1,2.6535185E1,2.05E1,1.075E2,1.75E1,1.1312308E2,3.705735E1,5.116279E-1,-0E0,1.1928295E-2,-1.1045613E-3,4.4306493E-3,2.2341387E-2,-1.0941114E-4,1.5293723E-2,-0E0,-2.1522557E-2,-7.3538E-3,-1.4016803E-2,8.0728554E-4,-9.440593E-3,-4.9710774E-4,-5.8011105E-3,4.3242364E-4],"split_indices":[19,18,18,91,91,18,130,63,104,132,32,20,84,2,18,0,0,0,0,0,0,0,0,0,0,0,0,0,0,0,0],"split_type":[0,0,0,0,0,0,0,0,0,0,0,0,0,0,0,0,0,0,0,0,0,0,0,0,0,0,0,0,0,0,0],"sum_hessian":[4.173769E3,1.92541E3,2.248359E3,1.5233219E3,4.0208813E2,7.22086E2,1.526273E3,9.261653E2,5.971567E2,2.4769086E2,1.5439726E2,1.9452048E2,5.2756555E2,4.842899E2,1.041983E3,1.0852878E2,8.1763654E2,2.8879172E2,3.0836493E2,2.4180934E2,5.8815055E0,1.2630838E2,2.8088888E1,1.8644106E2,8.079422E0,5.0957364E2,1.7991894E1,4.3020987E2,5.4080036E1,4.7320804E2,5.6877496E2],"tree_param":{"num_deleted":"0","num_feature":"142","num_nodes":"31","size_leaf_vector":"1"}},{"base_weights":[-5.2031367E-3,3.8976368E-1,-4.4016683E-1,1.6938505E-1,6.8934E-1,-2.698207E-1,-7.4419075E-1,4.6607876E-1,2.211808E-2,9.4616705E-1,4.82727E-1,-3.2295373E-1,2.3678778E-2,-1.0030614E0,-6.4165705E-1,4.9944436E-3,1.407634E-2,3.585478E-3,-1.2671491E-3,6.8466654E-3,2.1713367E-2,7.419662E-3,1.5222422E-2,-8.252755E-3,-3.4461794E-3,-4.2894767E-3,3.1849954E-3,-2.2154316E-2,-1.5237871E-2,-1.7648963E-2,-1.0638072E-2],"categories":[],"categories_nodes":[],"categories_segments":[],"categories_sizes":[],"default_left":[0,0,0,0,0,0,0,0,0,0,0,1,0,0,0,0,0,0,0,0,0,0,0,0,0,0,0,0,0,0,0],"id":24,"left_children":[1,3,5,7,9,11,13,15,17,19,21,23,25,27,29,-1,-1,-1,-1,-1,-1,-1,-1,-1,-1,-1,-1,-1,-1,-1,-1],"loss_changes":[7.168428E2,1.4410788E2,1.0244415E2,5.508035E1,4.8317017E1,1.9929207E1,1.7770325E1,2.1159325E1,1.1382699E1,3.3930817E1,1.5531822E1,1.4429024E1,6.393015E0,3.5716858E0,1.2751068E1,0E0,0E0,0E0,0E0,0E0,0E0,0E0,0E0,0E0,0E0,0E0,0E0,0E0,0E0,0E0,0E0],"parents":[2147483647,0,0,1,1,2,2,3,3,4,4,5,5,6,6,7,7,8,8,9,9,10,10,11,11,12,12,13,13,14,14],"right_children":[2,4,6,8,10,12,14,16,18,20,22,24,26,28,30,-1,-1,-1,-1,-1,-1,-1,-1,-1,-1,-1,-1,-1,-1,-1,-1],"split_conditions":[4.0832075E-1,7.4908096E-1,6.172249E-1,2E0,2E0,2E0,2.5095165E-1,8.2E-1,3.0902126E-1,9E0,8.578995E-1,4.8916575E-1,1.4368042E3,3E0,2E0,4.9944436E-3,1.407634E-2,3.585478E-3,-1.2671491E-3,6.8466654E-3,2.1713367E-2,7.419662E-3,1.5222422E-2,-8.252755E-3,-3.4461794E-3,-4.2894767E-3,3.1849954E-3,-2.2154316E-2,-1.5237871E-2,-1.7648963E-2,-1.0638072E-2],"split_indices":[19,18,19,91,48,130,25,64,19,17,18,25,3,91,48,0,0,0,0,0,0,0,0,0,0,0,0,0,0,0,0],"split_type":[0,0,0,0,0,0,0,0,0,0,0,0,0,0,0,0,0,0,0,0,0,0,0,0,0,0,0,0,0,0,0],"sum_hessian":[4.1696064E3,2.1852375E3,1.9843689E3,1.2605878E3,9.246497E2,1.273808E3,7.10561E2,4.1684933E2,8.4373846E2,4.0962213E2,5.150276E2,1.0787153E3,1.9509264E2,1.975782E2,5.129827E2,2.2006908E2,1.9678027E2,2.9706918E2,5.4666925E2,7.7980385E1,3.3164175E2,3.7026566E2,1.4476189E2,6.741174E2,4.04598E2,7.018703E1,1.2490562E2,1.3373834E2,6.383986E1,1.5702023E2,3.5596252E2],"tree_param":{"num_deleted":"0","num_feature":"142","num_nodes":"31","size_leaf_vector":"1"}},{"base_weights":[1.86355E-4,-3.964713E-1,4.0412143E-1,-8.413961E-1,-2.6610193E-1,9.3282795E-1,2.8208935E-1,-9.9295974E-1,-6.934356E-1,-4.3650192E-1,-1.4742984E-1,1.2129575E0,6.9325465E-1,5.709146E-1,1.2606566E-1,-2.3543622E-2,-1.6511003E-2,-1.4557895E-2,3.7259774E-3,-1.287763E-2,-6.904724E-3,1.5773815E-3,-5.1323613E-3,2.4962382E-2,1.0393905E-2,1.5384502E-2,3.3882179E-3,3.3286535E-3,1.40875345E-2,-8.042503E-4,4.910047E-3],"categories":[],"categories_nodes":[],"categories_segments":[],"categories_sizes":[],"default_left":[0,0,0,0,0,0,0,0,0,0,0,1,0,0,0,0,0,0,0,0,0,0,0,0,0,0,0,0,0,0,0],"id":25,"left_children":[1,3,5,7,9,11,13,15,17,19,21,23,25,27,29,-1,-1,-1,-1,-1,-1,-1,-1,-1,-1,-1,-1,-1,-1,-1,-1],"loss_changes":[6.651798E2,1.2104532E2,1.322019E2,9.423248E0,3.2649643E1,2.4382599E1,7.524013E1,5.4424896E0,7.686119E0,1.2151314E1,2.3741245E1,3.122467E0,8.115242E0,3.138913E1,2.165765E1,0E0,0E0,0E0,0E0,0E0,0E0,0E0,0E0,0E0,0E0,0E0,0E0,0E0,0E0,0E0,0E0],"parents":[2147483647,0,0,1,1,2,2,3,3,4,4,5,5,6,6,7,7,8,8,9,9,10,10,11,11,12,12,13,13,14,14],"right_children":[2,4,6,8,10,12,14,16,18,20,22,24,26,28,30,-1,-1,-1,-1,-1,-1,-1,-1,-1,-1,-1,-1,-1,-1,-1,-1],"split_conditions":[6.0790116E-1,3.3335096E-1,-9.5E0,2.581864E-1,4.6398354E-1,2E0,2E0,2E0,6.6977875E1,2E0,2E0,2.4838709E1,6.486486E-1,7E-1,6.9097877E-1,-2.3543622E-2,-1.6511003E-2,-1.4557895E-2,3.7259774E-3,-1.287763E-2,-6.904724E-3,1.5773815E-3,-5.1323613E-3,2.4962382E-2,1.0393905E-2,1.5384502E-2,3.3882179E-3,3.3286535E-3,1.40875345E-2,-8.042503E-4,4.910047E-3],"split_indices":[18,18,20,18,18,48,91,91,104,48,91,51,15,62,18,0,0,0,0,0,0,0,0,0,0,0,0,0,0,0,0],"split_type":[0,0,0,0,0,0,0,0,0,0,0,0,0,0,0,0,0,0,0,0,0,0,0,0,0,0,0,0,0,0,0],"sum_hessian":[4.148558E3,2.0930234E3,2.0555347E3,4.7227948E2,1.620744E3,3.834489E2,1.6720858E3,2.2873343E2,2.4354605E2,6.633651E2,9.573789E2,1.7376091E2,2.09688E2,5.8483374E2,1.0872521E3,1.04306854E2,1.2442657E2,2.3472447E2,8.821576E0,1.9961327E2,4.6375186E2,3.1142767E2,6.4595123E2,1.6409346E2,9.667451E0,1.8234926E2,2.733874E1,1.4611743E2,4.387163E2,4.5456732E2,6.3268475E2],"tree_param":{"num_deleted":"0","num_feature":"142","num_nodes":"31","size_leaf_vector":"1"}},{"base_weights":[-2.559575E-3,3.5641772E-1,-4.5370024E-1,6.9415605E-1,1.724018E-1,-2.7646232E-1,-7.586996E-1,9.4992584E-1,4.8353705E-1,5.0522417E-1,1.0847412E-1,-3.9451352E-1,-1.6312665E-1,-6.491613E-1,-9.887878E-1,8.892261E-4,2.0851538E-2,-1.0528617E-2,1.0549149E-2,-3.254744E-4,1.4935346E-2,4.07197E-3,-9.620313E-4,1.7034585E-3,-8.761452E-3,-4.5007383E-3,3.280706E-3,-1.731276E-2,-1.1055291E-2,-3.2647112E-3,-2.0263912E-2],"categories":[],"categories_nodes":[],"categories_segments":[],"categories_sizes":[],"default_left":[0,0,0,0,0,0,0,0,0,0,0,0,0,0,0,0,0,0,0,0,0,0,0,0,0,0,0,0,0,0,0],"id":26,"left_children":[1,3,5,7,9,11,13,15,17,19,21,23,25,27,29,-1,-1,-1,-1,-1,-1,-1,-1,-1,-1,-1,-1,-1,-1,-1,-1],"loss_changes":[6.7185626E2,1.4330545E2,9.896066E1,4.3020966E1,3.1719177E1,1.5438599E1,1.5875702E1,3.0514221E1,2.0364601E1,3.0402805E1,1.8773296E1,1.1986221E1,1.2163825E1,8.7747345E0,3.9547424E0,0E0,0E0,0E0,0E0,0E0,0E0,0E0,0E0,0E0,0E0,0E0,0E0,0E0,0E0,0E0,0E0],"parents":[2147483647,0,0,1,1,2,2,3,3,4,4,5,5,6,6,7,7,8,8,9,9,10,10,11,11,12,12,13,13,14,14],"right_children":[2,4,6,8,10,12,14,16,18,20,22,24,26,28,30,-1,-1,-1,-1,-1,-1,-1,-1,-1,-1,-1,-1,-1,-1,-1,-1],"split_conditions":[4.2349154E-1,2.34375E-1,6.2473005E-1,2E0,1E0,3.5714287E-1,7.4768716E-1,5E0,2.1564555E-1,4.4E-1,3.5488722E-1,4.75E-1,2E0,2E0,4.857143E-1,8.892261E-4,2.0851538E-2,-1.0528617E-2,1.0549149E-2,-3.254744E-4,1.4935346E-2,4.07197E-3,-9.620313E-4,1.7034585E-3,-8.761452E-3,-4.5007383E-3,3.280706E-3,-1.731276E-2,-1.1055291E-2,-3.2647112E-3,-2.0263912E-2],"split_indices":[19,19,19,48,90,13,19,96,66,63,19,107,130,48,107,0,0,0,0,0,0,0,0,0,0,0,0,0,0,0,0],"split_type":[0,0,0,0,0,0,0,0,0,0,0,0,0,0,0,0,0,0,0,0,0,0,0,0,0,0,0,0,0,0,0],"sum_hessian":[4.1455024E3,2.3086106E3,1.8368921E3,8.125586E2,1.4960519E3,1.1637903E3,6.7310175E2,3.6435547E2,4.4820316E2,2.3913593E2,1.256916E3,5.6778143E2,5.960089E2,4.6018674E2,2.12915E2,3.4127903E1,3.3022754E2,1.7897032E1,4.3030612E2,7.6011055E1,1.6312486E2,7.8200995E2,4.749061E2,4.6956177E1,5.2082526E2,5.0182104E2,9.418787E1,1.3777655E2,3.224102E2,6.562971E0,2.0635202E2],"tree_param":{"num_deleted":"0","num_feature":"142","num_nodes":"31","size_leaf_vector":"1"}},{"base_weights":[-5.371354E-3,4.2891982E-1,-3.7707245E-1,8.45656E-1,2.9132146E-1,-6.23739E-1,-1.5569545E-1,7.4965227E-1,1.2348737E0,6.734E-1,2.1594891E-1,-8.533212E-1,-4.8532283E-1,-3.298752E-1,-7.152445E-2,2.0907985E-2,1.293404E-2,1.570084E-2,2.6954386E-2,1.8679695E-4,1.9080928E-2,-3.9716554E-3,5.133747E-3,2.3347526E-3,-1.7656855E-2,-1.0720768E-2,-4.362489E-3,-1.0045325E-2,-3.863818E-3,-4.4792052E-3,6.6590094E-4],"categories":[],"categories_nodes":[],"categories_segments":[],"categories_sizes":[],"default_left":[0,0,0,0,0,0,0,0,0,0,0,0,0,0,0,0,0,0,0,0,0,0,0,0,0,0,0,0,0,0,0],"id":27,"left_children":[1,3,5,7,9,11,13,15,17,19,21,23,25,27,29,-1,-1,-1,-1,-1,-1,-1,-1,-1,-1,-1,-1,-1,-1,-1,-1],"loss_changes":[6.713265E2,1.0948654E2,1.2214697E2,1.616452E1,4.1283722E1,3.2904846E1,1.727175E1,1.0541824E1,2.8429108E0,4.4064873E1,2.0493752E1,1.1576294E1,8.7548065E0,8.849583E0,1.2813456E1,0E0,0E0,0E0,0E0,0E0,0E0,0E0,0E0,0E0,0E0,0E0,0E0,0E0,0E0,0E0,0E0],"parents":[2147483647,0,0,1,1,2,2,3,3,4,4,5,5,6,6,7,7,8,8,9,9,10,10,11,11,12,12,13,13,14,14],"right_children":[2,4,6,8,10,12,14,16,18,20,22,24,26,28,30,-1,-1,-1,-1,-1,-1,-1,-1,-1,-1,-1,-1,-1,-1,-1,-1],"split_conditions":[3.771316E-1,1.7945665E-1,4.4799376E-1,9.112426E-1,1E0,3.108998E-1,0E0,1E0,4.6388277E-1,2.857143E-1,1.4259845E3,4.6666667E-1,2E0,7.1801615E-1,4.463E-1,2.0907985E-2,1.293404E-2,1.570084E-2,2.6954386E-2,1.8679695E-4,1.9080928E-2,-3.9716554E-3,5.133747E-3,2.3347526E-3,-1.7656855E-2,-1.0720768E-2,-4.362489E-3,-1.0045325E-2,-3.863818E-3,-4.4792052E-3,6.6590094E-4],"split_indices":[19,19,18,18,90,18,130,47,109,64,3,106,130,66,33,0,0,0,0,0,0,0,0,0,0,0,0,0,0,0,0],"split_type":[0,0,0,0,0,0,0,0,0,0,0,0,0,0,0,0,0,0,0,0,0,0,0,0,0,0,0,0,0,0,0],"sum_hessian":[4.1557417E3,1.9162814E3,2.2394604E3,4.7356796E2,1.4427134E3,1.0577251E3,1.1817354E3,3.835967E2,8.9971245E1,2.3553113E2,1.2071823E3,3.946592E2,6.63066E2,3.831972E2,7.985381E2,9.5254486E1,2.8834222E2,2.0615187E1,6.935606E1,7.053613E1,1.6499498E2,1.072813E2,1.099901E3,1.1424938E1,3.8323425E2,5.557066E2,1.0735937E2,1.6736588E2,2.1583134E2,3.250609E2,4.7347717E2],"tree_param":{"num_deleted":"0","num_feature":"142","num_nodes":"31","size_leaf_vector":"1"}},{"base_weights":[5.002201E-3,4.4216117E-1,-3.5600024E-1,9.640104E-1,3.366697E-1,-1.6366087E-1,-6.025899E-1,1.2050185E0,7.285552E-1,4.956098E-1,8.757734E-2,2.5532724E-2,-2.5641593E-1,-4.8529005E-1,-7.9673314E-1,8.522758E-3,2.5383245E-2,7.5384956E-3,1.7031368E-2,7.251911E-3,1.5000477E-2,4.3186243E-3,-1.3381111E-3,-5.5338317E-3,2.714249E-3,-8.60279E-3,-3.8571756E-3,-1.073447E-2,-4.485129E-3,-1.8694269E-2,-1.2003441E-2],"categories":[],"categories_nodes":[],"categories_segments":[],"categories_sizes":[],"default_left":[0,0,0,0,0,0,0,0,0,1,0,0,0,0,0,0,0,0,0,0,0,0,0,0,0,0,0,0,0,0,0],"id":28,"left_children":[1,3,5,7,9,11,13,15,17,19,21,23,25,27,29,-1,-1,-1,-1,-1,-1,-1,-1,-1,-1,-1,-1,-1,-1,-1,-1],"loss_changes":[6.508341E2,1.02072174E2,1.0689902E2,1.6234863E1,6.140651E1,2.2340286E1,2.1812927E1,6.6145782E0,6.410797E0,3.1568466E1,1.2081413E1,1.4001098E1,9.2367935E0,8.075836E0,9.034836E0,0E0,0E0,0E0,0E0,0E0,0E0,0E0,0E0,0E0,0E0,0E0,0E0,0E0,0E0,0E0,0E0],"parents":[2147483647,0,0,1,1,2,2,3,3,4,4,5,5,6,6,7,7,8,8,9,9,10,10,11,11,12,12,13,13,14,14],"right_children":[2,4,6,8,10,12,14,16,18,20,22,24,26,28,30,-1,-1,-1,-1,-1,-1,-1,-1,-1,-1,-1,-1,-1,-1,-1,-1],"split_conditions":[3.7225044E-1,1.4803398E-1,5.620438E-1,2E0,3E0,2E0,6.9576997E-1,2.7539682E-1,0E0,7.241379E-1,-5.5E0,4.642857E-1,-4.6274405E0,2E0,3E0,8.522758E-3,2.5383245E-2,7.5384956E-3,1.7031368E-2,7.251911E-3,1.5000477E-2,4.3186243E-3,-1.3381111E-3,-5.5338317E-3,2.714249E-3,-8.60279E-3,-3.8571756E-3,-1.073447E-2,-4.485129E-3,-1.8694269E-2,-1.2003441E-2],"split_indices":[19,19,19,48,91,91,19,109,130,25,20,12,121,130,48,0,0,0,0,0,0,0,0,0,0,0,0,0,0,0,0],"split_type":[0,0,0,0,0,0,0,0,0,0,0,0,0,0,0,0,0,0,0,0,0,0,0,0,0,0,0,0,0,0,0],"sum_hessian":[4.1209697E3,1.8638564E3,2.257113E3,3.1120752E2,1.5526489E3,1.2696725E3,9.8744055E2,1.5052803E2,1.6067949E2,9.466974E2,6.0595154E2,4.1769797E2,8.5197455E2,6.19131E2,3.6830957E2,1.2444321E1,1.3808371E2,4.3433853E1,1.17245636E2,6.2431854E2,3.223788E2,3.3099298E2,2.749586E2,1.10745964E2,3.06952E2,2.2546791E2,6.2650665E2,5.1557587E2,1.0355516E2,2.127931E2,1.5551645E2],"tree_param":{"num_deleted":"0","num_feature":"142","num_nodes":"31","size_leaf_vector":"1"}},{"base_weights":[-8.472593E-3,-3.4347633E-1,4.451583E-1,-7.113004E-1,-1.8976122E-1,3.3790088E-1,9.5669043E-1,-9.697529E-1,-6.116247E-1,-2.3870699E-1,8.7709315E-2,6.208458E-1,1.8521985E-1,1.0984603E0,7.02532E-1,-3.214266E-3,-1.9773781E-2,-1.2686104E-2,1.0459147E-3,-7.5311475E-3,-2.7516263E-3,-8.367616E-3,2.9500898E-3,1.1291074E-3,1.4735381E-2,6.5356684E-3,1.749992E-3,8.374709E-3,2.2904687E-2,-5.72065E-3,1.5571251E-2],"categories":[],"categories_nodes":[],"categories_segments":[],"categories_sizes":[],"default_left":[0,0,0,0,0,0,0,0,0,0,0,0,0,0,0,0,0,0,0,0,0,0,0,0,0,0,0,0,0,0,0],"id":29,"left_children":[1,3,5,7,9,11,13,15,17,19,21,23,25,27,29,-1,-1,-1,-1,-1,-1,-1,-1,-1,-1,-1,-1,-1,-1,-1,-1],"loss_changes":[6.30541E2,1.3465674E2,9.608292E1,1.7055481E1,2.2938103E1,6.27946E1,9.63443E0,2.5995789E0,7.809906E0,1.985447E1,7.7379966E0,3.326758E1,1.3061569E1,5.2464294E0,8.910324E0,0E0,0E0,0E0,0E0,0E0,0E0,0E0,0E0,0E0,0E0,0E0,0E0,0E0,0E0,0E0,0E0],"parents":[2147483647,0,0,1,1,2,2,3,3,4,4,5,5,6,6,7,7,8,8,9,9,10,10,11,11,12,12,13,13,14,14],"right_children":[2,4,6,8,10,12,14,16,18,20,22,24,26,28,30,-1,-1,-1,-1,-1,-1,-1,-1,-1,-1,-1,-1,-1,-1,-1,-1],"split_conditions":[6.42635E-1,3.8277513E-1,8.5409445E-1,2.4337554E-1,2E0,2E0,3E0,9.0208E1,1.1312308E2,5.162468E-1,5E0,4.4E-1,3E0,3E0,-2.4158833E0,-3.214266E-3,-1.9773781E-2,-1.2686104E-2,1.0459147E-3,-7.5311475E-3,-2.7516263E-3,-8.367616E-3,2.9500898E-3,1.1291074E-3,1.4735381E-2,6.5356684E-3,1.749992E-3,8.374709E-3,2.2904687E-2,-5.72065E-3,1.5571251E-2],"split_indices":[18,18,18,18,130,91,91,6,45,18,14,63,91,108,42,0,0,0,0,0,0,0,0,0,0,0,0,0,0,0,0],"split_type":[0,0,0,0,0,0,0,0,0,0,0,0,0,0,0,0,0,0,0,0,0,0,0,0,0,0,0,0,0,0,0],"sum_hessian":[4.146226E3,2.385289E3,1.7609371E3,7.012293E2,1.6840598E3,1.457927E3,3.0301007E2,1.9124544E2,5.099839E2,1.4320214E3,2.5203838E2,5.0914215E2,9.487849E2,1.9106013E2,1.1194994E2,4.8201027E0,1.8642534E2,4.93348E2,1.663591E1,6.0383026E2,8.2819116E2,2.5504818E1,2.2653357E2,8.728329E1,4.2185886E2,3.85617E2,5.6316785E2,1.339977E1,1.7766037E2,7.60535E0,1.043446E2],"tree_param":{"num_deleted":"0","num_feature":"142","num_nodes":"31","size_leaf_vector":"1"}},{"base_weights":[-2.84715E-3,3.4696433E-1,-4.0559834E-1,7.4618816E-1,1.9690256E-1,-2.561572E-1,-6.887931E-1,9.8525625E-1,5.453392E-1,5.1629156E-1,3.5580292E-2,-6.683569E-2,-3.483932E-1,-9.2825013E-1,-5.820239E-1,5.31686E-3,2.1370525E-2,-1.2693723E-2,1.1852611E-2,2.093764E-3,1.2268633E-2,4.1826046E-3,-1.445407E-3,1.9447667E-3,-6.768595E-3,-1.1742489E-2,-5.886766E-3,-6.9414144E-3,-1.9844992E-2,-1.2652983E-2,-3.6352142E-3],"categories":[],"categories_nodes":[],"categories_segments":[],"categories_sizes":[],"default_left":[0,0,0,0,0,0,0,0,0,0,0,0,0,0,0,0,0,0,0,0,0,0,0,0,0,0,0,0,0,0,0],"id":30,"left_children":[1,3,5,7,9,11,13,15,17,19,21,23,25,27,29,-1,-1,-1,-1,-1,-1,-1,-1,-1,-1,-1,-1,-1,-1,-1,-1],"loss_changes":[5.802608E2,1.3172473E2,8.066669E1,2.791858E1,8.256882E1,2.1853523E1,1.5917847E1,1.5764282E1,1.8998825E1,2.134317E1,2.001934E1,1.8504921E1,1.0540657E1,6.8177185E0,9.085968E0,0E0,0E0,0E0,0E0,0E0,0E0,0E0,0E0,0E0,0E0,0E0,0E0,0E0,0E0,0E0,0E0],"parents":[2147483647,0,0,1,1,2,2,3,3,4,4,5,5,6,6,7,7,8,8,9,9,10,10,11,11,12,12,13,13,14,14],"right_children":[2,4,6,8,10,12,14,16,18,20,22,24,26,28,30,-1,-1,-1,-1,-1,-1,-1,-1,-1,-1,-1,-1,-1,-1,-1,-1],"split_conditions":[4.139073E-1,2.0276627E-1,6.2473005E-1,2E0,2E0,2E0,2E0,3E0,2.1564555E-1,6E0,3E0,5.399277E-1,2E0,6E-1,3.50565E-1,5.31686E-3,2.1370525E-2,-1.2693723E-2,1.1852611E-2,2.093764E-3,1.2268633E-2,4.1826046E-3,-1.445407E-3,1.9447667E-3,-6.768595E-3,-1.1742489E-2,-5.886766E-3,-6.9414144E-3,-1.9844992E-2,-1.2652983E-2,-3.6352142E-3],"split_indices":[19,19,19,48,91,91,48,65,66,17,91,19,48,62,102,0,0,0,0,0,0,0,0,0,0,0,0,0,0,0,0],"split_type":[0,0,0,0,0,0,0,0,0,0,0,0,0,0,0,0,0,0,0,0,0,0,0,0,0,0,0,0,0,0,0],"sum_hessian":[4.1155854E3,2.2025283E3,1.913057E3,5.9990857E2,1.6026198E3,1.2543497E3,6.5870734E2,2.7099286E2,3.2891568E2,5.365088E2,1.066111E3,4.121177E2,8.4223206E2,1.992842E2,4.5942316E2,2.888966E1,2.4210321E2,1.1874492E1,3.170412E2,1.0323326E2,4.332755E2,4.0841718E2,6.5769385E2,2.572836E2,1.5483409E2,1.5242235E2,6.898097E2,2.0879026E1,1.7840517E2,4.068448E2,5.2578358E1],"tree_param":{"num_deleted":"0","num_feature":"142","num_nodes":"31","size_leaf_vector":"1"}},{"base_weights":[2.692201E-3,-4.0435037E-1,3.2841393E-1,-2.53931E-1,-6.540838E-1,1.4298865E-1,6.1591715E-1,-8.9925826E-2,-3.3252802E-1,-5.714387E-1,-9.348979E-1,3.8419446E-1,2.4651615E-2,9.105408E-1,4.4634145E-1,4.977643E-3,-3.7968482E-3,-2.8884998E-3,-8.11111E-3,-1.1786489E-2,3.5282662E-3,-1.980228E-2,-7.5203655E-3,3.6467575E-3,1.2260999E-2,1.1538117E-3,-6.1766314E-3,9.2401647E-4,2.0468354E-2,1.5101489E-2,6.0109645E-3],"categories":[],"categories_nodes":[],"categories_segments":[],"categories_sizes":[],"default_left":[0,0,0,0,1,0,0,0,0,0,0,0,0,0,0,0,0,0,0,0,0,0,0,0,0,0,0,0,0,0,0],"id":31,"left_children":[1,3,5,7,9,11,13,15,17,19,21,23,25,27,29,-1,-1,-1,-1,-1,-1,-1,-1,-1,-1,-1,-1,-1,-1,-1,-1],"loss_changes":[5.457767E2,6.839313E1,1.2170398E2,1.4667465E1,1.4982544E1,3.9688408E1,4.4017487E1,1.2702038E1,1.0473213E1,7.3481445E0,4.0414886E0,2.0905724E1,1.0314229E1,3.1593018E1,2.5291985E1,0E0,0E0,0E0,0E0,0E0,0E0,0E0,0E0,0E0,0E0,0E0,0E0,0E0,0E0,0E0,0E0],"parents":[2147483647,0,0,1,1,2,2,3,3,4,4,5,5,6,6,7,7,8,8,9,9,10,10,11,11,12,12,13,13,14,14],"right_children":[2,4,6,8,10,12,14,16,18,20,22,24,26,28,30,-1,-1,-1,-1,-1,-1,-1,-1,-1,-1,-1,-1,-1,-1,-1,-1],"split_conditions":[5.792858E-1,6.172249E-1,7.5164855E-1,2E0,8.5E0,2E0,2E0,-1E0,-2.196E0,1.1408372E2,8.214286E-1,8.2E-1,7.4206346E-1,4E0,1.421005E-1,4.977643E-3,-3.7968482E-3,-2.8884998E-3,-8.11111E-3,-1.1786489E-2,3.5282662E-3,-1.980228E-2,-7.5203655E-3,3.6467575E-3,1.2260999E-2,1.1538117E-3,-6.1766314E-3,9.2401647E-4,2.0468354E-2,1.5101489E-2,6.0109645E-3],"split_indices":[18,19,18,91,20,91,91,20,8,84,16,64,30,53,19,0,0,0,0,0,0,0,0,0,0,0,0,0,0,0,0],"split_type":[0,0,0,0,0,0,0,0,0,0,0,0,0,0,0,0,0,0,0,0,0,0,0,0,0,0,0,0,0,0,0],"sum_hessian":[4.1135576E3,1.8282238E3,2.2853337E3,1.1431234E3,6.8510034E2,1.3908795E3,8.944542E2,3.7179755E2,7.713259E2,5.3311145E2,1.519889E2,4.563956E2,9.3448395E2,3.2414145E2,5.7031274E2,8.393716E1,2.8786038E2,2.173402E2,5.539857E2,5.211004E2,1.2011054E1,1.371067E2,1.48821945E1,2.4416644E2,2.1222917E2,8.5164935E2,8.283456E1,3.7787617E1,2.8635385E2,1.8070206E2,3.8961072E2],"tree_param":{"num_deleted":"0","num_feature":"142","num_nodes":"31","size_leaf_vector":"1"}},{"base_weights":[8.023845E-3,-3.3935377E-1,3.8266486E-1,-7.134156E-1,-2.2433747E-1,2.71532E-1,8.439887E-1,-1.0206937E0,-6.241846E-1,-3.1890848E-1,-5.6128453E-2,5.17304E-1,1.4211857E-1,1.1029587E0,6.0528624E-1,-2.5376207E-3,-2.1847347E-2,-1.27645405E-2,1.1537684E-2,-7.3901275E-3,-8.5082185E-4,-3.7757365E-3,2.1771046E-3,-8.3851255E-4,1.266294E-2,5.57321E-3,1.0420509E-3,9.7328555E-3,2.315E-2,1.372666E-2,-0E0],"categories":[],"categories_nodes":[],"categories_segments":[],"categories_sizes":[],"default_left":[0,0,0,0,0,0,0,0,0,0,0,0,0,0,0,0,0,0,0,0,0,0,0,0,0,0,0,0,0,0,0],"id":32,"left_children":[1,3,5,7,9,11,13,15,17,19,21,23,25,27,29,-1,-1,-1,-1,-1,-1,-1,-1,-1,-1,-1,-1,-1,-1,-1,-1],"loss_changes":[5.343182E2,9.131448E1,1.00821106E2,1.2591064E1,2.5891266E1,5.0532806E1,2.24794E1,6.7121124E0,7.163864E0,1.4530373E1,1.2938835E1,3.5670853E1,1.2810322E1,5.091339E0,9.949547E0,0E0,0E0,0E0,0E0,0E0,0E0,0E0,0E0,0E0,0E0,0E0,0E0,0E0,0E0,0E0,0E0],"parents":[2147483647,0,0,1,1,2,2,3,3,4,4,5,5,6,6,7,7,8,8,9,9,10,10,11,11,12,12,13,13,14,14],"right_children":[2,4,6,8,10,12,14,16,18,20,22,24,26,28,30,-1,-1,-1,-1,-1,-1,-1,-1,-1,-1,-1,-1,-1,-1,-1,-1],"split_conditions":[6.143408E-1,3.426268E-1,8.367537E-1,1E0,1E0,2E0,2E0,8.94E1,1.156602E2,2.0484162E-2,5.108342E-1,4.8E-1,3E0,3E0,6.486486E-1,-2.5376207E-3,-2.1847347E-2,-1.27645405E-2,1.1537684E-2,-7.3901275E-3,-8.5082185E-4,-3.7757365E-3,2.1771046E-3,-8.3851255E-4,1.266294E-2,5.57321E-3,1.0420509E-3,9.7328555E-3,2.315E-2,1.372666E-2,-0E0],"split_indices":[18,18,18,91,130,91,48,75,45,129,18,63,91,65,15,0,0,0,0,0,0,0,0,0,0,0,0,0,0,0,0],"split_type":[0,0,0,0,0,0,0,0,0,0,0,0,0,0,0,0,0,0,0,0,0,0,0,0,0,0,0,0,0,0,0],"sum_hessian":[4.1026284E3,2.1287065E3,1.9739218E3,4.9856723E2,1.6301392E3,1.5928129E3,3.8110883E2,1.0842236E2,3.9014487E2,1.0422332E3,5.87906E2,5.4759467E2,1.0452183E3,1.7998831E2,2.011205E2,8.460879E0,9.996149E1,3.8641327E2,3.731603E0,8.802144E2,1.620188E2,3.260937E2,2.6181232E2,9.398378E1,4.5361084E2,4.1359586E2,6.3162244E2,1.599237E1,1.6399596E2,1.7721434E2,2.3906157E1],"tree_param":{"num_deleted":"0","num_feature":"142","num_nodes":"31","size_leaf_vector":"1"}},{"base_weights":[3.220345E-3,-3.1775007E-1,3.9545146E-1,-6.52717E-1,-1.6574529E-1,8.110007E-1,2.9056337E-1,-8.9700323E-1,-5.614366E-1,-3.972955E-1,-1.14235625E-1,1.108049E0,5.560812E-1,6.369498E-1,2.1899174E-1,-2.090069E-2,-1.3639817E-2,2.579177E-3,-1.1837461E-2,-8.17855E-4,-9.753366E-3,2.5017862E-3,-3.2076624E-3,2.2619028E-2,-1.4339928E-5,1.4779249E-2,6.4403354E-3,1.8278143E-3,1.8028803E-2,1.12362625E-2,3.5094172E-3],"categories":[],"categories_nodes":[],"categories_segments":[],"categories_sizes":[],"default_left":[0,0,0,0,0,0,0,0,0,0,0,0,0,0,0,0,0,0,0,0,0,0,0,0,0,0,0,0,0,0,0],"id":33,"left_children":[1,3,5,7,9,11,13,15,17,19,21,23,25,27,29,-1,-1,-1,-1,-1,-1,-1,-1,-1,-1,-1,-1,-1,-1,-1,-1],"loss_changes":[5.162234E2,1.1456795E2,7.997366E1,1.4777679E1,1.840672E1,2.6995499E1,3.629911E1,4.7566223E0,1.1007309E1,8.990429E0,1.4093748E1,4.421097E0,8.217987E0,3.610186E1,1.8067696E1,0E0,0E0,0E0,0E0,0E0,0E0,0E0,0E0,0E0,0E0,0E0,0E0,0E0,0E0,0E0,0E0],"parents":[2147483647,0,0,1,1,2,2,3,3,4,4,5,5,6,6,7,7,8,8,9,9,10,10,11,11,12,12,13,13,14,14],"right_children":[2,4,6,8,10,12,14,16,18,20,22,24,26,28,30,-1,-1,-1,-1,-1,-1,-1,-1,-1,-1,-1,-1,-1,-1,-1,-1],"split_conditions":[6.304647E-1,3.856592E-1,-9.5E0,2.5095165E-1,4.5725647E-1,2E0,1E0,3E0,4.6666667E-1,-4E0,1E0,8.476285E-1,1.016E2,2.5690475E-1,1E0,-2.090069E-2,-1.3639817E-2,2.579177E-3,-1.1837461E-2,-8.17855E-4,-9.753366E-3,2.5017862E-3,-3.2076624E-3,2.2619028E-2,-1.4339928E-5,1.4779249E-2,6.4403354E-3,1.8278143E-3,1.8028803E-2,1.12362625E-2,3.5094172E-3],"split_indices":[18,18,20,25,25,48,90,48,105,134,90,29,74,66,47,0,0,0,0,0,0,0,0,0,0,0,0,0,0,0,0],"split_type":[0,0,0,0,0,0,0,0,0,0,0,0,0,0,0,0,0,0,0,0,0,0,0,0,0,0,0,0,0,0,0],"sum_hessian":[4.097383E3,2.253406E3,1.8439766E3,7.0163715E2,1.5517689E3,3.694047E2,1.4745718E3,1.8695879E2,5.1467834E2,2.8019656E2,1.2715724E3,1.6810541E2,2.0129929E2,2.5023909E2,1.2243328E3,1.0702132E2,7.993746E1,2.1388042E1,4.9329034E2,5.7342106E1,2.2285446E2,2.047885E2,1.0667839E3,1.647623E2,3.3431199E0,1.10948875E2,9.035041E1,8.2488365E1,1.6775073E2,1.3564815E2,1.0886846E3],"tree_param":{"num_deleted":"0","num_feature":"142","num_nodes":"31","size_leaf_vector":"1"}},{"base_weights":[7.5551274E-4,-3.1541216E-1,3.926E-1,-5.8837086E-1,-1.5715946E-1,2.4053468E-1,6.864622E-1,-7.8449965E-1,-4.4107705E-1,-3.4329575E-1,-6.7327686E-2,4.8466858E-1,1.0459409E-1,1.0112695E0,5.281877E-1,4.758834E-3,-1.6154962E-2,-7.504085E-3,-1.4541992E-2,-8.060108E-3,1.4887741E-3,-4.7045173E-3,4.1051375E-4,1.7260818E-3,1.233187E-2,-1.548872E-3,4.3827295E-3,2.1540968E-2,8.770858E-3,8.073873E-3,1.6641892E-2],"categories":[],"categories_nodes":[],"categories_segments":[],"categories_sizes":[],"default_left":[0,0,1,0,0,0,0,0,0,0,0,0,0,0,0,0,0,0,0,0,0,0,0,0,0,0,0,0,0,0,0],"id":34,"left_children":[1,3,5,7,9,11,13,15,17,19,21,23,25,27,29,-1,-1,-1,-1,-1,-1,-1,-1,-1,-1,-1,-1,-1,-1,-1,-1],"loss_changes":[5.0605624E2,9.743292E1,8.1176025E1,2.3301819E1,2.3888638E1,3.9844955E1,3.0971344E1,8.742416E0,8.468842E0,1.1696159E1,1.4320336E1,2.2458351E1,1.6219357E1,6.73584E0,1.529744E1,0E0,0E0,0E0,0E0,0E0,0E0,0E0,0E0,0E0,0E0,0E0,0E0,0E0,0E0,0E0,0E0],"parents":[2147483647,0,0,1,1,2,2,3,3,4,4,5,5,6,6,7,7,8,8,9,9,10,10,11,11,12,12,13,13,14,14],"right_children":[2,4,6,8,10,12,14,16,18,20,22,24,26,28,30,-1,-1,-1,-1,-1,-1,-1,-1,-1,-1,-1,-1,-1,-1,-1,-1],"split_conditions":[6.323767E-1,4.1178846E-1,7.5789475E-1,3.0423003E-1,0E0,2E0,2E0,3.3333334E-1,2E0,6.877539E-1,4.7614336E-1,6.666667E-1,7.301248E-1,3.368259E-1,8.72093E-1,4.758834E-3,-1.6154962E-2,-7.504085E-3,-1.4541992E-2,-8.060108E-3,1.4887741E-3,-4.7045173E-3,4.1051375E-4,1.7260818E-3,1.233187E-2,-1.548872E-3,4.3827295E-3,2.1540968E-2,8.770858E-3,8.073873E-3,1.6641892E-2],"split_indices":[18,18,25,18,130,91,91,62,134,5,46,62,66,59,25,0,0,0,0,0,0,0,0,0,0,0,0,0,0,0,0],"split_type":[0,0,0,0,0,0,0,0,0,0,0,0,0,0,0,0,0,0,0,0,0,0,0,0,0,0,0,0,0,0,0],"sum_hessian":[4.0817083E3,2.2590142E3,1.8226941E3,8.2732025E2,1.431694E3,1.2031608E3,6.1953326E2,3.5176297E2,4.7555728E2,4.6429794E2,9.6739606E2,4.2869305E2,7.744678E2,2.0012524E2,4.1940802E2,7.4170213E0,3.4434595E2,3.8963843E2,8.591884E1,4.0648807E2,5.7809856E1,3.3183746E2,6.355586E2,1.0745576E2,3.212373E2,2.989582E2,4.7550958E2,1.781669E2,2.1958351E1,3.002384E2,1.19169624E2],"tree_param":{"num_deleted":"0","num_feature":"142","num_nodes":"31","size_leaf_vector":"1"}},{"base_weights":[-3.7936768E-3,3.0239102E-1,-4.1687238E-1,7.683154E-1,1.864036E-1,-2.6788735E-1,-6.6342515E-1,1.0381166E0,6.175565E-1,4.207402E-1,6.756739E-2,-3.126497E-1,-1.574149E-2,-5.760722E-1,-8.759535E-1,1.049453E-2,2.2839012E-2,4.69764E-3,1.4902543E-2,4.8026796E-3,1.2550767E-2,4.000129E-3,-1.3514733E-3,-6.760665E-3,1.3707111E-3,1.7878877E-2,-1.333944E-3,-1.8828163E-2,-1.0431516E-2,-1.8082434E-2,-5.051828E-3],"categories":[],"categories_nodes":[],"categories_segments":[],"categories_sizes":[],"default_left":[0,0,0,0,0,0,0,0,0,0,0,0,0,0,0,0,0,0,0,0,0,0,0,0,0,0,0,0,0,0,0],"id":35,"left_children":[1,3,5,7,9,11,13,15,17,19,21,23,25,27,29,-1,-1,-1,-1,-1,-1,-1,-1,-1,-1,-1,-1,-1,-1,-1,-1],"loss_changes":[5.1971686E2,1.2721269E2,6.389749E1,1.7977448E1,5.2583427E1,1.2298134E1,1.1306946E1,7.7798615E0,1.4541718E1,2.3437355E1,2.2533745E1,9.040451E0,7.735087E0,8.490341E0,2.848999E0,0E0,0E0,0E0,0E0,0E0,0E0,0E0,0E0,0E0,0E0,0E0,0E0,0E0,0E0,0E0,0E0],"parents":[2147483647,0,0,1,1,2,2,3,3,4,4,5,5,6,6,7,7,8,8,9,9,10,10,11,11,12,12,13,13,14,14],"right_children":[2,4,6,8,10,12,14,16,18,20,22,24,26,28,30,-1,-1,-1,-1,-1,-1,-1,-1,-1,-1,-1,-1,-1,-1,-1,-1],"split_conditions":[4.3575788E-1,1.8247904E-1,6.2473005E-1,2E0,2E0,2E0,7.5662446E-1,6.5E-1,1.0025358E-1,8.2E-1,3.207547E-1,4.3898207E-1,4E-1,1E0,6.5384614E-1,1.049453E-2,2.2839012E-2,4.69764E-3,1.4902543E-2,4.8026796E-3,1.2550767E-2,4.000129E-3,-1.3514733E-3,-6.760665E-3,1.3707111E-3,1.7878877E-2,-1.333944E-3,-1.8828163E-2,-1.0431516E-2,-1.8082434E-2,-5.051828E-3],"split_indices":[19,19,19,91,91,130,19,63,103,64,19,102,64,47,12,0,0,0,0,0,0,0,0,0,0,0,0,0,0,0,0],"split_type":[0,0,0,0,0,0,0,0,0,0,0,0,0,0,0,0,0,0,0,0,0,0,0,0,0,0,0,0,0,0,0],"sum_hessian":[4.1060503E3,2.358229E3,1.747821E3,4.68192E2,1.8900371E3,1.0916827E3,6.5613837E2,1.6443091E2,3.0376108E2,6.3439764E2,1.2556395E3,9.264565E2,1.6522629E2,4.6928867E2,1.8684967E2,2.9351358E1,1.3507956E2,7.720736E1,2.2655373E2,3.4063284E2,2.9376477E2,6.341695E2,6.2147E2,8.6901965E2,5.7436832E1,7.343785E0,1.578825E2,5.7509075E1,4.117796E2,1.7797157E2,8.878109E0],"tree_param":{"num_deleted":"0","num_feature":"142","num_nodes":"31","size_leaf_vector":"1"}},{"base_weights":[-8.469987E-4,3.614306E-1,-3.155144E-1,8.3225656E-1,2.7457485E-1,-1.4153165E-1,-5.564401E-1,1.0901495E0,5.782448E-1,5.2301526E-1,1.4461131E-1,3.937073E-2,-2.2894652E-1,-8.556701E-1,-4.7976914E-1,6.24377E-3,2.288301E-2,2.5793028E-3,1.45976525E-2,1.4963358E-3,1.2323633E-2,5.3708707E-3,7.338782E-4,-9.552231E-4,8.426211E-3,-5.960282E-3,-1.1948764E-3,-2.2338888E-2,-1.4676431E-2,-1.3798457E-2,-7.81519E-3],"categories":[],"categories_nodes":[],"categories_segments":[],"categories_sizes":[],"default_left":[0,0,0,0,0,0,0,0,0,0,0,0,0,0,0,0,0,0,0,0,0,0,0,0,0,0,0,0,0,0,0],"id":36,"left_children":[1,3,5,7,9,11,13,15,17,19,21,23,25,27,29,-1,-1,-1,-1,-1,-1,-1,-1,-1,-1,-1,-1,-1,-1,-1,-1],"loss_changes":[4.658722E2,7.722522E1,9.1494095E1,1.8207214E1,5.1677658E1,2.0152342E1,2.02753E1,5.3871E0,1.0126186E1,2.2860641E1,1.408902E1,1.3892173E1,9.969173E0,4.4667053E0,1.3202148E1,0E0,0E0,0E0,0E0,0E0,0E0,0E0,0E0,0E0,0E0,0E0,0E0,0E0,0E0,0E0,0E0],"parents":[2147483647,0,0,1,1,2,2,3,3,4,4,5,5,6,6,7,7,8,8,9,9,10,10,11,11,12,12,13,13,14,14],"right_children":[2,4,6,8,10,12,14,16,18,20,22,24,26,28,30,-1,-1,-1,-1,-1,-1,-1,-1,-1,-1,-1,-1,-1,-1,-1,-1],"split_conditions":[3.771316E-1,1.4803398E-1,5.71116E-1,2E0,2E0,2E0,2.4337554E-1,4E0,0E0,4.8E-1,-6E0,1.566275E3,1.2E0,2E0,2E0,6.24377E-3,2.288301E-2,2.5793028E-3,1.45976525E-2,1.4963358E-3,1.2323633E-2,5.3708707E-3,7.338782E-4,-9.552231E-4,8.426211E-3,-5.960282E-3,-1.1948764E-3,-2.2338888E-2,-1.4676431E-2,-1.3798457E-2,-7.81519E-3],"split_indices":[19,19,19,48,91,91,18,17,130,63,20,3,28,48,48,0,0,0,0,0,0,0,0,0,0,0,0,0,0,0,0],"split_type":[0,0,0,0,0,0,0,0,0,0,0,0,0,0,0,0,0,0,0,0,0,0,0,0,0,0,0,0,0,0,0],"sum_hessian":[4.0837473E3,1.8980153E3,2.185732E3,2.934209E2,1.6045944E3,1.2708171E3,9.149149E2,1.4295265E2,1.5046826E2,5.4927856E2,1.0553158E3,4.1391443E2,8.569027E2,1.8323683E2,7.316781E2,1.0059176E1,1.3289348E2,3.8836586E1,1.1163167E2,9.517851E1,4.5410004E2,4.8973984E2,5.65576E2,3.3788367E2,7.603075E1,6.0728107E2,2.4962163E2,5.4119717E1,1.2911713E2,2.1434789E2,5.173302E2],"tree_param":{"num_deleted":"0","num_feature":"142","num_nodes":"31","size_leaf_vector":"1"}},{"base_weights":[-3.698575E-4,-2.9709765E-1,3.704147E-1,-6.296473E-1,-1.6526699E-1,2.4037175E-1,6.9813687E-1,-8.5697293E-1,-5.255545E-1,-1.8774292E-3,-2.4545293E-1,5.0051963E-1,9.996626E-2,1.0482584E0,5.2954817E-1,-2.0815121E-2,-1.3828312E-2,-4.1714427E-3,-1.1357752E-2,-4.374322E-3,3.3194795E-3,-5.9178174E-3,-5.6273513E-4,1.8498374E-3,1.2220444E-2,3.8045997E-4,8.282382E-3,2.2395961E-2,9.128851E-3,1.719324E-2,7.951551E-3],"categories":[],"categories_nodes":[],"categories_segments":[],"categories_sizes":[],"default_left":[0,0,1,0,0,0,0,0,0,0,0,0,0,0,0,0,0,0,0,0,0,0,0,0,0,0,0,0,0,0,0],"id":37,"left_children":[1,3,5,7,9,11,13,15,17,19,21,23,25,27,29,-1,-1,-1,-1,-1,-1,-1,-1,-1,-1,-1,-1,-1,-1,-1,-1],"loss_changes":[4.510583E2,9.9608795E1,7.731775E1,1.4467407E1,2.1371643E1,4.760949E1,2.9507477E1,4.8372955E0,5.7447586E0,1.969821E1,1.1958519E1,2.047557E1,2.158633E1,6.1125336E0,1.4695534E1,0E0,0E0,0E0,0E0,0E0,0E0,0E0,0E0,0E0,0E0,0E0,0E0,0E0,0E0,0E0,0E0],"parents":[2147483647,0,0,1,1,2,2,3,3,4,4,5,5,6,6,7,7,8,8,9,9,10,10,11,11,12,12,13,13,14,14],"right_children":[2,4,6,8,10,12,14,16,18,20,22,24,26,28,30,-1,-1,-1,-1,-1,-1,-1,-1,-1,-1,-1,-1,-1,-1,-1,-1],"split_conditions":[6.323767E-1,3.7526998E-1,7.766498E-1,2.5534442E-1,2E0,2E0,2E0,2E0,7E-1,5.068785E-1,6.5987945E0,4.8E-1,3.5857582E-1,3.2980973E-1,-1.2E1,-2.0815121E-2,-1.3828312E-2,-4.1714427E-3,-1.1357752E-2,-4.374322E-3,3.3194795E-3,-5.9178174E-3,-5.6273513E-4,1.8498374E-3,1.2220444E-2,3.8045997E-4,8.282382E-3,2.2395961E-2,9.128851E-3,1.719324E-2,7.951551E-3],"split_indices":[18,18,25,25,91,91,91,91,105,18,2,63,102,59,20,0,0,0,0,0,0,0,0,0,0,0,0,0,0,0,0],"split_type":[0,0,0,0,0,0,0,0,0,0,0,0,0,0,0,0,0,0,0,0,0,0,0,0,0,0,0,0,0,0,0],"sum_hessian":[4.096773E3,2.275959E3,1.8208141E3,6.4428754E2,1.6316714E3,1.305633E3,5.15181E2,1.986504E2,4.4563712E2,5.3806805E2,1.0936033E3,4.5606378E2,8.495693E2,1.6470508E2,3.5047592E2,9.0099E1,1.08551414E2,5.3828976E1,3.9180814E2,2.3483626E2,3.032318E2,8.867831E2,2.068202E2,9.79706E1,3.5809317E2,6.7703625E2,1.7253305E2,1.455978E2,1.9107286E1,9.751675E1,2.5295918E2],"tree_param":{"num_deleted":"0","num_feature":"142","num_nodes":"31","size_leaf_vector":"1"}},{"base_weights":[7.906121E-3,-2.82174E-1,3.6865726E-1,-5.17502E-1,-9.182137E-2,2.63345E-1,7.7174276E-1,-3.9304474E-1,-6.8641675E-1,9.180956E-2,-1.8114626E-1,5.249585E-1,1.272624E-1,9.3384594E-1,4.934142E-1,-2.6601548E-3,-9.198578E-3,-1.5971357E-2,-9.627587E-3,-3.14765E-3,5.5904216E-3,-4.856648E-3,9.264533E-5,-3.358972E-4,1.2671251E-2,1.1858934E-3,7.065305E-3,1.9896286E-2,7.821784E-3,1.2645267E-2,-6.087626E-3],"categories":[],"categories_nodes":[],"categories_segments":[],"categories_sizes":[],"default_left":[0,0,0,1,0,0,0,0,0,0,0,0,0,0,0,0,0,0,0,0,0,0,0,0,0,0,0,0,0,0,0],"id":38,"left_children":[1,3,5,7,9,11,13,15,17,19,21,23,25,27,29,-1,-1,-1,-1,-1,-1,-1,-1,-1,-1,-1,-1,-1,-1,-1,-1],"loss_changes":[4.2622757E2,1.00991684E2,7.66582E1,2.069751E1,2.0538187E1,5.1167015E1,1.6089554E1,1.0019211E1,9.083572E0,1.9242783E1,9.672966E0,2.9063354E1,1.4531436E1,7.0585175E0,1.599173E1,0E0,0E0,0E0,0E0,0E0,0E0,0E0,0E0,0E0,0E0,0E0,0E0,0E0,0E0,0E0,0E0],"parents":[2147483647,0,0,1,1,2,2,3,3,4,4,5,5,6,6,7,7,8,8,9,9,10,10,11,11,12,12,13,13,14,14],"right_children":[2,4,6,8,10,12,14,16,18,20,22,24,26,28,30,-1,-1,-1,-1,-1,-1,-1,-1,-1,-1,-1,-1,-1,-1,-1,-1],"split_conditions":[6.323767E-1,4.4799376E-1,8.367537E-1,5.5E0,2E0,2E0,3E0,1.5955587E-1,3E0,4.8514727E-1,1.4642176E-2,4.4E-1,3.6642048E-1,3.2843414E-1,1.088E2,-2.6601548E-3,-9.198578E-3,-1.5971357E-2,-9.627587E-3,-3.14765E-3,5.5904216E-3,-4.856648E-3,9.264533E-5,-3.358972E-4,1.2671251E-2,1.1858934E-3,7.065305E-3,1.9896286E-2,7.821784E-3,1.2645267E-2,-6.087626E-3],"split_indices":[18,18,18,20,91,91,91,39,91,46,129,63,100,59,32,0,0,0,0,0,0,0,0,0,0,0,0,0,0,0,0],"split_type":[0,0,0,0,0,0,0,0,0,0,0,0,0,0,0,0,0,0,0,0,0,0,0,0,0,0,0,0,0,0,0],"sum_hessian":[4.0699397E3,2.255966E3,1.8139736E3,1.00741797E3,1.2485482E3,1.4403804E3,3.7359326E2,5.8325494E2,4.2416302E2,4.082078E2,8.403404E2,4.9114746E2,9.492329E2,2.3363074E2,1.3996252E2,1.2055001E2,4.627049E2,2.7106583E2,1.5309721E2,1.7525789E2,2.3294992E2,6.3092487E2,2.0941548E2,8.20754E1,4.0907205E2,7.315606E2,2.1767233E2,2.0874829E2,2.4882456E1,1.1958619E2,2.0376333E1],"tree_param":{"num_deleted":"0","num_feature":"142","num_nodes":"31","size_leaf_vector":"1"}},{"base_weights":[-3.390085E-4,-2.2928298E-1,4.2813808E-1,-4.1727975E-1,-2.8788272E-2,7.9067034E-1,3.311024E-1,-7.0378107E-1,-3.1821504E-1,9.21803E-2,-1.9389969E-1,1.0676852E0,5.339678E-1,4.6807587E-1,1.1074475E-1,-1.5225586E-2,-5.9287176E-3,-1.0168116E-2,-4.6942104E-3,-1.4238139E-3,4.954034E-3,1.1322061E-2,-4.2763106E-3,7.062806E-3,2.2429492E-2,1.4257471E-2,4.6872366E-3,5.0629424E-3,1.2034183E-2,8.991122E-3,3.972191E-4],"categories":[],"categories_nodes":[],"categories_segments":[],"categories_sizes":[],"default_left":[0,0,0,0,0,0,0,0,0,0,0,0,0,0,0,0,0,0,0,0,0,0,0,0,0,0,0,0,0,0,0],"id":39,"left_children":[1,3,5,7,9,11,13,15,17,19,21,23,25,27,29,-1,-1,-1,-1,-1,-1,-1,-1,-1,-1,-1,-1,-1,-1,-1,-1],"loss_changes":[3.9799924E2,9.9617645E1,4.9195984E1,3.8288116E1,2.5635101E1,2.01053E1,3.3588165E1,7.731659E0,1.5896568E1,1.885479E1,8.361647E0,4.684189E0,8.088596E0,1.9454315E1,1.319688E1,0E0,0E0,0E0,0E0,0E0,0E0,0E0,0E0,0E0,0E0,0E0,0E0,0E0,0E0,0E0,0E0],"parents":[2147483647,0,0,1,1,2,2,3,3,4,4,5,5,6,6,7,7,8,8,9,9,10,10,11,11,12,12,13,13,14,14],"right_children":[2,4,6,8,10,12,14,16,18,20,22,24,26,28,30,-1,-1,-1,-1,-1,-1,-1,-1,-1,-1,-1,-1,-1,-1,-1,-1],"split_conditions":[6.8007755E-1,5.116279E-1,1.4803398E-1,3.0423003E-1,3E0,2E0,3E0,4E0,2E0,7.3520505E-1,-1.0718309E1,4.6666667E-1,1.0354135E2,8.666667E-1,6.4E-1,-1.5225586E-2,-5.9287176E-3,-1.0168116E-2,-4.6942104E-3,-1.4238139E-3,4.954034E-3,1.1322061E-2,-4.2763106E-3,7.062806E-3,2.2429492E-2,1.4257471E-2,4.6872366E-3,5.0629424E-3,1.2034183E-2,8.991122E-3,3.972191E-4],"split_indices":[18,18,19,18,91,48,91,91,48,66,122,62,44,62,107,0,0,0,0,0,0,0,0,0,0,0,0,0,0,0,0],"split_type":[0,0,0,0,0,0,0,0,0,0,0,0,0,0,0,0,0,0,0,0,0,0,0,0,0,0,0,0,0,0,0],"sum_hessian":[4.0543918E3,2.6430745E3,1.4113174E3,1.3629572E3,1.2801173E3,2.9551166E2,1.1158058E3,3.4757706E2,1.0153801E3,7.388542E2,5.412632E2,1.3966588E2,1.5584578E2,6.8677136E2,4.2903442E2,3.0322675E2,4.4350334E1,3.070987E2,7.0828143E2,3.6041666E2,3.784375E2,1.2642896E1,5.286203E2,1.0702271E1,1.2896361E2,9.607375E1,5.9772026E1,2.652489E2,4.2152243E2,8.9259254E1,3.3977515E2],"tree_param":{"num_deleted":"0","num_feature":"142","num_nodes":"31","size_leaf_vector":"1"}},{"base_weights":[5.547517E-3,-2.7562183E-1,3.55819E-1,-1.0954602E-1,-5.030105E-1,2.6735196E-1,8.4793836E-1,5.7864122E-2,-1.926759E-1,-7.887701E-1,-4.29621E-1,5.054589E-1,1.4441828E-1,1.115329E0,5.864996E-1,-3.139598E-3,4.5058015E-3,-5.085773E-3,5.983567E-4,2.206286E-3,-1.6373632E-2,-9.075964E-3,1.1243375E-3,1.7594607E-3,1.2136016E-2,1.4350964E-3,7.333356E-3,3.6139856E-3,2.336118E-2,1.3998666E-2,1.8495561E-3],"categories":[],"categories_nodes":[],"categories_segments":[],"categories_sizes":[],"default_left":[0,0,0,0,0,0,0,0,0,0,0,0,0,0,0,0,0,0,0,0,0,0,0,0,0,0,0,0,0,0,0],"id":40,"left_children":[1,3,5,7,9,11,13,15,17,19,21,23,25,27,29,-1,-1,-1,-1,-1,-1,-1,-1,-1,-1,-1,-1,-1,-1,-1,-1],"loss_changes":[4.00696E2,8.507849E1,7.842653E1,1.8210594E1,1.9332031E1,4.4846893E1,1.8087296E1,1.5678608E1,1.2015686E1,5.381424E0,9.016022E0,2.1970856E1,1.6336393E1,6.1623993E0,7.809452E0,0E0,0E0,0E0,0E0,0E0,0E0,0E0,0E0,0E0,0E0,0E0,0E0,0E0,0E0,0E0,0E0],"parents":[2147483647,0,0,1,1,2,2,3,3,4,4,5,5,6,6,7,7,8,8,9,9,10,10,11,11,12,12,13,13,14,14],"right_children":[2,4,6,8,10,12,14,16,18,20,22,24,26,28,30,-1,-1,-1,-1,-1,-1,-1,-1,-1,-1,-1,-1,-1,-1,-1,-1],"split_conditions":[6.323767E-1,5.620438E-1,8.578995E-1,2E0,2.5231287E-1,2E0,2E0,4.8468608E-1,6.4876884E-1,4.857143E-1,1.1262729E2,6.666667E-1,3.6304945E-1,5E0,1.073E2,-3.139598E-3,4.5058015E-3,-5.085773E-3,5.983567E-4,2.206286E-3,-1.6373632E-2,-9.075964E-3,1.1243375E-3,1.7594607E-3,1.2136016E-2,1.4350964E-3,7.333356E-3,3.6139856E-3,2.336118E-2,1.3998666E-2,1.8495561E-3],"split_indices":[18,19,18,91,18,91,48,46,5,107,45,62,100,96,32,0,0,0,0,0,0,0,0,0,0,0,0,0,0,0,0],"split_type":[0,0,0,0,0,0,0,0,0,0,0,0,0,0,0,0,0,0,0,0,0,0,0,0,0,0,0,0,0,0,0],"sum_hessian":[4.0654995E3,2.2552239E3,1.8102755E3,1.3048644E3,9.503595E2,1.5365686E3,2.737069E2,4.3270978E2,8.7215466E2,1.909329E2,7.594266E2,5.213325E2,1.0152361E3,1.3270207E2,1.4100484E2,1.8929689E2,2.4341289E2,6.83266E2,1.8888867E2,5.9101524E0,1.8502275E2,7.237164E2,3.5710243E1,1.025712E2,4.1876135E2,7.6692706E2,2.4830904E2,7.5428596E0,1.2515922E2,1.14001114E2,2.7003733E1],"tree_param":{"num_deleted":"0","num_feature":"142","num_nodes":"31","size_leaf_vector":"1"}},{"base_weights":[7.22894E-4,-3.4085318E-1,2.7867013E-1,-1.3844731E-1,-4.9578217E-1,1.5820137E-1,6.04881E-1,3.1217853E-2,-2.2061224E-1,-4.318406E-1,-8.691765E-1,3.0118686E-1,-5.6302443E-2,9.0003556E-1,4.0008727E-1,5.6295577E-3,-2.3488742E-3,3.813701E-4,-6.345151E-3,-1.326392E-2,-6.6373027E-3,-1.8342316E-2,-7.617859E-3,3.4648578E-3,9.311514E-3,-1.744479E-3,1.0132504E-2,1.850066E-2,-1.1402665E-2,1.46587305E-2,6.3094324E-3],"categories":[],"categories_nodes":[],"categories_segments":[],"categories_sizes":[],"default_left":[0,0,1,0,1,0,0,0,0,0,0,0,0,0,0,0,0,0,0,0,0,0,0,0,0,0,0,0,0,0,0],"id":41,"left_children":[1,3,5,7,9,11,13,15,17,19,21,23,25,27,29,-1,-1,-1,-1,-1,-1,-1,-1,-1,-1,-1,-1,-1,-1,-1,-1],"loss_changes":[3.8672485E2,5.7137177E1,8.8046005E1,1.1107101E1,2.3999268E1,5.042849E1,3.5899643E1,9.746046E0,1.2453911E1,2.0068481E1,2.8457184E0,2.0555199E1,1.1477127E1,9.882843E0,9.689579E0,0E0,0E0,0E0,0E0,0E0,0E0,0E0,0E0,0E0,0E0,0E0,0E0,0E0,0E0,0E0,0E0],"parents":[2147483647,0,0,1,1,2,2,3,3,4,4,5,5,6,6,7,7,8,8,9,9,10,10,11,11,12,12,13,13,14,14],"right_children":[2,4,6,8,10,12,14,16,18,20,22,24,26,28,30,-1,-1,-1,-1,-1,-1,-1,-1,-1,-1,-1,-1,-1,-1,-1,-1],"split_conditions":[5.792858E-1,5.4804945E-1,7.5789475E-1,2E0,8.5E0,3E0,2E0,1.0400147E2,-2.196E0,2E0,8.214286E-1,8.25E-1,9.2214204E-2,1.07272E2,-1.2E1,5.6295577E-3,-2.3488742E-3,3.813701E-4,-6.345151E-3,-1.326392E-2,-6.6373027E-3,-1.8342316E-2,-7.617859E-3,3.4648578E-3,9.311514E-3,-1.744479E-3,1.0132504E-2,1.850066E-2,-1.1402665E-2,1.46587305E-2,6.3094324E-3],"split_indices":[18,19,25,91,20,91,48,41,8,48,16,64,129,6,20,0,0,0,0,0,0,0,0,0,0,0,0,0,0,0,0],"split_type":[0,0,0,0,0,0,0,0,0,0,0,0,0,0,0,0,0,0,0,0,0,0,0,0,0,0,0,0,0,0,0],"sum_hessian":[4.0704202E3,1.8258678E3,2.2445522E3,7.931494E2,1.0327184E3,1.6410509E3,6.0350146E2,2.5868823E2,5.344611E2,8.8471826E2,1.4800012E2,9.845935E2,6.5645734E2,2.4492621E2,3.5857523E2,9.615366E1,1.6253458E2,1.5362929E2,3.8083185E2,2.6410245E2,6.206158E2,1.3338255E2,1.4617559E1,5.557454E2,4.2884805E2,6.236458E2,3.2811527E1,2.4144511E2,3.4811025E0,7.011032E1,2.884649E2],"tree_param":{"num_deleted":"0","num_feature":"142","num_nodes":"31","size_leaf_vector":"1"}},{"base_weights":[-5.159536E-3,-2.3339649E-1,4.202881E-1,-4.742428E-1,-6.411652E-2,7.580385E-1,3.1320313E-1,-8.1342214E-1,-4.0675133E-1,1.4056394E-1,-1.6258305E-1,1.0527899E0,4.9360496E-1,5.4828143E-1,1.856204E-1,-2.1864453E-2,-1.3776882E-2,-1.2415674E-2,-6.2715774E-3,4.637153E-3,-3.3529042E-3,-1.3205844E-3,-5.4769875E-3,1.1459058E-2,2.2267658E-2,1.1222104E-2,-5.144314E-3,8.600487E-4,1.3595319E-2,5.2747405E-3,-1.8912039E-3],"categories":[],"categories_nodes":[],"categories_segments":[],"categories_sizes":[],"default_left":[0,0,0,0,0,0,0,0,0,0,0,0,0,0,0,0,0,0,0,0,0,0,0,0,0,0,0,0,0,0,0],"id":42,"left_children":[1,3,5,7,9,11,13,15,17,19,21,23,25,27,29,-1,-1,-1,-1,-1,-1,-1,-1,-1,-1,-1,-1,-1,-1,-1,-1],"loss_changes":[3.924449E2,1.0715428E2,5.057132E1,2.4226837E1,3.1211735E1,2.5441391E1,3.1989594E1,4.909889E0,1.7730942E1,1.4215389E1,1.1170122E1,3.4834747E0,9.439102E0,2.491948E1,1.5348965E1,0E0,0E0,0E0,0E0,0E0,0E0,0E0,0E0,0E0,0E0,0E0,0E0,0E0,0E0,0E0,0E0],"parents":[2147483647,0,0,1,1,2,2,3,3,4,4,5,5,6,6,7,7,8,8,9,9,10,10,11,11,12,12,13,13,14,14],"right_children":[2,4,6,8,10,12,14,16,18,20,22,24,26,28,30,-1,-1,-1,-1,-1,-1,-1,-1,-1,-1,-1,-1,-1,-1,-1,-1],"split_conditions":[6.8007755E-1,4.6398354E-1,1.6E-1,2.4337554E-1,2E0,2E0,2E0,2E0,2E0,2.1569881E-1,1.4E1,5.75E-1,6.818182E-1,4E0,4E0,-2.1864453E-2,-1.3776882E-2,-1.2415674E-2,-6.2715774E-3,4.637153E-3,-3.3529042E-3,-1.3205844E-3,-5.4769875E-3,1.1459058E-2,2.2267658E-2,1.1222104E-2,-5.144314E-3,8.600487E-4,1.3595319E-2,5.2747405E-3,-1.8912039E-3],"split_indices":[18,18,19,18,91,48,91,48,48,58,43,64,15,65,91,0,0,0,0,0,0,0,0,0,0,0,0,0,0,0,0],"split_type":[0,0,0,0,0,0,0,0,0,0,0,0,0,0,0,0,0,0,0,0,0,0,0,0,0,0,0,0,0,0,0],"sum_hessian":[4.0387146E3,2.6291726E3,1.409542E3,1.083834E3,1.5453386E3,3.3689832E2,1.0726437E3,1.7687685E2,9.0695715E2,5.014102E2,1.0439285E3,1.5702263E2,1.7987567E2,3.75336E2,